nep4 3 Mo Si N 
cutoff 6 4 102 33
n_max 4 4
basis_size 12 12
l_max 4 2 0
ANN 30 0
 -3.7846239e-05
 -3.0321896e-06
 -3.1018182e-05
 -2.3412967e-05
  1.3811727e-05
 -1.7874856e-05
  3.7872269e-08
 -3.9567200e-05
 -2.4612127e-05
  4.8675091e-05
 -1.0952540e-04
  6.3759035e-05
 -6.3174208e-05
 -3.2415115e-05
  1.2639817e-05
  1.1179523e-04
 -1.2619486e-05
  8.8724511e-05
 -1.0952041e-04
 -5.8573787e-06
 -5.0477665e-05
 -6.7268425e-05
 -3.9032552e-06
 -1.3747046e-05
 -2.9104445e-05
 -8.4545689e-05
 -3.5008372e-05
 -1.0940568e-05
  6.7066794e-06
 -4.8635993e-05
 -5.7746463e-05
 -1.5807823e-04
  9.6190735e-05
 -3.0565436e-05
 -3.7942453e-05
  4.3980685e-06
  1.9620156e-06
  3.6651047e-05
  1.5881047e-05
  8.6719891e-05
  1.0743413e-04
 -1.4624488e-05
 -3.4926225e-06
 -7.2258001e-05
  8.2243369e-06
 -4.9328817e-05
  2.9129140e-05
  1.3406658e-04
  5.0409140e-05
 -2.4833403e-06
  2.7593631e-05
  1.5968067e-04
 -4.2645647e-06
  2.4748235e-05
  2.4901457e-05
  2.4379001e-06
 -3.1302432e-05
  3.0992680e-06
  3.3148332e-05
 -2.6331889e-04
 -3.4261666e-07
  6.6264975e-06
 -6.8820955e-06
 -1.2227712e-05
  9.3179115e-06
 -6.2309896e-06
 -9.2868046e-05
  7.1723216e-06
  2.3902048e-05
  1.9631643e-05
 -9.9291014e-05
 -4.7917845e-05
  9.2584494e-05
  1.6642452e-04
 -7.1497292e-05
  9.9720797e-05
 -1.0351097e-04
 -5.6554156e-05
 -9.6906479e-06
 -3.9306353e-05
 -3.7283568e-05
 -1.1957189e-05
 -3.7044854e-05
  1.5370765e-04
  1.4258672e-05
  4.3743512e-05
  3.8548378e-06
  9.7713280e-05
  1.2237082e-05
 -3.8341863e-05
 -7.2187999e-05
 -3.7253205e-05
 -1.6022890e-05
  5.0793991e-05
  1.0245998e-04
  6.6656692e-05
  3.4544806e-05
 -2.0511143e-05
  9.9206307e-05
 -3.5441182e-05
 -2.8473755e-06
  3.8950904e-05
  1.8076116e-05
  6.1268101e-06
  7.6325894e-05
  4.7120826e-05
  5.2181829e-05
 -3.9782426e-05
  4.0607334e-05
  7.9954392e-05
  5.1178195e-05
 -6.2858213e-05
  1.6865351e-05
 -8.1784827e-05
 -4.7676149e-05
 -4.2760337e-05
 -1.0491609e-04
  9.4785151e-05
  2.5170448e-05
 -9.2159935e-06
 -1.0872631e-04
 -1.7452270e-05
  8.2428369e-06
  5.1018441e-01
  6.8334919e-01
  1.5855408e-05
  6.3739637e-05
 -3.8907590e-04
 -2.2955064e-04
 -1.2047661e-01
 -1.3642941e-04
 -3.1267431e-05
  2.2099966e-04
  9.2948169e-02
  2.1672940e-01
 -4.0381845e-05
 -6.5013373e-05
  2.4315175e-05
 -4.5196561e-05
  4.8778212e-04
  4.7281424e-05
 -5.0528941e-04
  9.4104230e-02
 -9.6392425e-05
  5.2950942e-05
 -5.2964595e-05
  3.8538401e-05
 -1.4923223e-04
 -1.2130396e-05
  6.7094901e-05
  5.9017038e-05
 -1.9935815e-05
 -1.7418502e-06
  2.4571185e-05
 -2.7748346e-02
 -2.6248539e-05
  3.4392247e-05
 -2.4328567e-05
  1.1384297e-05
  8.5093605e-05
 -4.2077238e-05
 -7.6567958e-06
  1.6727921e-04
  7.4579570e-05
 -2.4578838e-05
  1.8928848e-05
 -6.4275708e-05
  4.0461404e-05
 -1.0421152e-04
 -2.3046430e-05
  3.3238415e-05
  1.3996874e-05
  1.4354901e-04
  4.1742187e-05
 -1.2727367e-05
  1.4897434e-04
 -2.8938966e-06
 -1.9233440e-04
 -1.7189563e-05
 -8.6074087e-06
  2.0853857e-05
 -4.0880725e-05
  6.1412262e-05
  6.4529471e-05
 -1.9895633e-06
 -8.5060448e-05
 -3.7012876e-05
 -7.5081807e-06
  8.3455052e-06
  5.3593802e-05
 -6.8508325e-07
 -2.8226885e-05
  2.0499323e-05
  4.4834309e-05
 -6.0734292e-05
 -1.3001950e-05
  6.4866988e-05
  5.9360573e-06
 -2.5351712e-04
 -1.4327239e-04
 -3.0753141e-05
 -2.3731791e-05
  2.7753465e-05
 -2.0887905e-05
  1.2107457e-04
  5.1245320e-06
 -7.5430937e-05
  2.2721088e-05
  7.7317964e-06
  3.9087347e-05
 -4.3412881e-05
 -2.1016967e-05
  7.0844399e-05
  6.5510594e-06
  1.3518712e-04
  1.6023430e-05
  5.3884967e-05
 -7.7832257e-05
 -5.1816547e-05
 -9.0725534e-06
  3.8716546e-04
  1.3298387e-04
  1.1756300e-05
  3.5314548e-05
  1.2651511e-04
 -3.6942936e-05
 -2.2967051e-05
  1.3683703e-04
  1.4712845e-05
  1.4493227e-04
  7.5421594e-06
 -2.5220033e-05
  1.0338242e-04
 -9.4024135e-06
 -5.7001951e-05
 -2.8893341e-05
 -1.1482650e-05
 -9.5272859e-05
 -3.8500151e-05
  2.2795302e-05
  1.5308995e-05
 -8.4740197e-05
 -2.7162903e-05
 -2.6755115e-06
 -5.0309372e-05
  1.4351339e-04
  2.9173754e-05
  3.0223000e-05
 -2.8370216e-05
  2.5248575e-05
 -8.7882290e-07
  8.1462190e-07
 -8.8204455e-05
 -5.5970013e-05
  3.2561275e-05
  1.1971673e-05
  5.2948644e-06
 -2.7141672e-05
 -1.3681552e-05
  7.4383443e-06
 -9.3041244e-06
  5.5813553e-06
  1.0387089e-05
  1.0739215e-04
 -1.3667074e-05
 -1.4078983e-05
 -1.1701746e-05
  1.1345133e-05
  2.9342482e-05
  1.9083996e-05
 -1.6510901e-05
 -2.8249178e-05
 -3.8600483e-05
  1.5812591e-04
  3.4899524e-05
  4.7597350e-05
 -1.6086098e-05
  8.3150837e-05
  5.0002676e-05
 -9.3464572e-05
  6.9448670e-06
 -8.7026820e-07
 -1.0721268e-04
  7.5968106e-05
 -1.5192650e-06
 -1.3869921e-04
 -3.2376061e-05
  3.8496411e-05
 -2.8789154e-05
 -5.1742289e-05
  8.1222490e-05
  4.4054228e-05
  3.4829485e-05
 -1.7799084e-05
 -1.7466755e-05
 -4.6200535e-04
 -9.3042116e-05
  3.7556176e-05
  1.2667252e-04
 -1.3895320e-05
  9.4874552e-04
 -1.7704813e-02
 -2.1887578e-01
  1.6737770e-01
  7.4937785e-01
 -3.9277956e-02
  1.2111313e+00
 -9.8028839e-02
 -1.7489159e-02
  2.1294267e+00
  4.4787264e-01
  1.3706209e-04
  4.3602955e-01
  1.5458767e+00
 -6.3719416e-01
  2.1552651e+00
 -1.3144765e+00
  7.1297830e-01
 -2.1763667e-02
  8.3551401e-01
  4.9075121e-01
  2.9336038e-04
  1.2988263e+00
 -9.8065868e-02
 -2.9160029e-01
  3.1261891e-02
  4.8257816e-01
 -4.6094198e-04
  1.3913263e-01
 -6.2575829e-01
 -6.8299894e-05
  2.3403780e-05
 -3.6238102e-04
 -1.3504949e-05
  1.7855920e-05
 -1.8095005e-05
 -4.6722871e-05
 -4.2578286e-06
 -5.3842996e-05
 -2.7857295e-05
  5.4992968e-05
  7.4481628e-05
 -5.5405749e-06
  1.0487423e-06
 -1.8888943e-04
  2.5154895e-05
  3.7215501e-05
  3.5476256e-05
 -5.8044407e-07
  1.7545104e-05
  6.1704857e-05
 -7.2586998e-05
 -2.5552203e-05
 -2.1510199e-05
 -4.8081107e-05
  5.7059609e-05
 -1.0535072e-04
 -6.5315202e-05
  1.1836751e-06
  4.7157050e-06
 -2.5475243e-04
 -2.0247080e-06
 -5.4190754e-05
  3.4788936e-05
  8.6015600e-05
  5.5769746e-05
 -2.0763164e-05
 -3.5664118e-05
 -5.5882309e-02
  5.1940468e-05
  4.2353524e-05
 -3.5424378e-05
  5.7905985e-05
  9.2998249e-05
 -7.1668284e-05
  3.2983226e-05
 -4.6693513e-05
 -8.5223401e-06
 -7.7792101e-05
  2.3962017e-05
 -2.5021332e-05
  3.4925200e-05
  1.1226092e-04
  2.2594108e-05
  1.1402238e-04
 -1.7551929e-05
  8.1881022e-05
  2.9969362e-06
  7.9951024e-05
  1.0318345e-04
  8.1531922e-05
  1.0336495e-04
 -4.1992416e-06
  1.8611059e-05
 -9.1544149e-05
 -9.1168440e-05
  8.3575149e-05
  3.9623956e-05
 -3.0768580e-05
  2.3444311e-05
  5.4055978e-05
 -5.2556505e-05
  5.9521831e-06
  1.1671781e-04
 -3.4817763e-06
  1.1837891e-04
 -4.8233993e-05
  2.0407786e-05
 -1.8183011e-05
 -1.2688886e-04
 -5.0086732e-05
  4.0625091e-05
  9.5485695e-05
  1.2369437e-05
 -9.1504580e-07
  6.8569034e-06
  9.1411755e-05
  3.8672712e-05
 -4.5214962e-05
 -2.3022758e-05
 -3.1413398e-05
 -1.5248110e-05
  1.8840135e-05
  8.5095795e-05
 -2.6230440e-05
 -8.2930375e-05
 -1.7398119e-05
 -6.8458525e-05
 -5.8181704e-05
 -1.1231536e-05
 -1.1219107e-05
  1.0516590e-05
 -3.1437601e-05
  2.5047402e-05
 -4.2168609e-05
 -2.0427155e-04
 -1.4928613e-06
 -6.4353653e-06
 -5.6953377e-05
  3.2359963e-05
 -1.6770871e-05
 -6.8301590e-05
  4.8305610e-06
 -3.0099483e-05
  7.0808870e-05
 -4.2544783e-05
 -1.0329040e-05
 -5.8896214e-05
  8.4481408e-06
  4.5908037e-06
  4.5241843e-05
  6.3039508e-05
  1.5546297e-05
  7.2821922e-07
 -1.4939023e-06
  6.0952079e-05
  6.7716610e-05
 -1.6257054e-05
  2.0929267e-06
 -5.0405629e-07
 -3.4266013e-05
 -2.6526130e-05
  3.5161916e-05
  4.6130674e-05
 -3.8817881e-05
  6.0652910e-05
 -3.0267924e-05
  1.0370472e-05
  1.5745742e-05
  5.8433980e-05
 -4.6439825e-05
  4.5662200e-06
  1.6909526e-05
 -2.6740972e-04
 -4.5449840e-05
  8.3909086e-05
 -5.6501740e-05
  1.3285005e-04
 -9.9164434e-05
 -6.3315500e-05
 -4.3172051e-05
 -3.4899502e-05
 -6.3873238e-05
  6.3693360e-06
  1.0874910e-04
 -4.0985557e-05
  5.3348533e-05
 -6.6174754e-05
  3.3118545e-06
  1.2585160e-04
  1.6529611e-05
  1.9837891e-05
 -6.0812113e-06
  5.3470485e-06
  3.6195001e-06
 -6.6453496e-05
  1.0560303e-04
  5.9858336e-05
 -1.6049527e-05
 -2.6511889e-06
  1.2110030e-04
  4.1965912e-05
  7.0375238e-05
 -5.5776309e-05
  2.0365880e-05
 -3.9177830e-05
 -9.9228755e-06
  1.7900378e-04
  1.3698405e-05
  3.0845396e-05
  1.0352596e-04
 -4.3078628e-05
 -4.0192175e-05
  8.4824751e-06
 -2.5820273e-05
  2.1568945e-04
 -8.5599873e-05
  5.1369407e-05
  4.4109100e-05
 -8.7260094e-05
  3.0342519e-05
 -2.5114816e-06
  1.6206459e-05
 -2.6199866e-06
  1.6926891e-05
  1.2770570e-05
 -1.1215561e-04
 -3.4882447e-05
  1.0620888e-05
 -1.7643833e-05
  3.8604205e-05
  1.0868688e-04
 -6.0595845e-05
 -6.4980901e-05
  2.8672946e-05
 -2.0360658e-05
  1.0601289e-04
  1.4488552e-04
  3.6232188e-05
  1.1590060e-04
 -7.7956963e-01
 -7.7581257e-01
  7.0999712e-01
 -1.0112096e+00
  1.0055126e+00
  3.7789348e-01
  9.8558980e-01
 -2.5727037e-01
 -7.0087039e-01
 -1.3859959e-01
  3.0004844e-01
 -9.5945597e-01
 -9.2778176e-01
  6.5396339e-01
 -9.5912993e-02
  2.2054551e+00
 -1.7036864e+00
 -4.0835377e-02
  1.0062001e+00
  5.0960547e-01
 -7.8131445e-05
 -3.5719052e-01
  1.6138670e+00
 -2.2377899e-01
 -4.8524243e-01
  8.9098558e-02
  1.8910281e-01
 -3.4475286e-02
  2.9751372e-01
 -2.9297060e-01
  9.0065887e-06
 -1.6945110e-05
 -4.3824006e-05
 -6.1880106e-05
 -9.8379032e-06
  2.3003870e-04
  2.2611433e-05
 -5.7059890e-05
  6.3009895e-05
 -5.4696437e-05
  1.5413252e-06
 -6.5219624e-06
  7.0624854e-05
 -1.0779966e-04
 -5.1819725e-06
 -1.0414148e-04
  5.4894736e-05
  1.3604138e-05
  2.6696283e-05
  5.3848809e-05
  1.2494727e-04
 -1.0639978e-05
  5.2788349e-05
  4.3530712e-05
  3.0540374e-05
  5.7218873e-05
 -8.8111687e-05
  1.5315845e-06
  8.5809716e-06
 -6.0593542e-05
 -8.9487323e-05
  4.9557599e-05
  1.1599255e-04
  6.7780507e-05
  7.2271047e-05
  6.2258368e-05
 -1.9593232e-05
  9.3149611e-06
  7.3039875e-05
 -2.2206941e-05
 -1.3865838e-07
  2.5966908e-06
 -6.5465400e-05
 -1.7894129e-04
  3.8642087e-05
 -5.8157057e-05
  4.4319750e-05
  5.2533287e-05
 -9.9851182e-05
  1.9666631e-05
 -5.1451780e-06
 -5.0823678e-06
 -7.9817755e-06
 -1.6761511e-05
 -6.0027692e-06
 -9.9864337e-05
  1.0087342e-04
 -1.2827870e-05
  7.1772938e-06
  1.0614642e-04
 -1.2298654e-04
  1.1454158e-04
 -1.7383354e-05
  3.6957652e-05
 -5.0685874e-05
  1.0227267e-04
 -3.0402844e-05
  2.2981435e-06
 -6.1308194e-05
 -5.6783024e-06
 -5.3968852e-05
  3.2384138e-05
 -2.3876868e-05
 -2.5526842e-05
  6.8149879e-05
 -2.4584504e-05
 -1.7864630e-05
 -1.5245765e-04
  1.5246054e-05
  1.6881731e-05
 -9.7072480e-06
  8.6617089e-05
  1.7795901e-04
 -1.0378150e-04
  1.3239918e-05
 -2.8240449e-06
  4.0016171e-06
 -2.6969523e-05
  5.2901014e-05
 -2.1287258e-05
 -8.3013560e-07
 -7.0539672e-06
 -2.7314213e-06
 -2.6195562e-06
  2.6801767e-06
 -1.6326016e-04
 -2.3707173e-05
 -2.6925369e-05
  3.5140656e-05
 -2.6403741e-05
 -1.3141913e-04
  3.4152908e-05
  1.6215025e-05
  2.7243197e-05
  3.0673134e-05
 -6.5626511e-05
 -4.4832235e-05
  3.2810603e-05
  5.0963299e-05
 -9.9984412e-05
  2.2801534e-05
  1.3093690e-04
  3.4806565e-06
  1.6866870e-04
  7.7105578e-05
 -1.7124075e-04
  1.3172407e-04
  5.5299664e-05
  1.2475457e-04
  5.5951306e-05
  3.6898946e-05
 -8.7317973e-02
 -8.4910709e-05
 -4.8720798e-01
  6.4832067e-01
 -5.1316092e-05
 -7.8834983e-04
 -2.2785208e-04
  5.2437733e-04
  9.5648551e-01
 -2.2750257e-01
  7.2462171e-06
 -1.7695840e-02
 -1.3514044e-04
 -3.0267930e-01
  5.2914625e-01
 -4.9950762e-05
  3.9293525e-05
  3.7522797e-02
 -1.0188232e-04
  1.9115084e-04
  4.9474674e-01
  9.8679040e-05
  9.2303148e-05
  6.8757718e-06
 -1.0475160e-02
 -4.2060640e-04
 -4.5963239e-05
 -6.0548500e-06
 -7.2055489e-05
 -2.1956386e-05
  1.9203154e-04
 -1.8497049e-05
 -4.0178046e-01
 -5.7989717e-01
 -1.0915252e-05
 -5.0299932e-05
  4.5518752e-02
  4.0791295e-03
  9.0680766e-01
 -1.3917351e-05
 -2.7866423e-05
 -1.2388259e-01
 -2.3825754e-01
 -3.2891569e-01
 -8.2662424e-05
 -6.3004787e-05
 -1.5981685e-01
  2.8892574e-03
 -7.6872729e-02
  6.5055639e-05
  1.4204320e-01
 -5.5226427e-02
  7.9092761e-06
  8.7826556e-06
 -4.8932608e-04
 -8.2828228e-05
 -3.0382735e-06
  1.0546626e-05
 -4.2378633e-05
  2.6485524e-01
  1.2674792e+00
 -5.6414905e-05
  1.2693813e+00
  1.8114394e+00
  1.0324928e+00
  2.6686522e-01
  1.1878540e-01
 -2.8823409e-04
 -7.9490268e-01
  7.5225365e-01
  1.7338681e+00
  2.0653655e-01
  1.2757938e+00
  1.1142385e+00
 -3.6433610e-01
 -3.5498118e-01
 -5.0515380e-02
  2.2242940e-04
  1.3420792e-01
  3.2647139e-01
 -4.9000967e-01
  1.4544729e+00
  1.9391051e-01
  2.1662621e-01
  6.3014942e-01
  8.4569614e-04
 -1.5638735e-02
 -6.2585599e-04
 -1.3530721e-04
 -4.3703814e-05
 -3.7389484e-05
 -5.7841908e-07
  1.3488451e-05
  1.1033180e-06
  2.4017680e-05
  7.2276729e-05
  8.0047212e-06
 -1.3148629e-06
  2.7105605e-05
  6.1135484e-05
  6.9180560e-06
 -3.5471770e-05
  1.7396169e-04
 -1.5159103e-05
 -1.3753104e-04
 -1.3942240e-05
 -5.7369343e-05
  3.1047144e-05
 -4.2818060e-06
 -8.9511646e-05
 -1.2471538e-05
  4.4098077e-05
 -7.6205062e-05
 -4.2351308e-05
  5.1619527e-06
  3.7624566e-05
 -5.4134045e-05
  1.0999262e-05
 -1.2562849e-05
  5.2217365e-06
 -2.1673419e-05
  3.1164982e-05
  7.4258015e-02
  3.1613442e-01
 -4.3506410e-05
  2.9932189e-05
 -1.4373949e-01
 -1.2650913e-02
 -2.1621506e-01
  2.9067047e-05
 -2.4681608e-04
  3.5364252e-02
  1.6548194e-01
  3.8595727e-01
  3.3651278e-05
  4.9133880e-05
 -7.3287229e-05
 -1.8644280e-04
  8.6728920e-05
  4.4783264e-06
 -9.3280353e-02
  6.4914398e-02
  1.4242395e-05
 -7.5259086e-06
  6.7061381e-05
  7.4402531e-05
  2.4879846e-05
 -8.1108883e-06
  4.2988281e-06
  3.3920165e-05
 -2.9328181e-05
 -4.9027174e-05
  1.4910285e-05
  3.6061323e-05
 -2.1515718e-05
  1.2449732e-04
 -1.3107358e-06
 -7.0554190e-05
  2.7505448e-06
  3.2546788e-05
  4.8998558e-05
  4.4307053e-05
 -1.1051224e-05
  6.0355491e-05
  2.1811247e-05
 -1.8474595e-04
 -2.1099224e-05
 -4.4182183e-05
  5.0492625e-05
  6.3826723e-05
  5.5704837e-05
  2.1775413e-05
 -3.7380352e-05
  3.0811294e-05
  4.1895662e-05
  3.4041765e-05
 -1.5553249e-05
 -2.7232101e-05
 -1.5346301e-05
  2.5734791e-05
 -2.6976093e-05
  1.2777829e-04
  1.5741589e-06
 -2.3829696e-01
 -1.4607996e-05
 -1.6870370e-04
  3.9847353e-05
  3.1081290e-05
  4.1220731e-01
  8.9460136e-06
  6.8557856e-05
  1.9685231e-06
 -5.1189452e-02
  4.6444402e-06
 -3.4559178e-04
 -6.0716455e-05
 -6.5913162e-05
 -3.6312078e-05
 -2.6588403e-05
  8.3887266e-05
 -2.4697663e-05
 -2.2371947e-05
  1.6182767e-05
  1.0548036e-05
  2.5958311e-06
 -9.2975119e-05
 -3.3038170e-05
 -2.1010504e-05
  6.7702626e-05
  2.8875796e-05
 -1.7226563e-05
  1.1908965e-05
 -1.0396249e-04
  1.9892433e-04
  1.9335715e-05
 -6.5142012e-06
  1.9720408e-06
 -1.7704091e-05
 -8.9460045e-05
 -8.6303420e-02
  1.7848266e-05
  2.9097460e-05
  2.1032179e-06
  1.8997575e-06
 -1.9376581e-05
  1.0429289e-05
 -4.3145010e-05
 -1.7699927e+00
 -1.3915589e-04
 -1.2494061e-04
  4.7286489e-05
 -1.0796131e-04
  1.0836143e-01
  1.3416530e-05
  1.3762044e+00
 -6.9414484e-05
  2.2373368e-05
  1.0410849e-06
  1.1423024e-04
  9.5271025e-06
  2.3023874e-06
 -2.4308581e-05
  5.0335519e-05
  7.8622079e-01
  8.0877056e-05
  9.0247791e-05
  1.4525439e-04
  1.6126254e-05
 -4.7478927e-05
  1.8152961e+00
 -2.7804792e-05
 -5.0602175e-05
 -3.8292321e-05
  1.5628186e-05
 -1.0636518e-05
 -1.0758243e-04
 -1.5775024e-05
  2.9839153e+00
 -6.5545100e-05
  1.1748528e-05
 -9.0651498e-05
 -5.3155694e-05
 -1.3031358e+00
 -1.0739578e+00
  2.6755300e+00
  1.4587310e-05
  8.9624596e-01
 -1.1903195e-04
 -1.7507842e-01
 -5.9574508e-05
  9.8835390e-06
 -6.9961985e-05
  3.0423382e-05
  3.8796108e-05
 -3.8910588e-05
  9.1378542e-06
  8.3059131e-05
  1.2753803e-04
  1.1626397e-04
 -6.5477674e-05
  3.7690785e-05
  2.2406181e-05
  7.9873525e-06
  7.6598168e-05
  8.3857209e-05
  4.8313937e-05
 -1.4533092e-01
  8.9959512e-06
  1.3030600e-04
 -1.2328870e-04
 -4.3290769e-05
  1.3951439e-04
  6.2850813e-05
 -7.6788529e-06
 -2.8957016e-05
  7.4609954e-05
 -1.3933089e-02
 -5.8883674e-05
 -2.2289205e-05
  5.6504027e-06
  1.0537121e-04
 -4.6559875e-05
 -2.1752599e-04
  1.3334611e-04
 -3.6955222e-05
 -5.8880994e-07
 -7.1306698e-05
  1.7640170e-05
 -4.2961492e-06
 -4.4787797e-05
 -2.0509851e-06
 -2.7529975e-05
  8.1680017e-05
 -2.3682204e-04
  2.2100019e-05
 -1.2569413e-04
 -2.6389202e-05
  1.2417211e-05
  4.3417753e-05
 -1.6546343e-05
  3.2437216e-05
  8.3115810e-05
 -1.5716039e-04
 -2.2430283e-04
 -1.2130475e-05
  1.2286996e-05
  8.8732922e-05
  1.9890605e-05
 -9.2956980e-05
  1.2746980e-04
  3.1779266e-05
  7.7685581e-06
  1.4285184e-04
  4.7211372e-05
  6.7687310e-05
 -3.3845114e-05
  3.0142630e-05
  8.5408083e-06
 -8.9169582e-05
 -5.7104291e-05
  4.0971860e-05
 -8.2061466e-05
  1.4811173e-05
  2.5404972e-05
  8.0219343e-06
 -8.8407060e-06
 -1.0514295e-04
 -1.7544202e-05
  2.4824689e-05
  8.3911873e-06
 -1.9533767e-05
  2.0679588e-05
  2.2501330e-05
 -5.3098549e-05
  1.4687577e-05
  6.6885390e-05
 -1.2020410e-05
 -3.4069439e-05
 -3.6064765e-05
 -1.3831277e+00
  6.1786836e-01
 -1.6402533e+00
  2.4470916e-01
 -1.1331446e+00
 -9.8177639e-05
  1.3744643e+00
  9.3366265e-01
 -7.2102726e-01
  2.6251543e-01
 -1.2093997e+00
  2.3406589e+00
 -1.0119325e+00
  5.9702313e-01
  1.4068379e+00
 -1.4849173e+00
 -2.0165604e-01
 -6.2121218e-01
  2.4033126e-01
  2.3794609e-01
  8.4589499e-01
  1.5010132e-02
 -8.9491373e-01
  2.9813913e-01
 -2.0930463e-02
 -7.7303809e-01
  1.5485643e+00
  1.3032338e-01
 -1.2581299e-01
 -7.6297122e-01
 -2.9663130e-05
 -5.7065179e-05
  6.0411341e-05
 -8.9132918e-05
  1.8937893e-04
  1.0328392e-04
 -3.2501625e-06
 -3.6260946e-05
 -2.8481363e-05
 -4.6537265e-05
  1.7716089e-03
  2.1338255e-05
  3.1721988e-01
 -5.6031954e-06
 -1.6649934e-02
  3.9485345e-05
  1.1044136e-05
  6.8590119e-02
 -6.6030674e-02
  6.7988367e-05
  2.7993761e-04
  1.5087427e-04
  4.7390364e-05
  2.1759801e-05
  4.4297190e-05
 -3.6442758e-05
 -1.2196146e-05
  2.8572662e-04
 -3.4030829e-05
 -2.3897705e-05
 -4.7585097e-04
  2.8676316e-01
 -6.1648053e-01
  5.1249087e-01
  1.4677166e+00
 -9.4358111e-05
 -5.8378696e-01
  2.3696440e-01
  3.8615057e-05
 -1.5221756e+00
 -6.9599313e-01
  1.2249866e-04
 -1.3047668e+00
  4.5749286e-01
  1.6940791e-02
 -5.3393734e-01
  1.9840785e-05
  1.7362334e-02
 -1.3434959e-02
  7.6044522e-02
 -6.7571825e-01
 -1.7446652e-01
  6.0512853e-01
 -3.7515870e-01
  9.7206765e-01
 -2.4945806e-01
 -2.3589300e-03
  6.4633495e-01
 -1.3673664e+00
  1.1762635e-01
 -1.4792554e-01
  4.1548374e-06
  1.0415234e-03
  9.9060126e-02
  2.6813194e-01
 -9.5214673e-06
  1.1143475e-04
 -1.2718885e-01
 -2.5327519e-01
 -6.5062255e-02
  1.1449310e-02
 -8.2109691e-05
  1.8199015e-01
 -1.0968220e-02
  1.6294656e-04
 -9.5524816e-03
  5.8922480e-05
  2.5256324e-01
 -1.1839246e+00
 -1.7562348e-01
  1.1815108e-01
  7.2617181e-02
  1.0940180e-01
 -3.2507724e-06
  9.9983208e-02
 -3.8230996e-06
 -4.7980458e-05
 -3.6914447e-01
  3.7943605e-02
  3.0339601e-05
  1.5207724e-01
  8.7084445e-05
 -6.5805216e-06
  2.9683111e-05
  3.8434038e-05
 -2.3268367e-05
 -3.5474870e-05
  1.0081869e+00
  2.2507089e-04
  1.1147887e-02
 -4.7596982e-01
  1.8855491e-05
 -2.6239529e-01
  1.5541622e-01
  4.1348913e-01
  7.4139825e-05
 -3.2432284e-04
 -5.7993954e-01
  3.7239772e-01
  2.4955307e-01
 -1.4928080e-05
 -6.2001302e-05
  1.0451698e+00
  4.5370598e-07
  2.0759144e-04
 -1.7250780e-04
 -7.2298215e-05
 -1.0601807e-02
 -7.1849830e-02
  4.6580222e-05
  4.0729010e-06
 -2.0661115e-05
  5.2699870e-05
 -1.8241521e-05
  2.7421864e-05
 -2.9304883e-05
  5.7744778e-06
 -9.5217452e-05
  7.3416406e-05
  1.4234396e-05
  5.1996914e-05
  1.1026767e-05
 -4.4894703e-05
 -5.5740065e-06
 -1.7049072e-04
 -9.7831671e-06
  1.0227616e-04
  7.3480714e-06
  1.0142185e-04
  3.4571487e-05
  1.0011278e-04
  2.2975501e-05
  1.4867392e-05
  7.1797200e-05
  1.0193938e-04
  1.5641558e-04
  4.5971279e-05
  5.4085381e-06
  1.6939599e-04
  7.9249287e-07
 -1.0872345e-01
 -3.5380879e-05
  6.3759722e-02
  4.5174681e-02
 -6.4676261e-01
  1.7075624e+00
 -8.4646031e-02
 -2.7154586e-01
 -1.5622631e-05
  3.7983708e-02
  1.0301896e-01
 -1.6621358e-05
 -7.2386909e-01
  1.7922696e-01
  5.8668256e-01
  2.5747949e-01
  7.2122133e-01
  1.8499371e-01
  7.3864150e-01
 -1.9579123e+00
  1.4548138e-01
 -1.6086109e-01
 -3.2720461e-02
  6.9003016e-02
 -5.7962930e-01
  2.2841433e-01
  8.2431631e-03
  3.3875477e-01
  1.3592932e-02
  6.9635558e-01
 -4.7506197e-05
  2.9270575e-05
 -5.2353815e-05
  2.3826596e-04
  2.3930400e-04
  2.8011571e-05
  1.7856677e-05
 -5.1905699e-05
  7.6834229e-05
  1.2808391e-04
  2.7936268e-05
 -5.8582500e-05
 -8.8526394e-05
 -8.1238250e-06
 -1.5810709e-05
 -5.0189483e-05
 -7.2390598e-05
 -4.7372876e-05
 -3.7483929e-05
 -2.1157532e-05
  1.1969992e-04
  1.6313368e-05
 -3.8881859e-05
 -1.9006926e-05
 -6.4393273e-05
  9.4385090e-05
 -1.1412870e-04
  2.4017052e-05
 -8.3033505e-05
 -5.4569932e-07
  1.6662135e-06
  1.3450320e-06
  4.6599700e-05
  1.5566737e-04
  5.9471560e-05
  5.4393728e-05
  4.3322540e-05
  6.2539330e-05
  1.6088622e-04
  8.9403795e-05
  1.7489742e-04
 -3.0297801e-05
  5.9696464e-05
 -3.5238809e-05
  1.8156816e-04
  2.6175923e-05
 -3.1536823e-05
  6.7891735e-05
  1.6868261e-04
  8.5768166e-05
 -1.5979761e-04
  4.5858604e-05
 -6.7816392e-05
  1.6395281e-05
  3.3357901e-06
  1.9625606e-05
  7.2519048e-05
  1.2871524e-05
  2.3746041e-05
  2.3063796e-05
 -1.7610735e-05
 -2.6294298e-04
  1.7914108e-05
  7.0539318e-05
 -4.1593719e-04
  1.9083900e-05
 -1.0266735e-04
  1.8461130e-04
 -3.2108837e-05
  1.1572523e-04
  2.3870114e-05
  3.4488692e-06
 -1.2761088e-04
  5.0313350e-02
  6.5249264e-02
  2.4993939e-04
 -2.2946759e-05
 -1.7816202e-01
 -9.9193174e-05
 -5.4466791e-06
 -3.4437544e-05
  6.1366998e-05
  4.6194171e-05
  1.2778834e-05
  2.1176697e-06
 -2.3324390e-05
  7.8027944e-05
  2.2439210e-06
 -1.2789703e-05
  1.7861898e-05
 -7.5647995e-07
 -5.5252740e-06
  4.0118048e-06
 -1.1707540e-05
  9.2282671e-06
  1.3063387e-04
 -8.5637701e-05
  1.6481579e-05
 -2.9404831e-05
 -6.4571817e-05
 -2.9318297e-05
 -9.5512378e-06
 -2.3840257e-06
 -9.5411224e-06
 -1.1917844e-04
  6.8421912e-05
 -5.1284242e-05
 -1.1740117e-05
 -1.2197177e-05
  3.3969145e-06
 -6.0198796e-05
 -4.2150717e-05
 -3.6176101e-05
  1.0479039e-04
 -1.6157597e-05
 -5.7686557e-05
 -7.2973689e-06
  4.0476516e-05
 -5.5567925e-05
  1.6502936e-05
  1.0641415e-04
  2.0728468e-05
 -9.7112525e-07
  6.7854875e-05
 -2.7521466e-05
 -2.3832749e-06
  7.7013065e-06
  9.5528676e-06
  2.4330800e-05
 -2.5675824e-06
 -1.6199442e-04
 -6.5758641e-06
 -8.8433939e-05
 -2.7468735e-05
  3.5197479e-06
 -1.0934609e-05
 -1.0054120e-05
 -2.8775294e-05
  7.4266895e-06
 -8.2300066e-06
  8.5635576e-05
 -2.4261282e-05
  1.5188567e-05
  2.4705665e-05
  3.6749545e-05
  4.9717028e-07
  6.4320135e-05
 -7.2420677e-05
  4.1327174e-05
  4.6521332e-06
  2.8125997e-04
 -2.0356111e-07
  1.2182321e-05
  6.9318567e-06
  4.3296664e-06
 -3.6909287e-06
 -8.5719803e-06
  4.5418514e-05
  1.4505244e-04
  1.4092216e-04
 -1.7554227e-04
 -3.7909012e-05
 -2.7451228e-05
 -3.1113712e-05
  4.3179774e-05
 -2.5091598e-05
 -5.0852901e-05
  8.6054897e-06
 -3.7828613e-05
 -1.3646123e-04
  6.1028681e-05
 -2.1763732e-04
 -3.1808131e-06
 -2.6361597e-05
  1.5981839e-04
  3.0860137e-05
 -7.9133766e-05
  6.8237285e-05
 -1.3643526e-05
 -1.1019882e-05
 -8.3441137e-06
 -8.6848537e-05
  9.0355235e-05
 -9.5642652e-05
 -3.5177269e-05
 -8.9676996e-06
  9.6957765e-06
 -1.8976367e-05
 -7.7700541e-05
 -4.4389663e-04
  3.9191678e-04
 -1.2653634e-04
  2.3921113e-03
 -4.2033913e-05
 -3.6763613e-05
 -1.7584351e-04
 -7.5093863e-06
  3.2059574e-01
 -3.1530276e-02
 -3.9309991e-05
  6.8799360e-05
  2.5486501e-05
 -8.0697464e-06
  9.2880873e-05
  7.4373005e-05
  1.5418527e-04
 -1.2266748e-04
  2.2896154e-01
  4.9558970e-05
  1.4468178e-04
 -1.2313235e+00
 -5.5213436e-03
  5.1047409e-01
  9.9727470e-01
  1.3657716e-01
  3.8144012e-06
  9.9232369e-05
 -1.7228592e-04
 -9.8872828e-05
 -1.5406102e-05
  2.0092069e-01
  4.2050651e-05
 -4.3031794e-01
 -1.5879772e+00
 -3.4920388e-01
 -5.9391472e-02
  2.9358178e-01
 -1.2624899e-01
 -7.9259151e-01
 -6.3948557e-03
  2.7119350e-01
  2.9495808e-01
  1.7019174e-01
 -1.8677785e-05
  1.2705162e-01
  9.0553185e-05
 -5.6959481e-05
 -8.7559965e-07
 -1.2880106e+00
  1.2902625e-05
  6.1508560e-01
 -1.8008216e-03
 -1.6358867e-01
 -4.6282697e-01
  1.2901098e-01
 -6.2131221e-07
 -3.5448235e-01
 -1.0331196e+00
  2.6320025e-02
 -5.7494842e-02
  2.4993673e-01
 -4.6471730e-01
 -4.5539081e-01
  2.6992327e-01
  3.2660207e-01
 -2.4078505e-02
 -2.7091679e-01
 -1.2079314e-01
 -3.9147818e-01
  9.3999103e-02
 -6.3059997e-06
  2.2861584e-01
 -5.6291956e-01
 -4.1452590e-02
  3.4748966e-01
 -4.2993909e-01
 -1.2656029e-01
  4.8353709e-02
  2.6782936e-01
  5.1844972e-03
  5.1139858e-05
  4.9260740e-05
  2.5292293e-05
  5.1896546e-05
 -6.6474508e-06
  6.8468835e-05
 -3.1166648e-05
  3.3674598e-05
 -7.4875061e-05
 -3.6601700e-06
 -1.6110210e-04
  2.0621554e-05
 -4.0520888e-05
 -2.0446810e-03
  4.6730917e-03
  2.2850938e-05
  9.3201288e-06
  5.2713440e-05
 -4.3678323e-05
  3.9600629e-05
 -9.7727323e-05
 -3.0410622e-05
  3.8959701e-05
 -4.8451118e-05
  1.4282663e-05
 -9.7015163e-06
  1.1275979e-04
 -1.7219356e-05
 -1.0373790e-04
 -9.3389281e-05
  2.3778048e-01
  7.4242376e-02
 -1.1640195e-04
  8.4199589e-01
 -7.5286132e-01
  2.7539870e-01
 -7.1793220e-05
  8.4204191e-01
  1.1542335e-04
  8.2612311e-04
 -4.9559691e-04
  1.9636388e-01
  1.5991448e+00
 -8.0364943e-02
 -1.5158245e-01
  2.4957752e-01
  3.3356363e-01
  2.7332800e-02
  7.4901932e-01
  1.1958786e+00
 -2.8432158e-05
 -1.6926159e-01
  4.2133141e-01
  4.3838817e-01
 -4.7505441e-01
 -4.4561248e-06
  6.5603563e-05
 -1.1866686e+00
 -2.3012808e-01
  1.4120210e+00
 -2.3296224e-04
 -2.8618248e-05
 -4.7451493e-05
 -2.8308959e-05
 -5.0039369e-05
  1.4882847e-05
  1.7922295e-04
 -1.0755009e-04
 -1.4586642e-05
 -3.0220608e-04
 -6.6504217e-05
 -1.3963430e-04
  7.0599322e-06
  6.4298683e-06
 -4.0924275e-05
 -7.9640540e-06
 -1.2786066e-05
 -1.5746888e-04
  1.8195806e-06
  9.9152521e-07
  1.7633785e-05
 -6.3436528e-05
  2.9991535e-05
  3.1279214e-04
 -2.3351064e-05
 -4.1844673e-05
  5.1633844e-05
  3.6583606e-07
 -5.5736262e-05
  2.1900676e-05
 -2.6984447e-01
 -6.2039224e-03
 -2.3055007e+00
  8.0091143e-01
  1.5880526e+00
  7.9546168e-02
 -6.8727678e-01
 -1.2699524e+00
 -3.8125691e-01
 -1.3081719e-01
  6.3848591e-01
  5.8676549e-03
  5.1199180e-01
  1.0702815e+00
 -5.5503166e-01
 -2.2019204e-01
 -3.3785667e-02
  1.8707278e-01
 -6.9579828e-01
  2.1540057e-02
  5.9719652e-01
 -3.0671704e-01
 -1.5604319e-01
  1.6556613e-01
  3.1796080e-01
  8.3070183e-03
  1.1470248e-03
  3.8069868e-01
 -1.4171913e-01
  3.6599526e-01
  1.2356171e-04
  3.8524277e-06
 -2.1999494e-06
 -6.6222761e-05
  1.8521314e-04
  2.4362580e-05
 -2.7994116e-05
  6.2196123e-05
 -8.0899008e-05
  4.9824597e-05
  3.1098854e-05
  9.1136557e-05
 -2.0256437e-05
  7.1588976e-05
 -1.0054676e-04
 -1.6650301e-06
  2.6277889e-05
 -4.3814853e-05
 -1.3459453e-05
  2.2125250e-06
 -1.4175796e-05
 -5.0614981e-06
  4.9338792e-05
  3.5236073e-05
  7.3949814e-06
  3.1660060e-05
  2.0715305e-04
 -1.4590369e-05
  4.8355814e-06
  2.6818201e-05
  4.2068646e-03
  2.2969036e-05
  2.6150398e-02
  6.5707542e-02
  7.1617506e-02
 -3.3155137e-03
 -2.3431028e-05
 -7.9180638e-05
 -3.4408230e-01
 -1.3707122e-02
  6.8557221e-03
  8.6860520e-05
  3.3413729e-01
  5.5398494e-03
 -1.4556118e-03
 -1.3104320e-02
 -2.0944288e-05
  9.1558331e-01
 -7.6288944e-01
 -3.3285622e-02
  6.4198762e-02
  7.6238535e-02
  8.1241898e-02
 -3.9521932e-05
  1.9386751e-04
 -1.3828822e-04
 -3.2165967e-06
 -4.1890748e-02
  8.8117970e-03
 -4.0313927e-03
 -4.6445313e-01
  5.3463173e-03
 -4.4134732e-02
  1.2394800e-04
 -1.0778586e-05
  3.2554707e-04
 -5.2549231e-01
  2.6510829e-06
  1.1983950e-01
 -7.3609793e-01
 -3.7042610e-03
 -3.9788330e-01
 -4.7027785e-01
 -8.8319881e-03
  1.6028945e-01
  2.9550605e-05
 -4.6237826e-01
  1.0773122e+00
  4.4321845e-05
 -3.1979971e-07
 -1.8305150e-01
 -6.3562363e-01
  2.9714099e-01
 -9.2182541e-05
  1.0511765e-01
  8.6872087e-06
 -2.4877919e-01
  1.3862384e-02
 -1.5662620e-02
  3.2416695e-01
 -5.2687838e-06
 -6.9522193e-06
 -7.2639290e-05
  2.5782600e-05
 -2.9345253e-03
  2.0003266e-04
  1.1050960e-05
  1.6473504e-04
  3.6674784e-04
  2.5525788e-04
 -6.0903749e-05
  5.7950801e-06
 -9.7214706e-02
  3.8874867e-05
 -3.9062714e-05
  9.3515438e-05
  9.6018721e-07
 -2.0428467e-01
  1.5161581e-01
 -1.3123485e-05
 -1.2856610e-05
  2.6239879e-06
  9.3156268e-07
  2.3126287e-05
 -3.1155410e-05
  9.2024857e-05
 -1.0597520e-05
 -2.9318183e-04
 -6.3306026e-05
 -5.0088303e-05
  6.4648181e-02
  5.4106576e-06
  9.8564924e-05
  6.8879968e-01
  1.4732734e-03
 -3.7221158e-05
 -4.5038734e-05
  1.3634886e-04
  2.5440018e-05
  8.3571955e-05
 -2.9281098e-05
  7.4516742e-05
  3.7602102e-03
  6.2326998e-01
 -2.0647669e-01
 -1.0167350e-05
  7.6960445e-05
  6.9417667e-01
  1.3244757e-01
  4.7871370e-05
  1.1764270e-04
 -1.6058453e-04
  4.1807402e-04
  9.5265659e-06
  3.4499721e-05
  1.4773542e-04
  1.0490522e-04
  5.8331841e-01
  1.2743018e-04
 -7.3758230e-05
  3.9772779e-01
 -8.1493505e-05
 -1.9117735e-01
  1.6435306e-04
  9.3478733e-04
  7.7297650e-03
  2.9101744e-05
  1.8742457e-03
  2.8781634e-04
 -9.8084500e-05
  7.6835754e-04
  2.1939231e-05
  1.0039841e+00
  9.3068719e-02
 -1.2575091e-04
 -2.8725626e-04
 -1.8795668e-05
 -1.1115319e+00
 -6.0969969e-06
 -2.6678845e-01
  2.2698321e-05
  3.1380310e-05
 -7.0484113e-03
 -3.1181826e-05
 -5.9752492e-05
  1.6545669e-04
  9.0191061e-05
  2.4399538e-04
  1.5816459e-03
  1.6276658e-01
 -1.0352346e+00
  7.5100482e-01
 -2.5949016e-01
 -2.5821510e-01
  2.6115701e+00
 -4.0590938e-04
 -1.5113482e+00
  1.5634774e-01
  6.9251019e-01
 -8.8917883e-03
 -6.8566936e-01
 -1.3220186e+00
  6.1957842e-01
  6.7263335e-01
  8.5817927e-01
 -5.7982665e-01
 -1.1316137e+00
  3.8036254e-01
 -1.6799575e-01
 -5.2395296e-01
  5.1793803e-02
 -6.2442482e-01
  7.1259245e-02
  2.8203785e-01
  3.9037708e-02
  4.5509297e-01
 -1.1207263e+00
  4.0603554e-01
 -4.9643344e-01
  6.0230922e-02
 -5.1635516e-07
  6.1668288e-09
 -1.1474753e-04
 -2.9193431e-01
 -2.2598310e-06
 -7.5612187e-01
  1.2346473e-01
 -3.9351061e-02
 -4.0769592e-06
  5.0912052e-01
 -3.3601609e-05
 -1.5569303e-05
  2.3635917e-05
 -2.2492866e-05
  3.2628632e-05
  5.3216856e-05
  1.2707149e-05
 -5.5674970e-01
  2.1173859e-01
  2.4381005e-05
  2.9261646e-01
  1.6561418e-05
 -5.6594793e-02
 -8.7910103e-06
  1.2113862e+00
 -6.1534208e-01
 -2.4604195e-04
  4.9627641e-01
 -1.0404398e-01
  2.3531975e-01
  2.2605862e-01
 -2.5961372e-05
 -8.0072008e-05
  2.0440950e+00
 -2.9927889e-01
 -1.5997733e+00
 -8.1506890e-01
  4.3081051e-01
  1.4754226e-05
  1.6244675e+00
  7.6787343e-05
 -1.2805199e-05
  1.8550041e-01
 -1.7811222e-05
 -9.2603788e-03
  2.0358780e-04
 -3.1527844e-01
 -4.9904111e-01
 -1.5038341e+00
  6.3052896e-05
  6.2582958e-01
 -7.3980846e-05
  1.4909681e+00
  2.8032839e-05
 -9.2583251e-01
 -1.2486827e+00
  3.6526448e-01
  3.8791224e-01
 -4.4006789e-01
 -2.5984926e+00
  5.3175751e-05
 -3.5965852e-05
  6.9844187e-05
  3.9366760e-06
 -4.1641697e-06
  2.1267542e-05
 -2.2115863e-05
 -4.5570720e-05
 -1.3012394e-04
  2.3171819e-05
  2.9566265e-05
 -3.6380676e-05
 -7.3890362e-05
  5.5195087e-05
 -8.7422974e-05
 -6.3109796e-06
  3.2119886e-05
  4.3739374e-06
 -1.4313078e-05
 -5.3384876e-05
  8.4716703e-08
  4.1007530e-05
 -4.0374189e-06
  5.7703295e-05
 -2.1886743e-05
 -5.7933344e-06
  1.1960583e-04
  2.1342057e-06
 -9.4598712e-05
 -1.9425588e-05
  9.4474824e-05
  4.3683129e-05
 -1.7206474e-04
 -5.0624061e-05
 -3.5639270e-05
  2.6778609e-05
 -1.3400216e-04
 -2.8389590e-05
  1.9279600e-04
 -1.2042097e-04
 -5.7354067e-05
  1.4803475e-05
  5.5307132e-06
 -5.1461775e-05
  1.7496638e-04
  1.0135488e-05
  3.7349851e-05
 -9.0960675e-05
  1.8983486e-05
  2.8814913e-05
  4.0722163e-05
  1.8499934e-05
 -6.1383304e-05
  2.4632864e-06
  1.5550782e-04
 -8.5818428e-06
 -1.0457420e-04
  4.2150441e-05
 -8.4797663e-05
  1.0717984e-04
  1.4417495e-01
 -2.3947096e-01
  2.1906235e-05
 -2.5528207e-01
 -4.1688594e-01
  3.1763017e-02
 -2.2095548e-02
 -5.1662707e-01
  6.5533570e-03
  3.9720180e-04
  3.1101584e-04
 -5.4820182e-05
 -5.7677388e-01
  1.8977729e-04
  1.2506483e-04
 -3.1794604e-02
  4.4166166e-04
 -1.7197672e-01
 -2.5221478e-02
 -8.3179604e-03
  1.9497710e-01
 -8.6241882e-05
 -2.4134354e-01
  1.7783825e-05
 -1.8845767e-02
  1.2824284e-04
  8.7388908e-05
 -2.3893670e-03
 -2.1479683e-01
  6.0717888e-05
  1.0292087e-01
 -1.7036836e+00
 -5.2510941e-01
 -5.2677518e-01
 -5.6471539e-01
  1.1090520e-03
 -1.3613355e-01
  3.7549654e-07
  9.8272249e-05
  1.6887068e+00
  3.4705931e-01
  2.2696731e-05
 -1.7537188e-05
  2.1007268e-02
  3.4106317e-01
  5.7099015e-01
  2.1295926e-01
 -3.2089822e-02
  4.5538567e-02
  7.7268481e-02
 -2.8684559e-01
 -1.4544573e-01
 -2.5818008e-01
  4.4076967e-01
  1.1197770e+00
  3.5045522e-01
  6.8949070e-05
 -1.4168918e-01
 -1.7025109e-04
 -5.6984946e-02
 -2.7974039e-01
  1.5119661e-01
  7.6952416e-01
 -3.0921620e-01
  4.3222193e-02
  1.8920722e-04
  2.3292498e-04
 -5.5680944e-06
  1.4938329e-05
  3.2215916e-02
 -6.3974975e-04
  3.6705045e-05
  1.7630059e-01
  3.9444226e-01
 -1.0557898e-01
  5.6631881e-01
 -6.7222573e-02
 -1.3197830e-05
  4.5282918e-04
  2.1646454e+00
  5.8421778e-04
  2.7643758e-01
  1.6512309e-04
  4.0550110e-01
  2.6558968e-01
 -6.4736705e-05
 -1.3025520e-04
 -3.3473105e-05
  6.2884268e-05
  8.3272262e-03
  4.4742097e-05
  3.7907499e-05
  6.0150436e-05
 -6.3538406e-05
  1.4659487e-05
  1.4199197e-04
 -1.1620380e-04
 -1.7966566e-05
  5.5311695e-05
 -4.6785033e-05
  9.1830057e-05
  1.6383829e-06
 -8.6626875e-05
  5.3641117e-05
  3.6663409e-05
 -7.6081247e-05
  4.5145196e-05
 -8.8626693e-05
 -1.0378753e-05
 -1.4862171e-04
  4.8292790e-05
  6.9562106e-05
 -6.0262781e-05
  4.1986568e-05
  7.7072673e-06
  7.2488772e-05
 -3.1874999e-05
  6.7574274e-06
 -4.2820750e-05
 -1.8188210e-05
  9.6293435e-05
 -1.1705633e-04
 -7.4760195e-05
 -1.3957087e-04
 -8.4214240e-05
 -7.4664611e-05
  1.5478519e-05
 -4.5749955e-05
  2.9711469e-05
 -5.0030444e-06
 -2.9991759e-05
  6.9130379e-05
 -1.1624312e-04
  8.8219975e-05
  3.7950544e-05
 -1.4692657e-05
  1.1797350e-04
  1.0093767e-05
  1.0656745e-05
 -1.3273633e-04
 -5.0723378e-05
  4.1086009e-06
 -4.9608129e-06
 -5.4593696e-05
  3.5567700e-05
 -5.4448668e-05
  7.3034236e-05
  2.1562648e-05
  2.6267848e-05
 -1.2403498e-05
  1.3789517e+00
  1.4008080e+00
  2.9005954e-01
  1.7525171e-03
  6.2336765e-02
 -1.5126383e-01
 -2.9097172e-04
 -1.0740483e+00
 -5.1165849e-01
  1.2834263e-01
 -6.7782444e-01
 -1.3388737e+00
 -4.3142736e-01
 -4.2851069e-03
  1.1321355e-03
 -5.8126652e-01
 -2.5225898e-02
 -7.9540843e-01
 -6.5771788e-01
  4.0038916e-01
  7.0464378e-04
 -2.2664936e-03
 -1.4915169e+00
 -6.0755519e-07
 -5.9479839e-01
  6.7879468e-05
 -8.3654086e-06
  1.5055899e-01
 -1.4918161e-05
  2.3019456e-05
  6.6031468e-01
 -1.1084829e-05
  1.4435153e-05
 -3.9061602e-02
 -3.0958307e-01
  2.5316345e-05
 -8.9098263e-05
 -3.6379051e-01
 -7.6564211e-05
 -1.3202004e+00
 -1.5895623e-01
 -6.1404757e-02
 -1.4815557e-01
 -3.5008654e-01
  1.3082336e-01
 -5.8457541e-04
  3.3189738e-01
 -1.0101223e-01
 -2.6188807e-05
 -8.2383645e-05
  4.3710017e-05
  7.8996840e-05
 -1.8494774e-01
 -5.8405880e-05
  3.8857847e-02
  2.2462292e-03
  6.1349274e-06
 -4.2023685e-02
 -2.2483222e-05
  2.5869409e-05
 -7.9252504e-06
  1.5272450e-04
 -3.8358437e-05
  4.4475906e-05
  3.8618535e-05
 -3.5285502e-05
 -2.8989660e-05
  1.4748480e-04
  3.5691435e-05
 -1.9669864e-05
 -1.2609559e-04
 -4.4439588e-05
  9.2592281e-06
 -8.4077561e-05
 -1.5227306e-05
  1.3624240e-06
 -1.3178415e-04
  3.9620545e-06
 -2.7494989e-05
  1.9256291e-05
 -3.0480602e-05
  1.6236703e-04
  3.4608170e-06
  1.3698836e-05
 -7.0286806e-06
  1.1770244e-05
  8.2631332e-06
  4.8322741e-05
 -2.1699918e-05
 -1.8979008e-05
  7.4914271e-01
 -1.1512758e-02
 -6.2641513e-01
  2.3484128e+00
 -1.0249720e+00
 -9.1935359e-02
 -6.8680774e-03
  2.4323702e-01
 -1.6202927e+00
 -1.6423471e-01
 -1.0715894e+00
  1.8555121e-04
 -2.4553551e-01
  3.6590476e-02
  7.2799858e-06
 -1.3526724e-01
 -1.4964388e-01
  3.1773465e+00
  2.1468516e-02
 -1.9786266e+00
  1.8477991e-01
  1.2388690e-02
  5.6878928e-02
 -2.0938085e-02
  5.5124408e-01
 -3.4181443e-01
 -2.3432450e-01
 -7.3163949e-02
  3.8229215e-01
  1.1487386e-05
  2.4405174e+00
 -2.0269246e-03
 -2.9571562e+00
 -1.1321817e-01
  1.1323004e+00
  1.1834767e+00
 -1.1146632e+00
  8.0689883e-01
  5.1024085e-01
 -3.6716735e+00
 -2.1154199e+00
  3.1083399e-01
  2.5850487e-01
 -6.3254350e-01
 -5.1243160e-02
  1.8334158e-01
  9.3048090e-01
 -1.0279734e+00
 -4.1799304e-01
  7.8256667e-04
 -1.3542594e+00
 -3.6493173e-01
 -3.1291164e-02
  3.7030962e-01
 -1.7431060e+00
 -1.5607942e+00
 -2.1697205e-01
  1.6594693e-01
  6.1836385e-04
  1.4157536e+00
 -9.8812288e-01
 -2.3600896e-01
  2.8953082e-08
  3.3219341e-05
 -1.2016009e+00
  6.6885114e-01
 -5.9116338e-03
 -9.8683578e-01
  6.6392636e-01
  2.8227183e-01
 -1.8890637e+00
  1.4007566e-05
 -8.1197190e-01
  3.5969663e-02
  9.0689170e-01
  6.0392630e-01
  3.6963332e-01
 -1.2391788e+00
 -7.7085835e-01
  8.1406146e-01
 -1.3912065e-05
 -4.3689469e-01
  1.4103325e-01
  2.6493758e-01
  1.0983179e+00
  2.8142657e-02
  1.5525136e-05
 -8.3840869e-02
 -1.6814436e-01
  5.6579319e-04
 -2.0382450e+00
  3.4723133e-02
  4.4491321e-01
  6.3631237e-01
 -1.1690354e+00
  9.5970416e-03
  6.3822538e-01
  1.1749040e+00
  5.2051239e-02
  1.5871819e+00
  1.5246606e-01
 -1.5928918e-02
  1.5249195e+00
 -6.0754967e-01
  9.9052793e-01
  5.9590238e-01
  6.2085843e-01
  9.3975186e-01
  8.2319331e-01
  5.4935008e-01
  1.1984903e+00
 -4.6221471e-01
  3.7082221e-02
 -1.7528616e-02
 -4.4352797e-01
  2.0610380e+00
 -5.2845214e-02
 -2.2468252e-01
  3.5874075e-01
  2.3717254e-02
 -3.9368402e-05
  2.8560057e-04
  2.3177405e-05
 -4.2915239e-05
  4.2216485e-05
 -1.0126705e-05
  3.6154128e-05
  1.4589680e-04
  1.5256272e-04
  1.5207337e-05
 -1.0170913e-05
  1.9011753e-05
 -3.8612005e-05
  6.5108259e-05
  9.5820047e-05
 -7.4612522e-05
  7.8894236e-06
 -3.6129717e-05
  7.4629112e-05
 -2.5129148e-05
 -8.1331193e-05
  2.2351444e-06
 -5.3538621e-05
 -9.1533066e-06
 -2.6221915e-07
  5.0464325e-05
 -7.1241171e-05
  1.3227075e-04
 -2.5638812e-05
 -8.6959981e-06
 -3.1824101e-04
 -6.6741188e-05
 -3.6233170e-05
  1.1554404e-04
 -1.0216675e-05
 -1.4581405e-04
  5.8669717e-05
  3.7526184e-05
 -4.1723673e-05
 -1.0187826e-04
 -4.6521709e-05
 -2.9271700e-05
  7.0064627e-05
  4.6920315e-05
 -7.0875969e-05
  3.3720891e-05
  9.6012249e-05
 -1.4741470e-05
 -1.1113792e-05
 -6.0794770e-05
  6.7166111e-05
 -7.6762080e-06
 -3.6097344e-06
  6.1493534e-05
  3.3128610e-05
  7.3878618e-05
 -1.1186336e-04
  8.4881412e-06
 -3.1820025e-05
 -6.5376807e-05
  1.3395956e+00
 -5.9592962e-01
 -1.9939550e+00
 -6.4711267e-01
  1.6457171e+00
  1.2701981e+00
  1.4534307e-01
 -2.5969756e-01
 -1.3537937e-02
 -4.0981129e-01
  9.0178287e-01
  5.7346100e-01
  1.8986000e+00
 -7.5100708e-01
 -8.8080579e-01
  5.3986442e-01
  3.5847622e-01
 -3.7057635e-01
  1.4081093e-02
  2.0773448e-02
 -1.1909117e+00
 -7.3170945e-02
  3.8677505e-01
  1.0947524e+00
 -6.7587531e-01
 -4.2977923e-01
 -3.0034620e-01
  5.1518196e-01
  7.6796132e-01
  8.0154050e-06
 -4.9860791e-06
 -1.2279630e-05
 -3.3237852e-06
  1.2640176e-06
 -1.5434480e-04
  6.6539040e-05
 -3.4986246e-05
 -4.7997702e-05
  2.8537668e-05
 -2.8659881e-05
 -1.1537191e-05
  2.2337612e-05
 -1.2978913e-05
  2.3704886e-05
 -4.9480692e-05
 -3.3585129e-06
  1.1063890e-05
  9.0197464e-05
  5.9822203e-05
  6.5230743e-05
  4.2046595e-05
  1.9306414e-04
 -5.4853645e-06
 -8.5366381e-05
  1.1567188e-05
  2.7161757e-05
 -1.1093627e-05
 -3.7161888e-05
  5.0918388e-06
 -7.6587639e-05
  4.0905059e-05
  4.4021089e-02
  8.8950759e-03
 -1.7948593e-01
 -2.2533645e-01
  2.5540177e-04
 -2.9186957e-04
 -2.3343760e-01
  2.5961881e-03
  3.2489413e-01
 -1.9436528e-05
 -7.8971614e-05
 -1.5519635e-01
 -1.3259853e-02
  5.5853173e-04
 -2.5119808e-02
  2.1517210e-04
 -7.8752458e-02
 -2.5250245e-02
 -1.4061406e-01
  4.9163165e-05
  2.3849477e-04
 -3.2079842e-02
  3.2940712e-05
 -1.0410006e-01
  2.3496777e-04
  5.7397210e-06
 -1.4010242e-04
 -1.6158972e-04
 -2.2163018e-05
 -3.4426715e+00
 -8.1765123e-02
  4.0011432e-02
  3.2196054e+00
 -6.5659600e-01
 -1.3494726e+00
  1.4547223e+00
 -2.6525572e-01
  6.0125166e-01
 -1.4324898e+00
  5.3532982e-01
  9.8097688e-01
 -8.7208450e-01
  8.9474821e-01
 -2.2673210e-02
 -7.7880901e-01
  4.0830150e-01
  2.3973875e+00
 -7.0967551e-05
 -8.8746780e-01
  2.0436890e-02
  2.1258895e+00
  2.4304895e+00
 -7.3036306e-02
  4.5218181e-02
  4.7417650e-01
 -1.4636688e-01
  1.1207366e-02
  2.1784039e-05
  3.5441217e-01
 -4.4819903e-02
 -5.4073918e-01
 -7.0907986e-01
  3.0865839e-01
  5.8849412e-01
 -4.7708893e-01
  7.7732131e-02
  6.4667505e-01
 -3.0245609e-03
 -3.0100930e-01
  5.6663895e-01
 -2.2153572e-04
  3.5571519e-01
  4.0666782e-05
 -2.8392601e-01
 -3.6258653e-01
 -1.6263030e-03
  4.9951327e-01
  2.3014018e-01
 -1.3178378e+00
 -1.3180737e-01
 -6.1531086e-05
  6.9735587e-01
 -1.5083086e-01
 -3.9480892e-01
 -3.1781686e-04
 -1.4086232e-06
 -4.4426131e-01
  1.5419614e-01
 -1.2666926e-03
  1.4656203e-02
 -2.4980381e-01
  2.1684955e-05
 -2.1195546e-01
 -5.5767000e-02
  3.9707142e-04
 -2.1194888e-03
 -1.7485702e-03
  1.3261415e-02
 -6.5480940e-06
  2.6725849e-05
  5.0424631e-05
 -6.0781664e-01
  1.3334220e-05
  1.7732017e-04
 -1.9297110e-02
  1.5765810e-06
 -6.0378231e-02
 -6.5624495e-03
 -1.1024940e-03
  5.4764788e-04
 -1.4251555e-05
 -2.9701727e-02
 -1.1101054e-04
 -2.3356410e-02
  2.6111957e-04
  9.2859547e-05
 -3.2467046e-01
 -4.1840314e-03
 -1.7644141e-05
  1.2460247e-05
  1.4437518e-04
  3.0192843e-05
  2.1916065e-05
  1.0282182e-05
 -5.5046043e-05
 -7.1185161e-05
  7.9531746e-05
 -2.0050379e-06
  2.2336815e-05
  9.0616286e-06
 -3.3273340e-05
  9.5162293e-05
  7.1698642e-01
 -6.1428609e-06
 -1.1100760e-04
 -8.7441345e-05
 -5.0439075e-07
  1.2395119e-05
  1.8879118e-06
 -3.6308204e-05
 -9.9934741e-06
 -2.7147468e-04
 -7.2612755e-05
  1.8193696e-06
 -1.3729343e-05
  3.6435020e-05
 -9.6410986e-05
 -4.5113225e-05
  1.2954056e-05
 -5.3532773e-01
  8.2327676e-01
 -6.5936458e-01
 -7.8539815e-05
  1.7104191e+00
  1.6443591e-01
  2.8168011e-01
  1.7355694e+00
 -1.1351507e-03
  8.2639354e-01
  9.5694542e-01
  2.2301941e-01
  2.9321468e-01
  4.8254010e-01
  7.3984963e-01
 -1.2272300e+00
  2.0237419e-01
  4.0269586e-01
  1.8797064e-02
  4.3744081e-01
  1.9793348e-04
 -2.4415357e-02
  1.9225033e-01
 -8.6155633e-05
 -7.3148221e-01
 -4.3698922e-01
 -8.6459750e-03
  3.6593762e-01
 -1.7741037e-05
 -4.5006829e-03
 -1.7915250e+00
 -4.0374506e-01
 -1.0585025e-02
 -9.5644814e-01
  8.5824132e-01
  1.1183961e-02
  3.0687237e-01
  7.1258414e-01
 -1.0894965e-03
 -1.0755284e+00
  8.1700876e-02
  4.4376990e-01
  1.6183262e+00
  9.9099375e-02
  8.9068192e-01
 -3.6661899e-01
 -8.0873227e-01
  2.0649197e-02
  7.1646726e-01
  2.3178551e+00
 -1.5062274e+00
 -1.4918216e-03
  1.5081360e+00
  9.1732687e-01
  1.2373121e-01
 -5.9237909e-01
 -4.2035827e-01
  1.3619397e-02
  1.5625352e-01
 -4.0291271e-01
 -6.2663341e-05
  1.1646163e-05
 -1.9445761e-05
 -7.1208517e-05
 -2.4184412e-05
  3.3747099e-05
 -5.8658929e-06
 -1.2496639e-06
 -3.6167476e-05
  5.9893300e-06
 -4.8690697e-05
 -3.8624072e-05
  9.1168637e-05
 -1.1584450e-05
 -3.9198741e-05
 -9.1570037e-06
  9.2298244e-05
 -5.4505777e-05
  3.9703402e-05
  5.2542488e-05
 -4.4469441e-05
 -6.5267668e-05
  1.0329595e-06
 -1.2462644e-05
  4.4118104e-05
  9.0402245e-05
  1.5731266e-05
 -6.7349783e-06
 -4.2013849e-05
  4.7376197e-05
 -1.7763360e-01
 -6.9788980e-01
  1.1270079e-01
 -1.0210288e+00
  5.5335903e-01
  1.0175658e-04
 -9.9460622e-06
  6.6174316e-01
 -2.5316682e-01
  5.1659338e-02
  6.4266610e-01
  7.7706665e-01
  4.3050802e-01
  2.8337978e-05
 -7.6237228e-04
 -2.1523468e-02
  1.3268274e-01
  1.4546740e+00
  3.5187060e-01
  1.0879858e-01
 -2.8269872e-01
  5.3684771e-01
  8.3449817e-01
  1.3366317e+00
  2.4828331e-01
  1.2347242e-04
 -3.7778969e-05
 -3.0681884e-02
  9.3267694e-02
  1.7743863e-04
  5.2393534e-05
 -2.6355976e-06
 -2.5711537e-05
 -2.3705925e-01
  2.6283362e-05
  3.2271942e-05
  1.0999812e-04
  4.6832774e-05
  1.4925749e-05
  1.6131761e-04
  1.3742319e-04
  7.7273289e-05
 -1.3158299e-04
  5.2727992e-05
 -1.9350683e-04
 -1.1530616e-04
 -4.6849680e-05
 -1.7198960e-05
  1.1785207e-05
  1.7017839e-05
 -3.2908499e-04
  1.6592860e-05
 -6.1921091e-06
 -9.3591509e-05
 -3.5878405e-05
  5.5033379e-06
  6.7335255e-05
  5.0159611e-05
  1.6940005e-05
  1.6056569e-05
 -4.1689847e-05
 -2.4224206e-05
  3.2610635e-05
  3.7382004e-05
  1.4309692e-06
 -1.6580625e-05
  4.7826179e-06
  2.3846769e-05
  4.2009146e-05
 -9.7335986e-05
  8.5233860e-06
  7.3726005e-05
 -3.6890702e-05
 -3.1375479e-05
  1.7117511e-04
 -4.8989026e-05
  1.3289994e-04
  8.6663595e-06
  6.1226706e-06
  3.1916374e-05
 -2.2303971e-05
 -8.0543959e-06
  1.8336090e-05
 -6.8272646e-05
 -4.0242168e-05
 -2.9714734e-04
  6.7921401e-06
 -9.8299424e-05
 -2.7253616e-06
  3.8213104e-05
 -4.1345513e-05
  4.1127790e-02
  4.8802963e-01
 -3.2991761e-01
 -4.0513471e-01
  5.0544050e-03
 -7.4923781e-05
 -6.1020715e-04
  2.7776232e-03
  1.4496938e-02
 -2.2366773e-03
 -2.7937174e-04
 -5.5961066e-01
  2.6779335e-05
  9.9637378e-05
 -1.2054534e-04
  1.8997917e-01
 -3.7087947e-02
 -4.0709712e-03
  4.0646780e-01
  8.4111348e-02
  5.3823518e-05
 -2.2524609e-05
 -5.5244556e-05
  2.4881231e-04
  4.9505288e-05
  3.5860150e-05
 -4.5262248e-05
 -4.6290603e-05
  1.6463962e-05
 -1.3770595e-04
 -1.4938445e-06
 -1.1033110e-04
  1.2427140e+00
  9.1945362e-01
  7.0542578e-06
  3.2376309e-05
 -1.9721899e+00
 -1.6845370e-02
  1.3368084e-05
  8.1965834e-01
  9.4588768e-01
 -1.1819068e+00
  1.4497198e+00
 -6.3640982e-05
 -1.2436716e-04
  4.5538089e-01
  3.9730305e-05
 -5.7700809e-06
  3.5123399e-01
  5.8966237e-01
  6.7838089e-05
 -1.0179680e-05
 -9.1009647e-01
 -2.4339896e-01
  1.0664858e-04
  1.6261261e+00
 -3.1194006e-05
 -5.9990093e-06
 -3.5074893e-02
 -8.1892736e-05
  9.3925064e-07
 -9.2544562e-01
 -7.4213314e-01
  6.0231870e-01
 -2.5450927e-01
  5.8169651e-05
 -1.5153009e+00
 -6.0849017e-01
 -1.7731012e-05
  2.0432920e+00
  3.5868742e+00
 -2.5502264e+00
  2.4723434e+00
  7.8908946e-05
  6.4538835e-05
  1.7215776e+00
  2.3492928e-05
 -6.1872494e-01
  1.9518007e+00
  1.0282799e+00
 -6.7520398e-01
  1.5222070e-02
  1.0469002e+00
  1.1923010e+00
 -1.5968122e-05
  1.7533745e+00
 -5.1331335e-05
 -8.0826525e-05
 -5.5405623e-01
 -8.2945758e-01
  2.0149240e-02
  2.0169932e-04
  9.6635360e-01
 -6.8203010e-02
 -5.2286196e-01
  2.4677777e+00
 -2.5460121e-01
 -6.4956397e-01
 -4.1229177e-01
  1.1933512e-05
 -4.7023723e-06
 -1.1208214e-04
  2.0076033e-05
  1.8508772e-05
  7.1390605e-01
 -7.7229506e-01
 -1.2838807e+00
  1.0529992e-02
  1.6734752e-05
  9.0582529e-05
  1.2297412e-04
 -3.3407941e-04
 -2.9175328e-05
  8.2000732e-02
  7.7540004e-01
  2.0973723e-01
  2.7456572e+00
  3.9994388e-04
 -9.8698190e-05
  2.3717166e-06
 -1.6931726e-01
  7.8913856e-01
 -1.7092703e-02
 -5.2520084e-01
 -3.8761789e-01
  2.2859738e+00
  4.4927778e-04
 -5.2637924e-06
  3.9785041e-04
 -5.6416568e-05
  4.5696012e-05
  3.8752687e-01
 -1.4174690e+00
 -1.5408471e-01
  4.3536404e-01
 -1.7313159e-05
  1.1649249e-01
  2.2764945e-01
 -2.0396159e-04
 -9.7015851e-05
 -1.0248525e+00
  9.8528808e-01
 -1.1140730e+00
 -4.4553304e-01
  4.2673519e-01
 -1.4387098e-05
 -5.3927630e-05
 -1.6248590e-01
 -5.1940626e-01
  1.2962940e+00
 -1.8454298e-01
 -1.1596368e-01
  1.9578727e+00
  1.4625679e-04
  1.9942776e-04
  7.1753777e-05
 -6.2494830e-05
  2.0702400e-05
  1.1105060e-01
 -1.2593691e+00
  2.9445568e-01
  2.3474128e+00
 -2.0371088e-04
 -1.4444893e-05
  7.8212717e-05
  1.8757828e-01
 -8.2616738e-05
 -3.6409941e+00
 -1.8792899e+00
  1.5643506e-01
  6.2056232e-02
  4.0178072e-01
  1.9587583e-06
 -7.8826488e-05
 -8.0722946e-01
  1.3798402e-01
  1.7990385e+00
 -9.9846995e-01
 -2.3694510e+00
  6.5502398e-02
  2.5348976e-02
  7.6680630e-02
 -2.1472493e-05
 -2.0299773e-05
  1.5960261e-02
 -3.5924771e-01
 -2.4047050e+00
 -4.3149680e-01
 -8.9661799e-02
 -9.6116967e-02
  8.3814179e-05
  1.4267407e-02
 -6.7007291e-05
 -5.3590551e-02
  2.8748291e-03
 -1.7387815e+00
  1.2333523e+00
  2.1790029e-01
  8.6406767e-02
  3.5221654e-01
 -5.2128369e-01
 -6.2219113e-01
 -1.6254197e+00
 -6.7016669e-03
 -1.9683129e-01
 -1.0403460e+00
 -2.0873146e-02
  1.0008344e-01
 -2.7558894e-05
  8.0777335e-01
  1.3903466e-01
  1.9960024e-05
 -6.3787425e-01
 -2.3749992e-03
 -4.0602306e-01
 -4.0161006e-02
 -1.4528909e-05
  1.0816083e-04
  1.4839626e-04
  2.5126235e-05
 -2.6299573e-05
  8.3170897e-05
 -1.1882550e-05
 -6.1723069e-05
 -1.2265401e-01
  2.0814907e-05
 -1.8767405e-05
  9.3480621e-06
  1.3442012e-04
  4.9142480e-05
 -4.7928217e-04
  2.4075816e-05
 -4.6521483e-05
 -3.9068773e-06
  8.2988605e-02
 -7.4759696e-06
  3.5823133e-02
  2.8629610e-03
  2.6630503e-01
 -5.5142027e-05
 -1.7098899e-04
 -2.1126127e-01
 -3.6608484e-01
  1.8024251e-04
  4.3884094e-05
  6.3556194e-04
  3.4618526e-05
 -6.7255729e-05
 -4.7129863e-03
 -1.3271147e-01
  1.8689779e-04
 -1.1974288e+00
  3.1467382e-05
  5.9148439e-05
  2.6829395e-01
  1.2613935e-04
  2.6297455e-05
 -1.1184513e-05
  3.6219726e-04
 -5.8897920e-05
 -2.1106787e-01
  1.9015019e-01
  7.5880853e-05
  1.7634338e-04
  1.4425504e-04
  6.8538516e-06
  3.2856347e-05
 -2.3268642e-06
  5.3124120e-05
 -1.6678082e+00
  3.2998115e-04
  2.1226534e-04
  5.2865937e-02
  2.3784934e-04
 -9.9669458e-05
 -2.6959133e-05
 -8.3392382e-01
 -2.6412615e-01
  1.0540763e+00
  3.2262265e-05
 -3.3320404e-05
 -5.8030957e-05
  1.8224494e-04
 -1.7202254e-05
  1.1690276e+00
  5.9750797e-03
 -3.9481220e-05
 -1.3177427e+00
  5.6770444e-01
 -4.4318225e-04
  6.9638056e-04
  3.3916834e-01
  7.4197415e-05
  1.4302303e-01
 -2.0855894e-05
  6.9839138e-01
 -1.9999490e+00
  1.2318507e-01
  3.1714621e-01
  2.0332898e-01
  5.0684048e-07
 -7.2756520e-05
  3.0644488e-02
 -1.1474714e-05
 -9.8951846e-01
 -3.6043680e-01
 -2.6674053e-01
 -6.5544613e-05
  2.0727986e-01
  2.2485704e-04
  4.2750671e-05
  6.0627442e-02
 -7.1006691e-01
  2.7125904e-01
 -1.5649945e+00
  6.4070153e-01
  8.0006339e-06
  3.6574158e-01
  2.4194951e-01
 -3.1260975e-02
  8.0908555e-01
 -1.1814290e+00
  3.4328973e-01
 -8.1759119e-01
 -1.4700141e-05
  1.2158186e-04
 -7.0772931e-02
 -1.4349918e+00
 -9.1889977e-01
 -8.3362079e-01
 -1.7932652e-01
  1.1409169e+00
 -5.3448093e-01
 -7.3108444e-05
 -3.7664620e-05
 -9.3139846e-05
 -9.2435621e-05
 -1.9533561e-01
  2.7489827e+00
  1.1485459e-03
 -5.9777069e-01
 -5.9460717e-01
  1.9692864e-06
  2.2168191e-05
 -7.0099624e-05
 -1.8054275e-01
 -1.0801446e-04
  3.2580176e-01
 -6.8705925e-03
 -4.7740813e-02
 -7.1200943e-01
 -4.3226854e-04
  6.3432872e-06
  1.4465354e-05
 -4.8601411e-02
 -1.7712170e-02
  7.7992010e-01
  1.4341297e+00
  4.4513223e-01
  1.0833400e+00
  5.7600505e-06
  1.6034667e-04
 -2.7901000e-05
 -6.5635584e-02
 -7.4562633e-01
  1.0935973e+00
  8.5183895e-01
  1.9460754e+00
 -2.8172681e+00
  1.0592379e-04
 -3.3729500e-04
 -3.1162328e-01
 -1.2410819e-02
  2.0404553e-01
 -6.8953359e-01
 -1.4009880e-01
  2.0804489e+00
 -6.3743937e-01
 -3.5181040e-01
 -1.6375108e-05
  2.7869341e-05
 -4.9559939e-01
  3.8435125e-01
  2.1546961e-01
 -6.9664896e-01
 -7.9400498e-01
 -1.2351201e-01
 -2.0474317e-03
 -5.3747823e-05
 -5.4565240e-05
 -7.1980027e-03
 -1.5519226e+00
  7.9253592e-02
  1.1561434e+00
  8.4332421e-02
 -1.6245786e+00
  2.7336340e-04
 -9.6771117e-05
 -2.9113764e-02
  7.0556334e-06
  5.3723097e-01
 -5.2942526e-01
  1.1383704e+00
  1.0832832e+00
 -1.1680073e+00
 -2.4537745e-01
  2.1924678e-05
 -7.8847188e-05
 -1.1757060e+00
 -5.5993099e-02
  3.4774855e-01
 -8.4677899e-01
 -2.7841454e-02
  5.9459500e-02
 -2.5366002e-03
 -5.0369996e-05
 -2.0861713e-02
  3.4085223e-01
 -1.8643615e+00
  6.4729549e-02
 -4.6554378e-01
 -1.5390903e+00
  9.9837261e-01
  2.1972538e-04
 -6.7875611e-05
 -7.9764883e-05
 -5.2920431e-01
 -4.5840046e-03
  8.5795486e-01
 -3.9401200e-02
 -1.0682654e-01
  2.5972956e-01
 -1.5924277e-03
 -1.3186292e-02
 -1.2263751e-01
 -1.7598596e-01
 -3.6209691e-02
  1.1114770e+00
  4.7305632e-01
 -7.3500186e-01
 -2.8493497e-01
  3.3627310e-01
  4.9178321e-05
  1.0989031e+00
  1.0751290e-04
  2.4251583e-01
  1.7193267e-01
  6.3804936e-01
  3.3273391e-02
  7.9875410e-02
  1.2715163e-05
  3.3701835e-05
  2.8158944e-05
 -7.7445729e-05
  1.9169439e-04
  4.1695721e-06
  9.4926443e-05
  1.2002004e+00
  3.8402444e-01
 -3.1030042e-05
  1.3370365e-04
  1.1560888e-04
  1.5126003e-04
  1.5480461e-04
  1.4007960e-04
 -4.5612416e-01
  2.8602892e-05
 -2.2920499e-04
  2.7883783e-01
  8.1438059e-03
 -4.3184096e-01
 -4.1682259e-05
  2.1439934e-01
 -1.5474892e+00
 -1.6717659e-01
 -7.0764381e-01
 -6.9983959e-01
  1.4920384e-02
  3.9469262e-05
  4.7788182e-01
  2.4183109e-05
  5.6441730e-01
 -5.3992251e-05
 -7.1402633e-01
  2.5770109e+00
  7.1068183e-02
 -5.6822914e-06
  1.0569111e-04
  1.9026311e-01
 -1.7503778e-06
 -1.5332834e-04
 -2.9577464e-03
 -8.6239213e-01
  2.6138933e+00
  1.2008630e+00
  3.1480291e-01
  4.4176041e-04
 -5.6353178e-02
 -2.1563395e-05
  1.0215081e+00
 -7.8021967e-01
  1.2174944e+00
  3.2750297e-01
 -1.0641836e-02
  4.0034756e-01
  7.3804258e-05
  5.3953069e-01
 -1.4288115e-04
  5.1948601e-01
  7.3576492e-01
 -6.7959434e-01
  7.9877088e-03
 -1.0106956e+00
 -1.1434218e-01
  5.9017493e-05
  1.5646456e-01
  1.5022777e-04
  2.6912348e-05
  7.9271024e-01
  2.0617729e-03
 -7.4179286e-01
  1.5882984e-02
  4.9401549e-01
  4.4821700e-05
  1.0974152e-01
  3.7032114e-05
  3.6115697e-01
 -1.3664491e-01
 -4.9565826e-02
  9.1457552e-01
  2.1110189e-01
  4.9429882e-01
  1.5034416e-01
  8.0082268e-01
 -8.6972992e-05
  1.0964509e+00
 -4.2490414e-03
 -1.0338718e+00
 -1.2254386e-02
  6.3957706e-02
 -5.6694847e-01
 -2.9050259e-05
  4.8125213e-01
  3.1922411e-03
  4.1543329e-01
 -1.6818973e-01
 -5.5407327e-01
  3.1055206e-01
 -4.4825363e-01
  1.1105782e+00
 -6.1147504e-05
  9.5390302e-01
  4.0584364e-05
  9.6784461e-01
  1.4670668e+00
  1.0729512e+00
 -8.0821550e-01
 -3.0975315e-01
 -1.1612475e-01
 -3.4540606e-01
 -5.1854557e-01
 -3.5558889e-05
 -5.8272612e-01
  1.6108382e-02
  4.8398513e-01
 -3.5209510e-01
 -1.4065462e+00
 -7.7383171e-05
 -1.7052134e-05
  6.3641794e-02
  6.2324005e-05
 -3.1034357e-04
  2.9752675e-01
 -1.1925752e-04
 -6.8610948e-01
  8.6724293e-01
  2.8277902e-05
 -4.6222866e-01
 -4.1474852e-01
  2.3914332e-02
  3.2758162e-05
 -1.8521388e-05
  6.0048675e-05
  5.7447511e-01
 -2.7525559e-01
 -2.3252824e-02
 -1.8835235e-01
 -3.4310827e-01
 -4.3515345e-05
 -2.4450448e-01
  1.0019420e+00
  8.7251586e-01
 -3.3344135e-01
 -6.3096091e-02
 -5.8456802e-01
  2.0487315e-04
 -3.1779464e-02
 -1.5650416e-04
 -2.8179267e-01
  1.4265107e-01
 -1.6153268e-05
 -1.9611938e+00
  1.8341248e+00
  5.6886339e-01
 -1.2550958e+00
 -1.1918253e-03
  9.9888074e-01
  1.0202169e-04
  3.4686860e-01
  4.2322236e-01
 -1.6256044e+00
  3.0128852e-01
 -1.3724914e+00
  4.1428529e-02
  2.7286720e+00
 -1.1078116e-01
  6.1359618e-02
 -1.6912329e+00
  3.2432830e-01
 -3.1362316e-01
 -1.6251642e+00
 -1.1573725e-02
 -2.3934165e-01
 -3.5370505e-01
  4.9181308e-05
 -4.4354579e-01
  1.4267577e+00
  1.8433337e-01
  6.2821400e-01
 -7.6019853e-01
  3.6318052e-01
 -2.0969272e-01
 -9.5706824e-03
  2.4561772e-01
 -1.2818217e-01
  7.4030644e-01
 -2.1919949e-01
 -2.8806083e+00
  2.0924801e-02
 -1.0880724e+00
 -1.0663873e-03
  1.4303252e+00
 -6.4895577e-03
  1.3722886e+00
  1.3375853e+00
  4.0135342e-01
 -2.4679916e-02
  8.4861207e-01
 -2.0308085e-01
 -7.0399716e-02
  2.1520915e+00
 -3.5539542e-06
  1.0313019e-01
  4.4344991e-01
  4.2963687e-01
  9.4843316e-01
  1.9471816e+00
  3.3213383e-01
 -9.2556828e-01
 -9.2363876e-01
  5.4135358e-01
 -1.1732162e+00
 -6.4977831e-01
  4.4292650e-01
  2.2135289e+00
  1.1547676e+00
 -1.5267355e+00
 -1.4377403e-02
 -6.5534061e-01
 -4.9836105e-03
 -9.9912041e-01
  5.6047541e-01
  3.3272311e-02
  9.3155414e-02
  1.8808268e-01
 -1.4319385e+00
 -1.7846180e+00
 -2.6289311e-01
  1.6816782e+00
  2.0621479e+00
  4.0283075e-01
  5.2410012e-01
 -4.1902834e-01
 -1.5346806e-02
 -2.0848066e-04
 -4.0412386e-05
 -4.9812996e-01
  1.6304393e-05
  5.8855552e-05
 -5.7918972e-01
 -1.2861847e-06
 -4.3345056e-02
  1.0309499e-04
 -2.0454367e-01
 -8.9674306e-01
  4.5775571e-01
  1.1166785e+00
  1.2409499e+00
  5.5867159e-01
  8.2281154e-01
 -2.6667869e-01
 -8.9025199e-01
 -1.4493270e+00
 -9.9847662e-01
 -1.9621704e+00
  4.5962462e-01
  2.7920971e-02
 -9.5496243e-01
  2.2758617e+00
  1.6535108e+00
  4.7136423e-01
 -1.4604589e-05
 -8.3437562e-06
 -6.2328410e-01
  1.3015276e-01
  6.7705923e-01
 -8.2229489e-01
 -2.5648286e+00
  4.5243308e-01
 -1.2703123e+00
 -4.0140489e-01
 -1.6824607e+00
  9.7818130e-01
  1.2458075e+00
  6.9175971e-01
  4.8721340e-01
  1.5317172e+00
  9.6238005e-01
 -8.9040059e-01
 -9.5478660e-01
 -1.4836962e-02
  2.0195867e-01
  1.6641800e-04
  1.0552623e-04
 -1.5013793e-04
  5.2859437e-01
  1.9966811e+00
 -1.2391349e-03
  1.9286889e-04
 -4.8051718e-01
  9.0326697e-01
  1.2366246e+00
  1.8854009e+00
 -8.7633365e-01
 -1.3048830e+00
  1.2836649e+00
 -8.8549787e-01
 -3.6649844e-01
 -1.3413168e+00
  3.6158016e-01
  1.4896108e-01
 -4.5676593e-02
  1.3486096e-01
  6.8454164e-01
  1.4721532e+00
 -3.6051610e-01
 -9.4558620e-01
 -1.8679535e-05
  1.3992249e+00
  7.4279320e-01
  2.2421005e+00
 -2.2862834e-01
  5.5275053e-01
  3.1032607e-01
  3.3588079e-01
  2.8559723e-05
 -1.2249581e+00
 -2.6865914e+00
  4.9217436e-01
 -1.3013305e-06
 -1.0573823e+00
  9.8822969e-01
 -8.4628768e-02
  1.5487911e+00
 -1.1655453e+00
 -6.8375021e-01
 -1.6459819e+00
  6.2754732e-01
  4.8097405e-01
 -8.6308444e-01
 -1.9129267e-01
  1.3622396e-01
  1.7266102e+00
 -3.1609058e-01
 -6.8586422e-05
 -1.2985479e+00
  2.6786330e-01
  1.5465147e+00
 -2.8457677e-01
 -2.4076091e-01
  1.1178125e-01
  1.2365772e+00
  8.8299823e-01
 -2.0639300e-04
  1.3551257e+00
  4.0876432e-05
  1.9515036e+00
 -1.4602435e+00
 -1.4006016e+00
 -1.5702837e+00
  7.2047222e-01
  4.0884417e-05
 -1.9323352e-06
 -9.6387348e-06
 -6.9161055e-05
  6.6426626e-05
 -8.3388168e-01
  9.3649978e-06
 -1.5108292e-01
 -7.8252138e-05
  1.0020216e+00
  1.4811346e-05
  1.3453666e+00
  1.4751716e-01
  6.2278867e-01
 -9.6430856e-01
  7.2913722e-06
  4.2392388e-01
  1.7502749e+00
  3.6390033e-05
 -5.2343842e-02
  7.4502099e-01
 -2.2705685e-01
  2.6613265e-01
  6.6555101e-01
 -2.6546559e-01
 -3.2395616e-01
  4.1539779e-01
  6.2566769e-01
  2.4633024e-05
 -2.2318907e+00
  7.4171752e-01
  2.7003045e-05
 -1.0390761e+00
  2.4740712e-01
  6.1020577e-01
 -4.7705849e-04
  1.5393278e-01
 -1.4846233e-01
  1.2978441e+00
 -1.5976763e-01
  1.0879353e-01
 -3.6215720e+00
 -2.4324341e-01
  2.3063492e-02
  2.6089233e-01
 -1.3617886e-04
  3.9926739e-04
 -1.1878189e-01
  2.2691959e-01
  2.3191373e-01
 -6.1805472e-02
 -5.2406859e-01
  7.6299474e-02
 -2.1919074e+00
  1.1744226e+00
 -1.7865795e-01
 -1.2845088e+00
 -1.4916767e-04
 -4.4721574e-01
  1.6030477e+00
  7.2206539e-01
  1.0877241e+00
  1.4923828e+00
 -1.1511170e-04
  9.9815334e-06
  1.1496302e+00
 -9.5992415e-05
  8.7215060e-01
 -9.7050078e-02
  1.3317685e-01
  6.8479490e-01
  2.0867996e+00
  7.6441026e-01
 -4.4251881e-03
  1.4948647e-01
  6.2424415e-01
  5.2341178e-02
 -1.9926829e+00
 -5.3732836e-01
 -1.9018618e+00
 -1.3251859e+00
  1.9323008e-04
 -1.8942906e-04
  1.9576588e+00
 -9.4527788e-02
  4.5045537e-01
 -1.5079855e+00
 -3.4828958e-01
 -6.9500238e-01
 -2.3538761e+00
  6.0736620e-01
 -1.6835000e-05
  3.6406663e-01
  1.4798902e-01
  6.4849548e-02
  2.6321018e-02
 -5.0914460e-01
  4.8917875e-02
 -3.3157396e-01
 -6.9704540e-05
 -4.1638058e-01
  2.7076727e-01
  3.9121791e-05
  3.7343273e-01
  1.3130428e+00
 -3.2877418e-01
 -1.9213386e-01
  5.8274674e-01
 -3.5828537e-01
 -6.0128999e-01
  3.1587407e-01
 -3.0994061e-01
  2.7247648e+00
 -1.0918889e+00
  1.3070759e+00
 -1.4794455e+00
  5.1334199e-02
  1.2206560e-06
  1.3494609e-05
 -3.4975836e-01
 -1.4332714e-04
  1.8166729e-05
  6.1596638e-01
  1.2135900e-01
 -1.4580215e+00
  1.4722638e-04
  6.6511221e-02
 -7.1482164e-01
  1.5465865e+00
 -6.6503936e-01
  1.9225270e+00
 -1.4933368e+00
 -2.5518417e+00
  3.8905010e+00
  1.1694382e+00
 -9.8664957e-01
 -8.0637532e-05
 -2.1180403e+00
  9.1143474e-06
  1.7657794e-01
 -5.1388412e+00
 -3.0004033e-01
  1.0011492e+00
  8.5660052e-01
  4.2934161e-01
 -6.2958103e-01
 -9.6249580e-01
 -5.9433705e-01
  5.3706980e-01
  6.6084355e-01
  3.2238204e+00
 -1.9725437e+00
  1.3023906e+00
 -8.6408877e-01
 -1.3280191e-04
  5.9703076e-01
  7.2793358e-05
  2.1460001e+00
  5.0104362e-01
 -4.9249813e-01
 -2.8793156e+00
  1.8241321e-01
  6.3939580e-05
 -1.0682636e-01
 -2.5743363e+00
 -2.7755851e-01
  7.3103496e-05
 -1.9176391e+00
 -1.9873744e+00
  3.5729709e-01
 -3.6957487e-01
  1.2413212e-04
 -2.7733988e-01
 -9.1999844e-02
 -6.9520734e-02
  2.2783263e+00
 -1.6938984e+00
  1.0371737e+00
  1.8275756e+00
 -8.8997239e-01
 -1.0845546e+00
  7.5069142e-06
  3.5781762e-01
 -4.5663437e-05
  2.3677585e-01
 -7.7954471e-01
  2.2647212e+00
 -1.1950623e+00
 -8.4976740e-02
  4.5900950e-01
 -7.3541945e-01
  3.7354305e-01
 -2.6173112e-01
  1.4388822e+00
  5.8058685e-01
 -6.1703634e-01
 -1.6113336e+00
  5.9816808e-01
 -8.4549183e-01
 -1.6902324e-05
  5.5115622e-01
 -1.6019139e-05
  1.1012232e-01
  9.1642344e-01
 -4.0039667e-01
 -1.1382934e+00
  3.4130907e-01
  2.3618522e-06
 -3.5324427e-01
  7.7475137e-01
 -1.3553949e-01
  1.3681545e+00
 -6.1757517e-01
 -2.9209906e-01
 -5.9775221e-01
 -1.9963253e-01
 -1.0294571e-01
 -6.7951828e-02
  2.3394209e-01
 -1.0197872e-03
  4.8976608e-02
 -5.3650475e-01
  8.8173699e-01
 -2.1789362e-01
 -2.1516536e-01
  7.7443118e-03
  1.3244143e-04
 -1.0031899e+00
 -3.8484061e-01
  2.3446741e+00
 -4.8975725e-02
  1.2936381e+00
  3.4777105e-02
  1.6366138e+00
 -2.0765994e-05
  1.4881912e-04
  2.7682951e-01
  5.9098347e-05
 -9.1518479e-05
 -6.1950511e-01
 -1.0293233e-03
  3.0442738e-05
  1.1325261e-01
  3.3985234e-05
 -2.9276958e-05
 -1.0282828e+00
 -2.4792927e-04
  1.5727381e+00
  1.0953062e+00
  1.1035258e+00
  1.2279670e-01
 -4.6388155e-01
  1.9338486e-05
  3.3854979e-01
  1.0104792e+00
 -5.5255588e-02
  3.8367155e-01
 -1.4237769e+00
  8.6463485e-03
  1.8632252e+00
  9.2247379e-01
 -5.0909155e-05
 -3.6728969e-01
  1.1242214e+00
  1.2412859e-04
  4.8345980e-01
 -2.4440017e+00
 -7.9006517e-01
 -2.0675559e+00
 -8.4008396e-05
 -3.5110218e-04
  3.0343640e-01
 -2.4635723e+00
 -5.7412291e-01
  1.0667467e+00
  6.3309789e-02
  2.1952784e+00
  2.3959295e-01
  3.6137712e-01
  1.9644144e-01
 -1.2394771e-05
  9.4151640e-01
  8.1874685e-05
  8.0867513e-04
  2.3898706e+00
  4.5507354e-01
  1.7048317e+00
  1.1347809e+00
 -1.2535270e-04
  2.0857993e-05
  3.5242391e-01
 -5.2890509e-01
  1.9955395e+00
 -8.9071596e-01
 -4.2611784e-01
 -3.7005839e-01
 -1.3403676e-01
  3.1199625e-01
  1.8134530e-03
 -2.1513592e-01
  4.9619459e-05
  6.4127444e-04
  2.5281364e-01
  6.0768145e-01
  9.2667115e-01
  3.5568434e-01
 -7.1685654e-01
  1.8817851e-04
  1.5086081e+00
 -4.3593928e-01
  1.7772743e+00
 -9.7428590e-01
 -5.8024824e-01
  9.2930354e-02
  5.8762693e-01
  2.0927942e-01
 -4.4285542e-05
  9.1887802e-01
  2.5227724e-04
  7.9632127e-01
 -9.3897916e-02
 -2.0401722e-01
 -2.8721085e-01
  1.3859746e-01
 -1.5562387e-02
  9.4421231e-04
  6.5525824e-01
 -9.0064389e-01
  1.7793235e+00
 -3.0304280e-01
  1.3104167e-02
  1.4337721e-01
  2.2859544e-01
 -1.0626447e+00
 -3.0891076e-02
 -4.8086962e-01
  6.5668573e-04
  7.5084972e-01
 -7.4960971e-01
  5.1080370e-01
  2.7960199e-01
  6.0566664e-01
  4.4648272e-01
 -4.4168007e-02
 -1.4712431e-01
 -5.2692470e-05
 -1.0523639e+00
  1.8934746e-01
 -5.1416665e-01
 -1.2332543e+00
  8.0094630e-01
  6.0832270e-05
  1.3746177e-04
  3.6101745e-05
 -4.4782260e-05
 -3.2921536e-05
 -9.7802728e-02
  2.8167319e+00
 -7.7656902e-02
  1.2884159e-05
  1.1367550e+00
 -5.2094896e-05
 -6.0701901e-01
  1.1226396e-02
 -1.1654341e+00
  4.1633782e-01
 -5.6590658e-01
 -6.5726262e-01
  1.0755130e-01
 -1.7997122e-01
 -4.0590458e-05
 -4.6519268e-01
  4.3234477e-06
 -3.4452322e-01
 -1.1122557e+00
  1.3526652e+00
 -2.0145793e+00
  2.7452332e-01
  9.5109028e-01
  5.6770528e-05
  1.7986289e+00
  5.3603460e-05
 -3.5932854e-01
  1.9924352e-01
  1.4836664e+00
 -1.5387882e+00
 -1.9969887e+00
  4.0478603e-04
 -1.5018785e-01
 -2.1307888e+00
  5.1776035e-05
 -1.7705840e+00
  7.6703423e-01
  3.1968556e-02
 -3.2703094e-02
  1.2706729e+00
 -1.8033454e-04
 -1.6949443e-05
 -3.1018844e-01
  4.3790013e-05
  4.9558272e-05
 -6.2023604e-01
  1.9633136e+00
  5.8536935e-01
 -1.0177816e-02
  1.8314046e+00
 -3.3600596e-01
  2.4334114e+00
  1.2635713e-03
 -1.0269109e+00
 -1.6291735e+00
  1.7903423e+00
  8.2445580e-01
  6.7101920e-01
 -8.3849561e-01
  4.4832359e-05
 -1.5962398e+00
 -7.7758887e-05
  8.5155730e-04
 -9.4661251e-02
  2.4339721e+00
  9.3824255e-01
  3.8505337e-01
  1.3355939e+00
 -2.9055346e-02
 -5.2311341e-05
  1.4499428e-04
 -1.4524933e+00
  5.4845393e-01
  1.8451473e+00
  3.9163050e-01
  2.0806915e-01
 -2.9062445e-05
 -4.1216740e-04
 -8.0185527e-01
  2.4914507e-05
 -1.6235979e-01
 -6.4133453e-01
  1.2645841e+00
  5.2893251e-01
 -5.1664466e-01
  1.7829752e-05
 -9.5515534e-05
  4.1660440e-01
 -1.8365562e-04
 -3.7396887e-01
 -9.3839258e-01
  1.4105821e-01
  2.0955469e-01
 -2.3563106e-03
  2.6447704e-02
 -3.8559768e-01
  5.8222514e-01
  9.5955227e-05
 -6.7958230e-01
 -6.5928614e-01
 -2.6027083e-01
 -3.2161694e-02
  2.5427848e-02
  1.6580923e-02
  1.6580923e-02
  1.6580923e-02
  1.6580923e-02
  1.6580923e-02
  4.3687932e-02
  4.3687932e-02
  4.3687932e-02
  4.3687932e-02
  4.3687932e-02
  2.5076302e-02
  2.5076302e-02
  2.5076302e-02
  2.5076302e-02
  2.5076302e-02
  1.2051275e-02
  1.2051275e-02
  1.2051275e-02
  1.2051275e-02
  1.2051275e-02
  6.7054373e-03
  6.7054373e-03
  6.7054373e-03
  6.7054373e-03
  6.7054373e-03
  1.8689308e-02
  1.8689308e-02
  1.8689308e-02
  1.8689308e-02
  1.8689308e-02
