nep4 3 Mo Si N 
cutoff 6 4 102 33
n_max 4 4
basis_size 12 12
l_max 4 2 0
ANN 30 0
 -6.7906774e-05
 -1.6245559e-04
  3.8488459e-05
  7.7436807e-06
  3.2486572e-05
  4.4187509e-05
 -1.4183002e-05
  1.0409436e-05
 -6.0593857e-06
 -2.1418677e-05
 -3.5328747e-05
  1.0269973e-04
  3.6131874e-05
  5.3694181e-05
 -3.7265772e-06
  1.9851061e-05
  8.9729736e-05
  2.6988348e-05
  1.3130475e-04
 -5.1317355e-05
 -1.7690882e-06
  7.2702533e-06
 -1.0447155e-04
  4.1648927e-05
 -3.2555789e-04
 -9.8958626e-06
  1.0780715e-05
 -3.2565273e-05
 -3.7849113e-05
 -6.6478467e-05
 -2.5927962e-05
  2.3093718e-04
 -1.0408204e-05
 -1.8048391e-05
 -5.5848082e-05
 -5.0455717e-05
 -1.3338553e-04
 -3.0245661e-05
  4.5661327e-05
 -7.7135308e-05
  1.5334896e-05
  6.2890329e-05
  8.2997838e-05
  1.6034441e-04
  1.5137067e-05
  1.0444713e-05
 -8.7494773e-05
 -2.2236332e-04
  3.6891292e-05
  1.7051303e-05
 -1.9134688e-05
  2.6943293e-05
 -1.2220627e-05
 -1.3658262e-05
  1.7827663e-04
 -1.3468529e-05
  3.9423976e-05
  4.9462269e-06
 -2.5818084e-05
  1.0039347e-04
 -6.2344996e-05
  8.8343851e-02
 -9.8126727e-01
  4.7791931e-01
 -1.1314162e-02
  2.0268743e-01
 -3.3170667e-02
 -1.0338721e-01
  5.8656704e-01
  9.1255367e-02
 -1.5142775e-01
  2.4367003e-01
 -6.4080134e-03
  3.8397098e-01
  5.4432963e-05
 -2.8552804e-03
 -9.6243955e-03
  2.2636302e-04
  1.2039020e-02
 -5.8402345e-02
  2.1409120e-04
  7.3481220e-05
 -1.8805980e-04
  3.3756149e-01
  3.0957971e-04
 -1.8593793e-05
  1.6459852e-04
  1.0047201e-04
  8.8682830e-02
 -2.6853316e-04
 -9.5505085e-05
  7.2666055e-01
 -1.0249308e-01
 -8.0503613e-01
 -1.4334493e+00
 -3.8659564e-05
  5.1172473e-02
 -8.4240353e-01
 -2.1563618e-01
 -7.4713647e-02
 -5.4707798e-05
  4.2523828e-01
  6.1580902e-01
 -1.5551223e+00
  5.9617738e-05
  3.8476649e-01
 -2.5569435e-02
  4.9855928e-05
  1.0551477e-04
  6.4718122e-05
 -1.4375571e-02
 -3.7197718e-01
  6.3308221e-03
  4.7773880e-01
  5.1077972e-05
  3.5461617e-01
  4.6925063e-05
  9.2316486e-02
 -2.3840845e-01
 -4.0708733e-04
  1.0430223e-04
  1.3780837e+00
 -5.0809402e-02
  2.4273241e-02
 -4.4442618e-01
  2.1917197e-01
  1.9748874e-01
  1.1131681e-01
  2.2693953e-01
 -6.1372340e-01
  3.3767289e-01
 -1.4087569e-04
 -7.9255259e-01
  5.2679107e-03
  1.2342463e-02
  2.6872104e-01
  8.7178625e-02
  5.0033424e-02
  5.9541488e-01
  8.1456721e-02
  6.6370796e-03
 -1.7058831e-02
 -1.7502802e-04
 -9.0513211e-03
 -1.8191731e-01
 -2.6124799e-01
 -1.7661233e-03
  8.1192710e-02
 -1.0009811e-04
  5.1321264e-04
  8.8418026e-05
 -5.8315277e-01
 -1.5732242e-01
  2.7195415e-02
  6.1533254e-01
  1.7918898e-02
 -5.0165617e-01
  5.3888381e-01
 -2.8336015e-01
  3.4005268e-05
  1.9924888e-01
 -5.3252143e-01
 -5.1708305e-01
 -1.4132150e+00
 -4.6502277e-01
 -8.8176606e-03
 -1.9658056e-01
  7.3035352e-02
  6.6189778e-01
  4.2781943e-01
 -8.4730096e-02
  4.4729674e-01
 -1.3552491e-01
 -9.2636842e-01
 -2.2358950e-02
 -1.3874121e-01
  2.4691673e-01
 -7.0468159e-06
 -3.6653319e-01
  3.3558050e-01
  8.5029378e-06
  6.6315195e-05
  7.3993624e-06
  5.3082431e-07
  2.5022533e-05
 -1.1929064e-06
  2.1475811e-04
  1.5120396e-05
 -2.4029958e-05
  1.6646773e-05
 -1.0194354e-04
  1.1776292e-04
  2.7447963e-06
  1.8486415e-05
  1.0931707e-04
 -3.6795373e-06
  9.0031695e-05
  1.0223758e-05
  9.9447527e-05
  2.2576431e-05
 -1.7692469e-04
 -1.6130425e-05
 -6.1234874e-05
 -5.1722909e-05
  5.4793996e-05
 -1.0786412e-04
  2.9142624e-05
  1.0855949e-05
 -8.2134400e-05
 -4.1105803e-05
 -1.4874810e-01
 -5.3743690e-02
 -8.0966681e-01
  6.1535829e-01
 -2.5964332e-01
 -5.1294814e-05
  4.5026827e-01
 -1.2895665e-01
 -9.4764578e-01
  6.7505777e-01
 -2.9060191e-01
  5.5200064e-01
  4.5616022e-01
 -1.1100646e-01
 -2.4104005e-01
  3.0317536e-01
 -2.1832475e-01
 -6.3417703e-01
  5.5359912e-01
 -8.1768781e-02
 -2.6246783e-01
 -1.6965035e-01
 -4.5725814e-01
  6.3366723e-01
 -7.8507394e-01
  6.9380122e-01
  2.6921999e-01
  9.0983963e-01
 -2.9096308e-01
 -3.2300421e-05
  2.9649156e-05
  1.1271069e-04
 -2.1348502e-05
  5.6722896e-05
  2.2087266e-05
  4.9908895e-06
  8.6923610e-05
 -3.1221633e-05
  3.3930719e-05
  1.1376361e-04
 -8.9068917e-06
  1.0574920e-04
 -1.0890638e-05
 -1.9488951e-04
 -3.4663339e-05
 -2.8665561e-05
 -1.5664293e-04
  1.2609006e-04
 -1.0825410e-04
 -1.1868056e-04
  2.4566772e-05
 -5.5698715e-06
  1.2303110e-04
 -1.3358199e-05
 -1.9025743e-04
 -8.1945880e-05
  5.0414281e-05
  6.1953098e-05
 -1.6674168e-04
 -7.2335708e-05
 -3.4368422e-06
  2.4098536e-05
 -4.2343589e-05
  1.8421144e-05
  6.2946288e-05
 -7.0944334e-05
  2.6978385e-06
 -5.5110118e-05
  4.6462712e-05
  5.7190999e-05
  2.1830037e-04
 -9.5819312e-05
  1.7761142e-04
 -1.4448379e-05
 -7.1557879e-05
  6.3788830e-05
 -3.7257551e-06
 -7.3533611e-06
  1.6892434e-05
  2.6448836e-04
 -2.2697174e-04
 -2.2255515e-06
  2.8460881e-05
 -9.4391416e-06
 -8.5134248e-05
  1.6356909e-04
  4.6638219e-05
 -9.1480339e-05
 -6.9698202e-05
 -4.1620839e-05
 -2.5302284e-05
 -1.6659629e-05
 -7.0057526e-05
  1.9538089e-05
 -9.8743367e-05
 -8.5867221e-05
 -9.8219374e-05
  2.1281841e-05
  1.3798465e-04
  8.6359287e-05
 -1.4524658e-04
 -5.3416397e-06
 -5.0711598e-05
 -1.1637243e-04
 -8.6222208e-06
 -2.6505263e-04
 -6.8930412e-06
  1.9486364e-05
 -3.0548188e-05
  2.1031687e-05
  4.3741707e-05
  7.0186063e-05
 -6.8379421e-05
  7.8353645e-05
 -8.3266088e-05
 -2.6172764e-05
  2.0584906e-05
 -5.7816264e-06
  4.0640149e-05
  1.4516795e-06
 -4.7426359e-04
 -1.1118669e-04
  6.3647974e-05
  4.8435337e-05
 -2.4759102e-05
 -1.1296261e-05
 -4.1032665e-05
 -5.7194084e-05
 -2.8111541e-05
  9.5789015e-05
 -9.2244200e-06
  8.6915497e-05
  6.9575344e-06
  1.1396961e-04
  1.3268644e-04
  1.7209063e-04
  1.3103901e-05
 -7.5176999e-05
 -1.6450517e-04
 -4.4577420e-05
  8.9325928e-05
 -6.6345478e-05
 -4.9524602e-05
 -1.8900570e-04
 -6.2324390e-05
 -9.3379480e-05
  4.1320469e-05
 -8.5961674e-06
 -4.3054519e-05
  6.8392816e-05
  4.9091154e-04
  2.4474399e-05
  1.0457695e-06
  1.4857534e-05
  6.5181477e-05
  1.5552781e-04
  9.2200760e-05
  2.1307938e-05
 -2.0958982e-04
 -7.1812370e-05
 -9.4152179e-05
 -5.8094058e-05
 -1.3043233e-05
 -1.2939148e-04
 -1.1812415e-05
 -1.8292513e-04
 -2.8580373e-05
  1.5578378e-05
  1.5358997e-05
  1.4241478e-05
  1.5156536e-05
 -1.5144619e-04
 -1.6993034e-04
 -9.8515766e-06
  1.3342073e-04
 -8.3641993e-05
 -2.5633353e-05
  3.4314377e-05
  1.1167688e-04
 -5.5477700e-05
  9.6840398e-05
  1.3237534e-04
  1.1503352e-05
 -3.3448196e-05
  1.5312267e-05
  6.2455932e-05
  6.1079307e-05
  5.3928063e-05
  1.8833964e-05
 -5.7578316e-05
  1.7525730e-05
  3.3167624e-05
 -1.7000972e-05
  8.3804021e-05
  7.0584101e-05
  4.2345657e-04
  3.1722295e-01
 -1.9360403e-05
  4.6340057e-05
  1.3658154e-04
  8.4259327e-06
 -8.8961562e-05
  7.8532379e-05
  4.1087544e-05
 -1.3668265e-05
  4.1230618e-05
  6.2682702e-05
 -2.3688606e-05
  8.5931119e-05
  1.4779058e-04
 -3.0481988e-05
  2.6776226e-05
 -1.1982368e-04
 -3.3819448e-05
 -2.1652268e-05
  8.2252576e-05
 -7.7989745e-05
  2.3899240e-05
 -2.5480820e-05
 -3.6172522e-05
 -1.6239726e-05
 -6.9269903e-05
 -2.5435365e-05
  2.6705911e-05
 -2.7053038e-05
 -1.4287476e-05
  4.7978014e-05
  4.2319421e-05
 -1.6697222e-06
 -5.0907993e-06
  5.5444263e-05
  6.6918474e-05
 -3.5890931e-05
  7.1718685e-05
 -2.2189440e-04
  2.8799927e-06
 -3.3027849e-05
  6.8075947e-06
 -7.8923869e-05
 -2.2347803e-04
 -1.3608016e-03
  6.6049641e-01
 -2.8966300e-05
 -1.6010355e+00
 -1.8053488e+00
 -1.5477182e-05
  5.9164610e-02
 -4.0475388e-05
 -3.1960008e-01
 -9.7290576e-05
  2.5074768e-01
 -1.9021416e-01
  1.0917690e-01
 -2.1240394e-01
  1.2567473e-04
 -4.2356619e-01
 -2.4075848e-03
  8.1993662e-02
 -1.7211655e-04
  8.3058199e-05
  1.7852725e-01
 -6.3658075e-04
 -6.4726755e-02
 -1.0620095e-02
 -9.0063103e-03
 -8.8305227e-05
  2.0447284e-01
  2.1874237e-05
  1.1118720e-01
  7.9879283e-06
 -6.0698873e-01
  4.1077018e-01
 -8.8300109e-01
 -1.3061118e+00
  2.9422662e+00
 -2.1676691e+00
 -1.7438281e-01
  1.4141415e-01
  1.6527303e-01
 -6.7020541e-05
  2.8449479e-01
  3.6039265e-04
  8.1230485e-01
 -4.7241631e-01
 -4.3567247e-03
  5.1651043e-01
 -2.5989633e+00
 -6.3804793e-01
  5.0339657e-01
  6.9335455e-01
 -1.0811708e-01
  3.0685899e-01
  3.3627194e-01
  1.4902595e-01
 -8.5854012e-04
 -3.8486275e-01
  2.5888726e-01
 -1.3133882e-01
  5.8499879e-01
  3.6979083e-04
 -8.8584566e-01
 -1.3851168e+00
  1.7126782e+00
  1.7489918e+00
  7.8112549e-01
  6.9555891e-01
  2.7449289e-01
 -8.5758251e-01
 -1.3472583e+00
  6.5449029e-01
  1.0718763e+00
 -8.0845609e-02
  7.4237227e-02
 -5.4515891e-02
 -9.3980509e-01
  6.8529648e-01
 -3.2534026e-02
  3.4148321e-01
 -8.3672516e-02
 -2.8672749e-02
  3.3352146e-01
  2.7673820e-01
 -4.5177233e-01
  3.0444309e-01
  2.6192570e-02
  2.4939608e-03
  3.9969432e-01
  2.7768841e-01
  6.1862119e-03
  4.2295814e-02
  3.3085998e-05
 -1.9956431e-04
 -9.8692923e-05
  2.9959723e-05
  6.3362837e-05
  1.2688516e-04
  1.1748314e-04
 -1.5793596e-05
  2.0539661e-05
  3.3496111e-05
 -1.1371098e-05
  3.4209304e-05
  8.4432777e-06
  1.6584832e-05
 -1.2096236e-05
  1.2078748e-05
 -4.3828128e-05
 -5.8590816e-05
 -1.6179981e-04
 -1.7052287e-05
  1.0197402e-04
  5.3431198e-05
  8.0905462e-05
  4.3304051e-05
 -2.4056138e-05
  3.5762569e-05
 -5.5199394e-05
 -2.3022533e-04
 -1.0550058e-04
  1.0850565e-04
  7.3424249e-05
 -2.1752547e-05
 -2.5445331e-04
 -8.2166516e-05
  2.2319609e-05
 -1.1524827e-04
  5.7434674e-05
 -2.3850183e-05
  2.8062414e-06
  2.7580772e-05
 -1.2324877e-05
  7.7804878e-05
 -6.9802933e-05
  5.2191786e-05
  5.9897553e-05
  4.3462831e-05
  9.9443110e-05
  1.2975696e-05
 -8.9433233e-05
 -6.1497456e-05
  9.2533563e-05
 -2.5953026e-05
 -3.1540952e-05
 -1.4352514e-05
  6.6689577e-06
  6.6502864e-05
 -7.8803074e-05
  1.1572823e-05
 -4.9484872e-05
 -1.7901709e-04
  6.2477190e-02
 -1.0647414e+00
 -2.4119177e-01
  1.8975255e+00
 -6.5206721e-02
  9.1320854e-01
 -2.1470337e+00
  7.5498921e-01
  7.7195150e-01
  1.2739867e-05
  5.4818970e-01
 -1.6098045e-01
  2.0396455e-01
  1.0257717e+00
  7.1822560e-06
  9.3448097e-01
 -2.0215671e-01
  3.5515413e-02
  2.4921623e-05
  1.1760337e-06
  1.4287671e-01
  1.6169693e+00
  2.3349626e-03
 -2.1639895e-02
 -1.6618847e-05
 -3.0009481e-01
 -6.3174630e-05
 -8.9086300e-01
 -1.8775806e-01
  1.0977567e-03
 -3.3796903e-05
  3.5688172e-05
 -1.5724236e-05
  1.9169007e-05
  5.6835685e-05
 -2.3546369e-05
  5.0639272e-05
 -2.5017258e-05
 -7.0299160e-05
  2.8493316e-05
 -1.2662886e-06
  6.1297491e-05
 -1.5202517e-04
  3.4972283e-05
  1.2342850e-05
  1.0127635e-04
  4.4984528e-05
  3.2955413e-06
  2.5926958e-05
 -8.6623564e-05
 -3.1801665e-05
  1.2238642e-04
 -1.8893337e-05
  1.0215640e-04
  1.1578963e-04
 -7.5743656e-06
  6.4951251e-05
 -8.5116990e-06
 -5.7723126e-05
  3.2545247e-06
  3.9223680e-05
 -5.3672906e-05
  3.9821865e-05
 -7.4374380e-05
  1.4026491e-05
  3.7897138e-05
  1.9290337e-05
  3.4847584e-05
  6.7330431e-05
 -7.9983292e-05
 -2.3630295e-04
 -1.9737408e-05
  1.3778271e-05
 -1.0494068e-06
  2.7962046e-04
  1.6034739e-04
  2.1364049e-06
 -9.3254484e-06
 -1.7498826e-04
  1.6602385e-04
 -3.1300748e-05
 -1.9584579e-04
  4.4300596e-05
 -1.7313783e-05
  3.7830956e-05
  5.4711410e-05
  4.7963378e-05
  4.0288698e-05
  3.3517677e-05
  1.4246380e-04
  2.4433637e-05
 -4.3050715e-01
  1.7090316e-01
 -1.4974986e-01
 -1.4599131e+00
  1.9946188e+00
 -4.4976819e-01
 -5.9693247e-01
  1.2917963e-01
  9.4420590e-02
  4.8987678e-04
  1.6536413e-01
 -2.3871592e-01
 -1.3075630e-01
 -5.9176326e-01
 -5.1958531e-02
  1.5566009e+00
 -1.0252253e-01
 -3.1277403e-01
  6.4960349e-01
 -4.5672390e-01
 -1.2467379e-02
 -1.0912285e-04
  1.3114381e-01
 -4.8794203e-02
  7.5890959e-05
  2.1637140e-03
  2.9664716e-01
  6.4287359e-01
  2.0663571e-01
 -2.8688282e-07
  1.2174460e-04
  6.7955036e-05
  3.8544866e-05
 -6.1739784e-06
  7.5312528e-06
  2.6766700e-05
 -4.5671513e-05
 -4.1906496e-05
 -2.8934439e-05
  9.6543044e-05
  4.6200184e-05
 -6.9346672e-05
  1.6019540e-05
 -1.1717457e-05
 -2.1628464e-05
 -2.8438699e-05
 -2.8743691e-04
 -8.2391474e-05
 -2.1882486e-04
 -5.0476090e-05
 -2.0868835e-04
 -6.7970388e-05
 -1.2638961e-04
  2.8700397e-06
  1.2091824e-05
 -1.5672367e-05
  1.0070091e-05
  1.0042095e-04
 -5.6504079e-05
 -2.3438975e-04
 -2.6065311e-01
 -3.8464299e-01
  3.1397763e-01
 -5.7570204e-02
  2.8804904e-01
  8.8122018e-02
 -7.4719697e-02
  7.3642349e-01
  3.9259478e-01
  5.8402097e-01
 -2.1327070e-05
 -1.7095931e-02
  1.6246307e-01
 -1.0747745e-04
 -2.8664848e-01
 -5.1995021e-01
  1.1725920e-01
  1.0902553e-01
  6.0608122e-04
  1.6044465e-01
  7.9760069e-01
 -2.8445852e-01
 -3.6276193e-05
  3.0546400e-01
 -1.9448154e-01
 -3.0046302e-05
  5.3977296e-02
  1.5579470e-01
  1.5991187e-04
 -1.5077926e-05
 -1.4260830e-05
  3.7307609e-07
 -2.2738666e-04
 -5.1182167e-05
  3.3199827e-05
 -1.0833341e-04
 -1.8167624e-05
  4.1686471e-05
  1.1428298e-04
  2.0959532e-04
 -8.8823668e-05
 -5.5453265e-06
  1.0803495e-04
  2.4627190e-04
  7.6335127e-05
 -7.5002990e-06
 -3.4198532e-05
 -1.8400053e-04
  1.5051516e-05
  7.7120640e-05
 -1.3876686e-06
  7.0210139e-05
  2.1123755e-05
  1.8115632e-05
  1.2120105e-05
 -7.3045719e-04
  5.2911619e-05
 -4.2320487e-05
  1.9828818e-05
 -1.2284549e-05
  1.1170307e-01
 -3.8562126e-02
  1.4582989e+00
 -1.8429893e-01
  3.1753969e-01
  7.4035329e-01
  2.1373149e-04
  8.3382374e-01
  2.0629895e-04
  8.4042615e-01
  1.3960855e-02
 -5.9125090e-01
  6.4058781e-01
  1.4360050e-05
 -1.4665672e+00
  2.3541081e+00
  4.5062470e-01
 -4.1473600e-01
  3.9836285e-01
 -4.9234360e-02
  1.1361203e+00
 -7.1653241e-01
  9.0094777e-03
  4.4964749e-01
  2.1696473e-05
  3.7717104e-01
 -2.6204772e-02
  4.4850138e-01
  2.9974040e-05
 -7.7752375e-06
  2.2027380e-05
 -4.3809494e-05
  7.1229920e-06
 -2.0827442e-04
 -3.1295578e-05
  7.2920207e-05
  3.6015536e-04
 -1.3940866e-04
 -5.2543030e-05
  4.1578314e-05
 -5.7230591e-05
  4.4947665e-05
 -1.6979015e-05
 -1.3829781e-05
  4.1234238e-05
 -1.4574232e-05
  7.8497051e-06
  6.0920661e-07
 -9.1496688e-05
 -2.7559108e-05
  6.1747225e-05
  3.0501074e-05
 -2.2488333e-04
  1.7561370e-05
 -1.7702561e-04
  1.9778141e-05
 -5.1162177e-05
  2.4078072e-05
  8.3912564e-05
  3.4937477e-01
  5.4833782e-01
  6.2883151e-01
 -3.7199357e-01
  1.0069888e-01
  5.1344526e-01
 -2.6097821e-02
  1.5297671e-01
  6.4995760e-01
  8.8481754e-01
 -1.8547490e-01
  1.0487242e+00
  1.1108219e-01
  9.0064979e-01
 -7.6780580e-02
 -1.1842712e-01
  1.2812189e+00
 -4.5180407e-01
  2.0707259e+00
  1.3251526e+00
 -4.1319400e-01
  8.1718796e-01
  2.7264833e-01
  5.4346454e-01
 -1.2938637e-01
 -1.0795950e-05
 -2.3881228e-04
  3.8982293e-01
 -4.2272592e-01
  4.1792384e-05
 -1.2334975e-04
 -1.5426951e-06
  9.7048509e-01
 -1.2407453e-02
  2.0260394e-01
  1.5166299e-01
  6.8603105e-05
 -5.6503403e-01
 -5.4140561e-05
 -1.0327232e-05
  3.0742700e-05
 -3.0019839e-05
  2.1769487e-05
  2.5761794e-06
  3.1414464e-05
 -4.2075586e-01
  7.9077147e-02
  2.5874636e-01
  1.7737544e-05
  4.2283515e-05
  3.2934353e-01
 -1.4836107e-04
 -7.9006197e-05
 -4.4218683e-01
  1.2707147e-04
 -4.4974980e-01
 -8.7292363e-05
  7.7196711e-01
 -5.5548589e-05
  2.2902195e+00
 -3.4567094e-04
  5.7510961e-06
  1.0192790e+00
 -1.0910993e+00
 -1.3109826e+00
  1.2140061e+00
 -3.4525019e-06
  1.7485133e+00
  1.1147411e-05
 -1.4524860e-05
  3.4386128e-05
  3.3385630e-05
 -1.6655784e-05
 -1.7552234e-01
 -3.7360270e-02
 -1.1018841e+00
  3.0672491e+00
  1.7128090e+00
 -4.9613096e-05
  7.7802404e-05
  1.2406375e+00
 -1.4237103e-04
 -7.5062591e-05
  1.5082811e+00
 -1.2136502e-04
  1.2983263e+00
  4.5505058e-05
  5.9920979e-01
  6.1008732e-06
  1.3356637e+00
  1.5998014e-05
 -1.1090954e-04
  7.7042088e-05
 -5.9019832e-05
 -5.8314334e-05
  4.9913433e-06
 -2.3391010e-05
 -1.4916053e-05
  1.5343430e-05
  5.4513766e-05
  1.4273112e-06
 -3.0214038e-05
  2.3160940e-06
  2.9921184e-05
  5.5365254e-05
  5.6426841e-05
 -2.5552456e-05
  2.5453703e-05
 -7.9837351e-05
  8.4237385e-05
  9.6445265e-06
 -2.4112545e-04
 -1.7920880e-05
 -9.4590278e-06
  1.9236702e-05
  4.4055007e-05
 -3.9460472e-05
 -1.1838529e-04
  1.1366592e-04
 -5.9318911e-05
  5.8420849e-01
 -5.0562392e-03
  8.7517491e-03
 -6.5250528e-01
  1.7261121e-02
 -6.8272156e-01
 -5.7923329e-01
  7.6270831e-01
  4.3561100e-03
  6.2830085e-01
 -7.1139890e-01
  9.4196111e-02
 -1.1243590e-05
  1.1980507e+00
 -1.5285029e-01
  1.6750132e-01
  5.1141236e-05
  4.6705812e-02
 -1.6716290e+00
 -6.0000050e-01
 -6.5101659e-01
 -4.1522857e-05
 -7.0060706e-01
 -1.1935943e-01
  7.2514910e-01
 -6.4454281e-01
 -3.0050024e-02
  4.9305242e-01
  8.6020693e-02
  2.7082375e-01
  3.8486764e-01
 -3.4689847e-02
 -2.4602499e+00
  2.0644819e-02
  7.5570434e-01
 -2.2828265e-01
 -2.4809217e-01
  1.1806002e-01
  1.0986564e+00
  5.6203640e-01
  4.2297888e-01
  2.2946532e+00
 -6.7935652e-01
 -4.0915406e-01
  9.3397528e-01
 -1.0895835e-01
  9.1917163e-01
  1.8045203e-01
 -2.1333294e-02
 -3.8038558e-01
  1.4692993e-01
 -1.8691313e-01
  3.1938532e-01
  4.8566145e-01
  2.8043768e-01
  3.8824797e-01
  3.9961909e-05
 -8.0475473e-01
  4.5317635e-02
  6.9431192e-01
 -2.7985785e-05
 -2.4732450e-05
 -2.6111833e-05
  2.9734281e-05
  1.3679686e-05
  1.2698699e-05
  1.3695941e-04
 -5.2610689e-05
  8.2750994e-05
 -1.7082606e-05
 -3.5567566e-05
 -1.9349709e-04
  3.1122476e-05
  1.5937470e-05
  2.3400302e-05
  1.7179700e-04
  1.8729703e-05
 -6.0123253e-05
  2.4945093e-05
 -1.5284317e-05
 -2.6441144e-04
 -3.0025999e-06
 -6.7190784e-05
 -2.2581562e-05
 -8.1485518e-07
 -7.6534612e-05
 -2.1370754e-05
  7.5963871e-05
  2.7069807e-05
  5.9526123e-05
 -4.3827900e-01
  9.4787472e-01
  7.6643634e-01
 -1.0244040e+00
  1.2951928e-01
 -1.4123789e-04
 -8.3560362e-02
  9.3423742e-01
 -3.9652739e-05
  1.4732876e-01
  6.6010267e-02
  8.4787518e-01
  4.9609208e-01
 -1.2533309e+00
 -7.3677383e-02
  4.3366489e-01
 -1.2129541e-04
  3.3825624e-01
  1.0008357e+00
 -1.7225316e-01
 -1.8730614e-01
 -2.0535846e-01
  2.6915354e-01
  8.3939794e-06
  7.3840208e-02
 -5.1951639e-02
 -2.7959794e-04
 -1.8061818e-01
  1.8935642e-01
 -2.5555527e-01
  2.1035892e-01
 -1.1473218e-05
  4.7380883e-05
 -6.3956805e-02
 -1.2957063e+00
 -7.4175349e-04
  1.2641374e-05
 -2.9616349e-04
 -3.4464657e-01
 -5.3628665e-01
 -1.6379043e-01
 -3.2254854e-01
  2.7351894e-05
 -2.7699849e-02
 -1.1221056e-01
 -1.3962504e-01
 -2.0173733e-04
 -1.4456337e-04
  6.0365993e-01
  1.1694500e+00
 -1.7633037e-01
  8.6799118e-05
 -1.6386772e-05
 -3.2580908e-02
  1.5136681e-05
 -1.3358834e-01
 -2.9261230e-04
  1.0210041e-04
  8.3579059e-04
  6.6980265e-02
 -1.3641103e-05
 -3.7771730e-05
  2.5931156e-05
 -6.1225059e-05
  2.5280742e-06
 -5.0176466e-05
 -9.1485403e-05
 -2.0229263e-06
 -1.2602883e-05
  4.1647239e-05
  5.3974614e-05
  4.5751665e-05
  2.9084450e-04
 -5.7234109e-05
 -2.4078086e-05
  1.5256228e-05
 -1.1967543e-05
  1.0402703e-04
  2.3754146e-04
  1.3562250e-05
  3.4956749e-05
  1.6019377e-04
  6.8572503e-05
 -3.0893450e-05
  3.8392121e-05
  2.5903060e-05
  2.5513242e-05
  2.2506149e-05
 -8.3825973e-05
 -6.4968859e-05
  3.2379921e-05
  9.7100150e-05
  1.5756315e-04
  6.0469647e-06
 -8.1441955e-05
 -1.4555048e-04
 -1.4721007e-04
  2.5105932e-05
  1.8315326e-05
 -5.1699775e-05
  3.9360572e-02
 -4.6012901e-06
 -9.9839694e-05
 -1.9445470e-01
 -6.0431212e-01
 -1.1753065e-04
 -6.4592088e-05
  1.5646187e-04
 -1.9063757e-01
 -7.4644282e-05
 -6.2497413e-05
 -4.1704337e-05
 -3.1527448e-05
 -3.9661054e-06
 -3.9609771e-05
 -3.8176469e-04
 -1.3916427e-04
 -1.3069091e-04
  2.2468799e-05
  5.4792625e-05
  9.7151989e-01
 -7.2890483e-02
 -1.1662248e+00
  1.0055391e-01
 -3.7813953e-01
 -6.2368268e-01
 -8.8316113e-02
 -1.1784009e-01
 -1.0802362e-03
  1.8543037e-04
  2.7622166e-01
  6.1519295e-01
  2.1147810e-01
 -3.1336343e-01
  1.0143094e+00
 -1.5306780e-01
 -3.5798756e-05
  3.8289642e-01
  9.2284501e-01
  2.0766611e-05
 -1.2249268e+00
 -4.7239473e-01
 -9.3485549e-05
 -6.4764750e-01
  1.5534350e-02
 -1.0490971e-01
  1.6161818e-04
 -1.0670830e-01
  8.9684673e-02
  1.4097863e+00
 -4.3819971e-05
  7.0857379e-05
 -7.0210204e-05
 -3.2882093e-05
  5.6905435e-05
  1.1598493e-04
 -3.2908032e-05
  1.0547699e-06
 -2.7416350e-05
  1.5572869e-04
 -8.3953128e-05
 -6.6059601e-04
  8.2772582e-05
 -1.9463441e-04
 -2.6589447e-05
  2.9234594e-05
  1.4398247e-05
  5.8453974e-05
  7.1993227e-06
  5.5348006e-05
 -2.2040003e-05
 -4.3419073e-05
 -1.1630374e-04
 -1.8112206e-04
  5.7881571e-06
  3.8254439e-07
  8.6601620e-05
 -2.2617215e-04
 -3.4324690e-05
  2.0016163e-05
  2.6862326e-04
  3.9267257e-01
 -6.9194055e-01
  1.1126986e+00
  1.6512781e-01
 -1.1349020e+00
  3.2174450e-01
  1.2585752e+00
 -1.5736511e+00
 -2.6566130e-01
  1.5355960e-01
  1.2924695e+00
 -5.1426762e-01
 -2.1481396e-01
  3.0725431e-01
 -4.8391722e-02
  4.0605333e-01
  5.2559366e-03
 -6.5492958e-02
  2.8427008e-01
 -3.2284665e-01
 -4.5863402e-05
  2.7882340e-04
 -4.0184373e-01
 -1.7418650e-01
  1.2596220e-02
 -1.1713757e-01
 -5.1633632e-03
 -5.7362461e-01
 -1.8843484e-01
 -7.6311570e-01
  7.9585142e-02
  1.2215385e-01
 -6.8592672e-05
  1.2513824e-01
 -1.2508507e-05
 -1.5643524e-03
 -8.1693935e-05
  6.0101956e-07
  8.6892702e-05
  1.2541799e-05
 -1.5391775e-04
  5.2749761e-04
  1.4626921e-05
  3.0034399e-01
 -3.4863388e-05
 -6.2443603e-02
  2.7037453e-04
  3.4801108e-01
  7.1904610e-04
  2.2839594e-01
  1.5466164e-02
 -5.2861928e-05
 -7.3736446e-06
  4.6066474e-05
  3.8555947e-05
 -5.8251781e-06
  1.0644642e-04
 -4.7368325e-05
  7.0866561e-01
 -1.3827934e+00
  1.3541649e-01
  1.0160931e-01
  2.1129791e-03
  1.8093087e-01
 -2.0405936e-01
  7.0806402e-01
  4.7360936e-01
 -7.5477791e-01
  1.7796397e-01
  2.8043956e-02
 -1.6663300e+00
  1.2463413e+00
 -1.2920568e+00
  2.0313361e+00
 -5.4939132e-02
 -4.3538290e-01
  7.2124976e-01
  4.2675525e-01
 -5.1159870e-02
  2.2755614e-02
  1.4415064e-01
  1.0820197e+00
 -1.2362561e-02
  1.0052256e-01
 -1.1497210e-03
 -1.2564855e-02
  1.6766933e-05
  4.3003345e-01
 -1.3452775e+00
 -1.6562330e-05
  9.4524898e-05
  5.5174645e-05
 -1.9171118e-04
 -2.7901295e-05
 -5.4899800e-05
  2.4814955e-05
 -6.5221044e-05
  5.4092881e-05
 -2.8722567e-05
 -3.9860810e-05
 -1.0281355e-05
 -2.8863353e-05
 -3.4747820e-05
  3.1351708e-05
  4.3330732e-05
  9.7974174e-05
  3.2863386e-06
 -6.5375272e-05
  1.7859443e-06
  1.3809783e-05
 -1.8193527e-05
 -1.9124427e-05
  1.8368493e-05
  3.5069948e-05
 -1.9691871e-04
  1.3175777e-05
 -8.3160965e-05
  2.0178940e-04
 -2.8231061e-05
 -1.1163365e-07
  2.5948211e-05
  7.5322481e-05
 -1.2338551e-05
 -7.1998307e-05
  1.9672243e-05
  2.6816911e-05
  6.8154412e-05
 -5.9751470e-05
 -7.0739290e-05
  3.4967993e-06
 -2.8985309e-05
  5.0531828e-05
 -1.8856079e-05
 -2.7038050e-05
 -9.1682177e-06
 -1.1751597e-05
 -1.5961440e-04
  4.8941482e-05
  4.1761659e-06
 -1.6406429e-04
 -1.9514808e-04
  6.3550811e-05
 -7.2807184e-06
 -2.9890027e-05
 -5.8715377e-05
  1.0817661e-04
 -2.7786166e-04
  6.3076000e-06
  6.4315129e-05
 -8.6589739e-02
 -1.3638920e+00
  1.2683381e+00
  5.1422590e-01
  1.9908516e+00
 -1.3663637e-02
 -1.4590842e+00
 -1.3801872e-05
  1.3504118e-01
  2.0064463e-01
 -1.3381278e-04
 -1.2790504e-01
 -4.5698899e-01
 -1.5559921e-01
  7.9067111e-01
 -5.0022715e-01
  2.7446373e-04
  3.0075434e-01
 -1.4778129e+00
  6.9929785e-01
 -5.7939347e-03
 -1.3086671e-01
  9.1575742e-01
 -6.4755923e-01
 -4.4629133e-01
 -1.7447241e-01
  1.1245971e+00
 -2.1558100e-01
  2.7317590e-01
 -3.2441440e-01
 -2.1957527e-05
 -2.0884594e-05
 -6.2921448e-05
 -1.2745739e-04
 -5.3270214e-05
 -6.6926295e-06
  5.1974086e-05
  2.1650350e-05
 -1.3246541e-04
  2.9773153e-05
 -7.5281801e-05
  1.3872064e-04
  7.6058459e-05
 -6.0482125e-05
  1.0898232e-04
 -3.3459171e-05
  9.6496460e-06
 -2.3769273e-05
 -2.6906082e-07
  1.4469493e-05
  1.8847932e-05
  6.2874176e-05
  1.1823340e-05
 -2.5100202e-05
  3.3586352e-06
 -7.2631417e-05
 -8.3708808e-05
  7.7151941e-05
  6.9232708e-05
  5.1126444e-05
 -3.4842986e-05
 -3.8252860e-05
  3.1435475e-06
 -1.2851544e-05
 -3.0770108e-05
  6.5310829e-05
  1.0225407e-04
  1.4623006e-04
  1.6860373e-05
 -1.3899145e-04
 -1.4052259e-05
 -4.7411144e-05
 -9.3406270e-05
 -9.0616515e-05
  1.1240115e-04
  3.4729459e-05
  1.5183946e-06
 -7.6520351e-05
  1.2877526e-06
 -4.6535697e-05
  7.0909155e-05
 -2.2123791e-06
 -9.4184463e-05
 -5.7290504e-06
  2.8143442e-05
  5.0882045e-05
 -1.6445302e-06
  5.3325522e-05
  8.7259061e-05
 -1.1390307e-06
  1.9818187e+00
  1.0099895e+00
 -4.2166423e-05
 -1.2890562e+00
  9.9799764e-01
  2.3015237e-01
  9.0402544e-02
 -2.5779259e-01
  1.0782495e+00
 -5.4647315e-01
 -5.6187723e-02
  5.4085279e-01
 -1.3826431e-01
  3.2663076e-05
 -3.1090969e-01
 -1.3135944e-02
  3.5110518e-01
  3.1275377e-02
 -7.8748487e-02
 -1.0379818e-01
 -3.0368036e-01
  6.4370018e-01
 -6.8977751e-02
 -7.4224758e-01
 -4.2463315e-04
 -5.7340962e-01
 -2.7456421e-01
  2.6488752e-04
 -3.0830914e-01
 -8.9227033e-05
 -7.1734663e-05
 -6.9176429e-05
 -1.1012792e-04
 -1.2859991e-06
  3.2371041e-05
  3.6688234e-06
 -2.3457309e-05
 -2.6722890e-05
 -2.1373391e-05
  6.9403708e-05
  7.8232442e-05
  1.3911266e-04
  4.5536333e-05
 -5.7795591e-05
  1.9214144e-04
 -1.0495938e-04
  2.1636067e-04
 -6.4501764e-05
 -3.4874274e-06
  5.7954388e-05
 -1.1122032e-05
 -1.7379656e-05
  4.4134587e-05
  2.5690762e-05
  1.1360768e-04
 -1.7272828e-04
  4.5736724e-06
 -5.3495012e-05
  3.9128881e-06
  9.7040451e-05
 -4.0710653e-04
  9.8699755e-05
 -2.0833479e-05
 -6.1688886e-05
 -6.5937495e-01
 -4.1968706e-05
  1.7080934e-05
 -2.0308860e-05
 -4.7565733e-05
 -3.3427586e-05
 -7.3225703e-05
 -3.5741883e-05
  3.1163836e-09
 -5.0478097e-04
 -1.8649162e-05
  1.9898959e-01
 -9.6044132e-05
  5.1476862e-05
 -2.2470198e-05
  1.1768465e-04
 -6.6838940e-05
 -3.1165502e-05
  2.2879743e-05
 -3.3150154e-05
  6.6828499e-05
 -8.6570653e-05
 -5.9394046e-05
 -9.4822302e-05
 -1.5160585e-05
 -3.0683208e-05
  1.2893996e+00
  2.3235211e+00
 -1.4183056e-01
  1.0345601e+00
  2.7881410e+00
  1.1850036e+00
  4.8105192e-01
 -7.3405069e-01
 -3.4846183e-02
 -3.2768494e-01
 -2.9154339e-01
  2.8595325e-01
  1.6727759e-01
 -2.9904640e-01
 -1.5025983e+00
  8.6913928e-02
 -1.6002776e-05
 -5.9904546e-02
 -1.1693825e+00
 -2.6369607e+00
  1.5890259e+00
  3.2877144e-01
  1.5864833e-01
 -9.0917701e-01
  1.5020149e-02
 -1.2198094e-01
 -1.2154360e-01
 -8.9850524e-05
  9.5670886e-04
 -1.1819579e-01
  1.3831282e-05
  2.0120511e-05
  2.3554801e-05
  2.7648164e-05
  3.5622226e-05
 -1.7557020e-05
  2.4415669e-05
 -7.4453048e-05
  8.0763293e-06
  6.8546487e-06
 -4.2487322e-06
 -1.9243351e-05
 -1.0541986e-05
  3.7962953e-05
  2.2522426e-04
 -1.1187352e-05
  6.7962079e-05
  4.0074730e-05
  3.7642676e-05
 -2.0599862e-05
  6.0884249e-05
 -2.7913137e-04
  6.3792424e-05
  1.3190520e-05
 -2.3593926e-05
 -5.1228100e-05
 -4.6247937e-06
  3.8078979e-05
 -1.2921661e-05
 -4.0121340e-06
  8.9208243e-07
 -1.2594836e-05
  6.1102597e-05
 -9.4899326e-05
  8.3988743e-05
 -5.7825873e-06
 -1.2499058e-04
  2.5733882e-05
  1.1707428e-04
 -3.5836696e-05
  4.2742258e-06
  6.2475869e-05
  6.8653826e-05
 -5.2912947e-05
  5.9715119e-05
  5.6171330e-06
 -1.0932225e-05
  1.4528109e-05
  1.2826637e-04
 -1.9915326e-05
  2.2932238e-05
  7.4292868e-05
  2.5162367e-06
 -1.0687006e-04
  5.9776179e-05
  1.6651636e-04
  2.4686280e-05
  6.4662774e-05
 -1.1897888e-05
 -2.2431850e-04
  1.5611056e-04
  1.2739974e-05
  8.3754705e-05
 -6.6052162e-05
  4.5181769e-05
 -3.2580043e-05
 -1.6653497e-04
 -2.1437347e-05
 -2.9429091e-05
 -2.5734567e-04
  1.0963964e-05
 -3.5636771e-05
 -3.0224583e-06
  1.5430238e-05
  1.8223973e-04
 -8.7936598e-05
 -7.9592894e-05
 -3.2779641e-05
  9.1126913e-06
 -2.8143577e-06
  1.9269488e-04
 -1.0785285e-04
  3.3313499e-05
 -6.1997991e-05
  2.6409998e-07
 -8.3610546e-05
 -3.1534364e-05
 -1.5340076e-04
 -4.9452110e-06
 -1.4053308e-04
 -2.7605809e-05
 -3.4277138e-05
 -3.9636081e-05
  1.7932378e-05
 -4.0034333e-06
 -3.9197650e-05
  5.2531946e-06
  2.9692634e-05
 -3.3651330e-04
 -7.7294673e-05
 -5.0032172e-06
 -8.6262720e-05
 -2.0186555e-05
  2.9877996e-05
  2.6195938e-05
  6.7753950e-05
  1.9073622e-04
  4.7850695e-05
 -6.9566893e-05
 -8.5149426e-05
  1.1068823e-05
 -1.1776128e-05
 -1.2385012e-06
 -1.9194191e-05
 -3.6048412e-05
 -8.2716579e-05
 -6.1915402e-05
 -7.9551952e-05
  1.8181876e-05
 -1.0462810e-05
  2.1233510e-04
 -5.4769953e-05
 -6.7912981e-05
  2.9722685e-05
 -2.7244037e-05
 -1.1856706e-04
  8.4735884e-06
 -1.2641799e-04
 -1.7524108e-05
 -4.0833629e-06
 -1.4946918e-04
  4.1248812e-05
  1.7660730e-04
  3.6023241e-05
  5.0457289e-05
 -1.4207878e-05
 -1.2349417e-05
 -1.2816285e-05
  2.1272532e-05
 -8.9110850e-05
  1.1088851e-04
 -4.6520832e-05
 -8.2496037e-05
 -5.7524849e-05
 -3.0058680e-05
 -9.1544360e-05
  1.4410562e-06
  4.2874954e-06
 -3.2767275e-07
 -5.6435711e-05
 -7.7171215e-05
  2.9752702e-01
  1.0140181e-04
  4.0347958e-01
 -6.0375518e-01
 -2.6235390e-01
 -5.0510927e-03
 -4.0923645e-05
 -4.5817149e-01
 -1.0096245e+00
 -3.1137320e-01
 -6.4841253e-01
  2.7542737e-01
 -1.3750169e-03
  9.0455443e-02
 -1.3591679e+00
 -5.7415515e-01
  5.6143683e-01
  1.0013219e+00
 -1.0531286e-02
 -4.3953639e-01
  3.0575925e-04
  5.6465000e-01
 -1.7306717e-01
  1.2949958e+00
 -5.4145944e-03
  1.0291024e-01
  1.0023670e-04
  1.2904517e-01
 -7.4454991e-04
 -1.8096300e+00
 -1.5479426e+00
  8.8675541e-01
 -1.3613035e-05
 -7.3130399e-01
 -1.2140527e+00
 -5.8824140e-01
  3.4538034e-01
 -1.2354339e+00
  1.2627059e+00
 -9.5767376e-05
 -1.5068006e-04
 -3.4357953e-01
  5.7643783e-01
  1.2860700e+00
 -5.8154906e-03
 -3.0889568e-01
 -4.9714285e-01
  2.7861980e-01
  1.1611317e+00
 -2.6157808e-01
 -1.7505298e-04
 -3.4428234e-04
  7.2888964e-01
  2.1150304e-01
 -1.2134837e-04
 -1.7702242e-02
  2.3013198e-01
 -2.7221313e-01
  1.9362522e+00
 -1.0073128e+00
  4.7297264e-03
  1.4814815e-01
 -3.9681777e-02
 -6.5207368e-01
 -5.1365668e-01
  4.5664653e-02
  2.0010097e-01
 -1.3246988e-01
  2.2053091e-06
  3.2701775e-01
  1.5013450e-01
  5.5164665e-02
 -2.2523330e-01
  1.3036971e-01
  8.9841044e-01
 -2.5179473e-01
  5.8476717e-06
 -1.7932971e-01
 -1.5332155e-01
 -2.0378826e-03
 -6.3368134e-08
 -2.9438202e-06
 -1.4304593e-01
  6.1059004e-04
 -1.0876766e-04
 -3.2377528e-05
 -5.3132422e-02
 -1.2208345e-01
  1.1503248e-02
 -4.6198929e-06
  5.8872402e-01
  8.8380333e-03
 -8.4622288e-06
  2.2551811e+00
  8.4256582e-02
 -1.6343656e-05
 -2.8236687e-05
  6.6923261e-01
 -6.5803797e-06
 -8.4847623e-01
 -1.5914547e-03
  6.4298773e-01
  3.5684770e-06
 -3.8596918e-05
 -7.6058850e-02
 -1.4261842e-04
 -1.4759692e-05
  2.0817227e+00
 -1.7006465e-05
  4.3111551e-05
  9.7787958e-01
  1.6945933e-06
  3.3958044e-04
  6.4478336e-05
 -2.6817434e-05
  6.9537877e-05
  1.1291813e-01
 -1.0716884e+00
 -1.0768474e-01
  1.6738866e-05
  1.5963194e+00
  1.4512113e+00
 -1.5947573e-04
 -1.3951890e+00
 -7.7585930e-01
 -1.7608323e-05
 -2.8996885e-01
 -7.2485793e-01
 -6.6173043e-06
  1.1621336e+00
 -6.3171035e-01
 -1.2367280e+00
 -6.2955922e-05
  3.3716442e-06
 -1.4314146e+00
 -7.1181212e-06
  2.1028944e-05
  2.1601152e+00
  1.0560177e-04
 -2.8599256e-01
 -6.5426403e-01
  6.4761822e-05
 -4.5536523e-05
 -1.3679610e-05
 -1.9300527e-05
 -1.2535747e-06
 -1.0496491e+00
 -9.0226448e-01
 -8.7974262e-01
  9.6912001e-05
  2.7626897e-05
  2.1151440e-01
 -5.8678338e-06
  5.7503985e-05
 -7.4745025e-05
  7.0118970e-01
  3.1134994e-05
 -9.0997420e-02
 -2.4766456e-05
 -2.8684118e-01
  3.2136115e-01
  8.3089149e-01
  3.5618206e-05
  1.5087046e-04
 -9.5260203e-02
  1.3184977e+00
 -6.4322370e-01
 -6.2793682e-05
 -4.9607825e-06
  5.2856328e-04
 -6.2268919e-05
 -2.6947637e-06
 -1.9502798e-04
  3.4739023e-05
 -4.8995978e-05
 -1.7064536e-05
  2.6684403e-04
 -6.4909444e-05
  1.4123190e-04
  1.3433141e+00
  1.1519344e+00
  2.1692571e-01
  1.0626398e+00
  3.3155283e-01
 -7.1418947e-01
  1.4729640e+00
 -2.2277348e-02
  1.2301977e+00
  1.0164698e+00
 -9.1127959e-07
  1.0888189e+00
 -2.3950377e-01
  3.3564185e-05
 -2.8071753e-03
 -7.0086211e-01
 -1.2164921e-01
  9.0494119e-02
  1.5195647e-03
  1.7197096e-01
  4.7132260e-01
  2.9195404e-01
  4.8510447e-01
 -1.5812628e-01
 -9.4264901e-01
 -2.7245498e-05
 -5.9204370e-01
  2.0773569e-03
  8.0576792e-06
 -3.2753023e-04
 -3.4213132e-05
 -7.3704294e-05
  7.1378527e-03
 -5.9542095e-04
  2.9762185e-01
 -3.5537805e-02
 -1.6330121e-02
 -3.3889987e-04
 -2.7061572e-02
  4.3854277e-04
  3.0191088e-06
 -9.3074137e-01
  3.2351181e-06
  1.8021619e-02
 -1.6703456e-05
 -9.3113817e-02
  9.6202898e-01
 -3.1269114e-02
  7.1748284e-05
  5.0612492e-05
  9.2321238e-04
 -7.1354167e-05
 -1.3310337e-04
 -4.5208871e-02
 -5.9352466e-04
  1.4846359e-04
  6.8866886e-02
 -7.1810566e-05
  8.6062260e-05
  1.5763474e-04
  2.2830193e+00
 -2.2096894e-05
  6.4969277e-01
 -1.0760775e+00
  7.2395581e-01
 -1.5241805e+00
  9.2820942e-01
 -4.7010195e-01
  5.4536711e-05
 -4.3135101e-01
 -2.8178474e-01
  4.3693457e-02
  7.5741731e-02
 -1.9980563e+00
  3.0146450e-05
 -6.6138798e-01
  4.5500055e-01
 -8.9511228e-01
  4.9072632e-01
 -1.0611895e-02
  1.5021816e-01
 -5.2750480e-01
  1.0171309e-01
  1.6221397e-01
 -1.4185886e-02
 -5.8858604e-05
  1.3520794e-01
 -1.0923788e-04
  1.3966312e-01
 -2.3640643e-01
 -1.1199216e+00
  3.4340774e-05
  2.8937335e-05
 -3.2223005e-02
 -9.0370071e-01
  3.3782238e-01
 -2.9981938e-01
  6.4426833e-01
  5.9082961e-01
  1.2880199e-01
  2.7217664e-05
  1.2675697e+00
  2.6999585e-02
  2.7538736e-05
  2.6028132e-01
  7.0672446e-01
 -6.8030256e-01
  2.2779503e-01
  1.9311082e-01
  1.3240983e-04
 -3.8516641e-02
 -2.2968569e-01
 -1.1037887e+00
  1.8869180e-04
  2.3750672e-05
 -6.0254679e-06
 -6.4559743e-02
 -9.8554628e-05
  6.5177401e-06
 -2.2040462e-02
 -4.9479526e-02
  2.3936965e+00
 -5.3353554e-01
  5.8249885e-04
 -4.6458188e-01
  3.1275097e-01
 -1.6591198e+00
 -1.4844802e-04
  9.1528398e-01
  1.5309356e-04
  5.5134743e-01
 -1.5569644e-01
 -3.8866037e-01
  7.8280759e-01
 -5.1842541e-02
 -3.5969526e-05
  1.0616711e+00
 -7.2667852e-02
  8.3273333e-01
 -5.7868252e-05
 -1.8216597e-04
  1.0035911e+00
  1.2090323e-04
  3.4908116e-01
  3.0735951e-05
 -8.5860287e-05
 -4.9581125e-01
 -1.6863104e-04
 -6.4485197e-05
  6.7642628e-05
  1.1585658e+00
 -1.7931325e+00
 -3.4071028e-01
  2.6655185e+00
 -3.9546636e-01
  3.7547541e-01
  1.4862851e+00
  7.9464096e-01
  8.6009634e-01
  1.6450763e-01
  1.0404114e-01
  1.1040598e+00
  7.9671007e-01
  3.5506383e-01
  8.1426162e-01
 -4.4630587e-02
 -8.6393692e-02
  8.6524731e-01
  4.2771597e-05
  1.3486500e-01
  2.5380796e-01
  8.8997942e-01
  8.4291363e-01
  1.7034905e-01
  9.0717882e-01
 -2.6381538e-05
 -2.0258065e-01
 -6.2498916e-02
 -1.4302025e-02
  6.1763185e-01
  1.3497948e-04
 -5.6824050e-05
  1.5394959e-05
 -3.5323254e-05
 -1.2079065e-05
 -4.7006870e-05
  5.1191138e-05
  4.4919645e-05
  1.0372720e-04
 -2.1183389e-04
  1.1829651e-04
 -9.9370547e-05
  2.7980639e-06
  6.5445740e-05
 -4.7836256e-05
  5.1757572e-05
  5.5288630e-05
  1.1076563e-04
 -9.9866011e-06
  9.1546339e-05
 -9.6444564e-06
  6.0821014e-05
  7.4462459e-06
  5.6507568e-05
 -3.8747305e-05
 -6.3016145e-05
  1.6982314e-05
 -2.5475714e-05
  8.1756276e-05
 -2.5910382e-05
 -8.9196962e-01
  5.5433995e-01
  3.9907795e-01
  3.4554146e-02
  8.6527109e-02
 -6.7475492e-01
  7.0928401e-01
  3.3206394e-01
  1.9423273e+00
 -3.6039177e-01
  3.6576441e-01
  1.2115989e+00
  1.7583987e+00
  5.2232015e-01
  4.6584198e-01
  7.2248954e-01
 -5.0876517e-02
  1.0246898e+00
  4.9683686e-02
  4.5551077e-01
  9.1694134e-01
 -3.8484296e-01
 -2.5361544e-05
 -6.0936445e-01
  7.9098135e-01
  3.5133222e-01
  4.5466790e-01
 -9.3660370e-02
 -1.8513510e-02
  6.6929221e-01
 -4.5581856e-03
 -5.3446358e-03
  1.9224482e-02
  4.0149286e-02
  3.7162155e-03
 -1.5546534e-02
  1.7029152e+00
  3.6615130e-01
 -9.8837608e-01
 -3.9127641e-05
 -3.3620384e-04
  1.3681902e+00
  2.6921228e-01
 -1.9547561e-01
 -9.4464337e-03
 -1.0008967e-02
  1.7260476e+00
 -3.1310278e-01
 -2.3826160e-01
 -1.6877644e-01
 -5.9090590e-04
  1.5081137e+00
  1.4020639e-04
  1.4768515e-05
 -1.1244755e-01
 -6.8496382e-05
 -1.2150404e+00
 -1.5865597e-04
 -1.5519658e-04
  2.5613217e-02
  1.4461697e+00
 -1.0727032e+00
 -5.5538982e-01
  1.8747200e-04
  6.8266141e-01
  6.4260371e-02
 -1.0870091e+00
 -6.2868285e-01
  2.1012905e+00
  1.6933546e+00
  7.1167172e-04
 -2.2250438e+00
  9.2494324e-02
  4.4905130e-02
  1.1051027e+00
  7.9292119e-02
 -1.0287920e+00
  4.6685510e-03
  1.4530513e+00
  4.2885751e-01
 -5.1169515e-01
  1.8773851e-01
  5.9549045e-02
  6.8756557e-01
  5.9763414e-01
 -3.9988743e-05
  2.4723837e+00
 -2.6199343e-02
  2.7834713e-02
  2.5776243e-01
  1.7636615e+00
 -2.8681688e+00
  1.3804123e+00
 -4.1898105e-01
  1.6046779e+00
 -7.4546164e-01
 -1.1460372e+00
 -6.4408958e-01
 -1.3267585e+00
  2.7877154e+00
 -1.4377601e-01
 -8.4830827e-01
 -1.1756895e+00
 -3.3282781e-01
 -4.7859609e-01
 -2.6748589e-01
  6.2980078e-04
  1.5689079e-02
 -6.6064812e-02
  1.1965480e+00
 -7.5027412e-01
  3.8564932e-01
 -2.1871844e-01
 -8.2523626e-01
 -1.1115399e-03
  1.5968134e-04
  1.1780759e+00
 -2.0815003e-01
  7.5793892e-01
 -1.4278549e+00
  2.4790659e-03
  1.2720197e+00
  3.8918054e-01
 -5.2945870e-01
 -2.7697277e-01
  5.8263505e-01
 -4.2799371e-01
  9.8561645e-01
  4.4523522e-01
 -2.5328392e-01
  4.1964892e-02
  1.2948134e+00
  2.2861096e-01
  8.7235892e-01
  2.5864914e-01
 -6.1519720e-02
  1.1846240e+00
  2.8145701e-02
  9.0231322e-02
  3.0137622e-01
  4.1697592e-01
  8.5420424e-01
 -3.1214580e-01
 -1.3254848e-01
 -2.5941706e-01
 -2.5517063e-03
  1.2053872e+00
 -7.8290135e-01
 -1.0306933e-01
  1.3393397e-02
 -8.2024258e-01
  3.3114374e-02
 -1.1840634e+00
 -8.7983441e-01
  9.3211144e-02
  2.1969812e-01
 -1.9750732e+00
  3.0164772e-01
  6.8252683e-02
 -1.8661087e+00
 -2.3131826e+00
  5.5249238e-01
 -3.4765166e-01
 -3.6319643e-01
 -9.6309948e-01
 -4.9009487e-01
  7.8371040e-06
  7.7534503e-01
  1.0760669e+00
 -1.0446727e+00
  5.1055651e-02
 -1.0457740e+00
 -2.7922675e-01
  7.4023610e-01
  6.4961359e-02
  1.3321763e-01
 -7.9902619e-02
  3.9187875e-01
 -4.7958340e-02
  5.9651846e-01
 -9.6409043e-05
 -3.0739818e-04
  3.4540244e-05
 -2.8225346e-05
  1.3902732e-04
  3.1488566e-05
 -4.5639274e-05
 -1.3746039e-04
 -6.6205888e-05
  3.2319306e-04
  7.6560849e-05
  1.6213575e-05
 -1.2156702e-06
  2.9447652e-05
 -6.8213412e-05
  1.5135476e-04
 -1.9473951e-05
  8.0512960e-05
  5.0811093e-05
 -9.9754841e-05
 -7.2978502e-05
 -8.1128841e-05
 -6.5566579e-05
 -1.0943384e-05
 -1.1398685e-05
  2.1194090e-05
 -8.1621583e-05
 -2.3195418e-04
 -9.9186564e-06
 -2.4646572e-05
 -2.6411618e-04
  8.1800121e-05
  2.5622528e-05
  4.5955831e-06
 -4.8193324e-05
  1.7912305e-04
 -9.3347780e-06
 -4.2971882e-05
 -8.8839428e-05
  1.9095039e-04
 -7.0261121e-05
 -7.4189757e-08
  5.0462553e-05
 -1.8207511e-05
  3.7876997e-04
 -7.4188276e-05
  9.0366353e-05
  8.5143720e-06
 -1.3761973e-04
 -1.5085722e-04
  1.9650248e-05
 -1.4397969e-04
 -3.2750519e-05
 -2.2995820e-05
  1.5287414e-04
  1.6561829e-05
  2.6534510e-05
 -4.9986891e-05
 -8.0487938e-05
  2.0423464e-05
  4.5503657e-05
  2.2681984e-03
 -6.2707834e-02
 -1.2601059e-04
 -3.9646521e-04
 -1.6447913e-05
 -1.0183338e+00
 -1.6828926e-01
  5.5735264e-02
  1.9624918e-04
  2.3007338e-05
 -1.7378820e-01
 -9.0625093e-05
  1.0317814e-04
  4.8247646e-04
  2.3190808e-04
 -6.7406684e-01
  1.3500151e-04
 -2.3228837e-05
  8.6866181e-05
  1.4149190e-05
 -1.1902697e-01
 -3.5764424e-06
  1.4157477e-04
 -7.8101999e-05
 -1.2745335e-05
 -1.6466485e+00
  2.2180555e-05
  1.4828793e-05
 -4.2823609e-04
  1.4470584e+00
 -7.6544429e-03
  1.1768453e+00
 -2.2283251e+00
 -2.1571853e+00
 -1.4008368e+00
  4.2500448e-01
 -1.8482280e-04
  1.0316647e-01
 -4.2467803e-01
  2.8070652e-01
  4.0990892e-01
  3.3702925e-02
  2.8281105e-01
  6.6551983e-01
  2.3788293e-01
  1.3435321e+00
  1.3569649e-02
  3.0940562e-01
  2.3829420e+00
  1.9222666e-01
  1.7570366e+00
  3.9305297e-01
  2.1180871e-01
  8.3498287e-01
  4.4833010e-05
 -1.4104692e+00
 -8.3413285e-01
 -2.5312915e-05
  4.9021444e-01
  4.9946773e-01
 -7.5527781e-01
  2.0007542e-01
 -1.3620062e+00
  1.8396018e+00
  1.0788435e+00
  3.1949016e-01
  2.2886279e-01
 -1.7385581e-01
 -1.7446924e+00
  5.7450384e-01
  1.9467924e+00
 -1.4330508e+00
  1.3639560e+00
 -6.5756220e-01
  3.8025245e-01
  1.0239664e-01
  7.8378476e-02
 -5.8683860e-01
 -3.4579611e-01
  4.1556624e-01
  7.3424995e-01
  1.7968744e+00
 -1.5734820e-02
 -1.6055422e-01
  6.5174325e-05
  3.5314371e-03
  2.9020538e-03
 -5.1553750e-01
 -1.0627767e-02
  1.7678472e+00
 -5.8115101e-01
 -6.1922133e-01
  5.9655827e-01
  1.3436160e+00
  7.2633833e-01
  3.3976540e-01
 -6.1829418e-01
 -5.9058243e-01
  2.4384311e-01
 -3.9223656e-01
  1.0126964e+00
 -5.9610277e-01
  5.6974858e-01
 -1.0729879e+00
 -1.0485259e+00
  1.6338992e+00
  1.0404757e+00
 -1.7503759e-01
 -2.7907815e+00
 -1.6242392e+00
  1.7265821e-01
 -8.6780347e-02
  3.7185937e-02
  6.1447363e-02
  5.3696102e-01
 -7.8175116e-01
  1.2577192e+00
  4.5503104e-01
 -3.2590806e-01
  9.7345589e-03
  1.4045855e-04
 -2.8024919e-02
 -1.0827114e-01
 -4.1047024e-06
  9.1878683e-05
  2.2954723e-01
 -2.9037917e-01
  1.6790151e-04
 -2.9071973e-05
  6.1343917e-06
 -9.6195680e-01
 -2.5193418e-05
  2.5520090e-04
  1.5110103e-04
  1.0995636e-04
 -2.6569564e+00
 -1.4380902e-05
  1.7597134e-03
 -1.7169111e-04
  1.2170850e-05
 -6.9635868e-01
  5.1538070e-04
 -1.5289186e-05
  1.2841367e-03
 -8.3346393e-05
 -7.0016038e-01
  3.8703802e-05
  1.3627770e-04
 -1.1799001e-03
 -3.4612141e-05
 -9.8974191e-02
 -6.4625990e-01
  1.0609161e+00
 -1.3078457e+00
  1.6879859e-04
 -1.9680813e-01
 -2.1301964e-04
  2.8345090e-01
 -1.0315092e-04
 -6.4274833e-02
  8.3065999e-05
 -1.7221115e-05
 -2.8586499e-02
  9.7571963e-01
  5.0947201e-03
 -1.3521385e-03
  1.6954306e-03
 -1.1514311e-02
 -8.0135602e-01
 -2.0720977e-02
 -2.8162867e-05
 -3.0594189e-02
  4.6926012e-05
  2.8713865e-05
  1.3032999e-04
  1.5035807e-04
  7.4516880e-05
 -7.1899696e-05
 -2.5805584e-01
  3.6199774e-05
  1.2588245e-04
  6.7617628e-05
 -8.3405255e-05
 -8.8581364e-05
 -4.1430489e-05
 -6.0084934e-05
 -1.7234909e-04
 -4.4337619e-05
  2.4273917e-05
  3.4590383e-05
 -1.3702900e-04
  1.0067873e-05
 -3.1451430e-04
 -1.4518753e-05
 -1.9190722e-05
 -4.6447567e-05
  5.0166809e-06
 -8.8412584e-05
  1.5697808e-05
  3.7392965e-05
 -1.0983978e-04
  2.7359692e-05
  6.7742752e-05
  6.4546839e-05
 -2.6681140e-05
 -1.0149402e-05
  1.4864309e-05
 -1.9819703e-05
 -3.3207714e-05
 -2.0523657e-01
 -6.0787308e-03
  2.3072267e-01
 -1.4699433e-03
  1.4011292e+00
 -4.9033993e-01
  2.2228561e-02
 -5.7166094e-01
 -5.6686598e-01
  7.9006527e-04
 -4.1231429e-05
  8.9601523e-01
  7.7285469e-05
 -1.6039762e-01
 -1.4188071e-05
 -8.2147799e-02
  7.5992280e-01
  3.2168832e-01
  1.2472666e-05
 -1.3969406e+00
 -3.2238483e-02
  3.7400842e-01
  2.0664856e-03
 -1.0157883e-03
 -1.6871743e+00
 -5.4612257e-05
 -1.2619691e-01
  1.3101184e-04
 -4.8428580e-02
 -6.8017856e-05
 -2.1278499e-06
 -1.8263672e-05
  2.0283322e-05
  1.6902382e-05
  4.0015941e-05
  6.9930131e-05
  3.8115825e-06
 -6.6684035e-05
  6.2945779e-05
  7.1912291e-06
  1.8789890e-06
  1.7433797e-05
 -6.3599173e-06
 -1.5957493e-04
 -7.1923118e-05
 -6.7557790e-05
  7.0268552e-06
  4.2608917e-05
 -3.5032140e-06
 -3.2086940e-05
  1.7264880e-04
 -4.3937889e-05
 -4.7982994e-05
  1.6689872e-04
  6.0253289e-05
 -6.6962406e-05
 -9.6579817e-05
  2.1688929e-05
 -4.1397871e-06
  1.9917794e-05
  1.9622414e-01
  2.8273163e-05
 -1.1541816e-01
  2.4425490e-03
 -5.0571864e-05
 -6.2058419e-01
  9.7714856e-02
 -3.0104928e-02
 -2.4006720e-01
  6.9975766e-04
 -8.9671321e-02
  8.8610476e-01
 -2.2024522e-05
  7.7700138e-01
 -9.3230297e-04
 -6.4277858e-02
  4.2652555e-02
  1.5550511e-01
  7.3765829e-02
  4.2100045e-01
  1.0096184e-04
  1.3887662e-01
 -5.4213345e-01
 -4.2449728e-01
 -9.0812035e-05
  4.8600275e-05
  1.0667685e-04
 -1.1847178e-01
  8.5639913e-05
  1.3422744e-01
 -5.2742720e+00
  2.6759720e+00
  2.1453600e+00
  1.3260791e+00
 -4.0572357e+00
  5.9531957e-01
 -3.8098560e-03
  1.9828174e+00
 -5.0495696e-01
 -4.7847536e-01
  4.5306967e-03
  2.7315283e+00
  1.3195117e+00
 -4.0464535e-02
  3.0029224e-02
  4.6639485e-05
  1.0585847e-01
  1.7747095e+00
  1.4200972e+00
 -5.6921530e-01
  6.7681712e-01
  6.6322124e-01
  4.3231297e-02
  3.8437328e-01
 -1.1646200e-01
 -3.1607154e-01
  3.3712211e-01
  7.2467172e-01
 -1.1025219e+00
  1.0641418e+00
  2.3345380e+00
  1.7901394e-04
 -7.6303828e-01
  9.3224160e-03
 -1.3646368e-05
 -9.0617895e-01
 -5.2740139e-01
  1.1666942e-01
 -5.9607911e-01
  5.3549684e-06
 -1.0219012e+00
  4.6554384e-01
  3.5862089e-05
  1.2453644e-01
 -1.9437620e-01
  6.0755096e-02
  4.8117448e-02
  9.7006589e-01
 -4.0529233e-01
  2.3674592e-02
  5.6960370e-04
  4.8295211e-02
 -4.8475083e-02
 -2.7043322e-01
 -5.9961091e-04
  1.6819636e-04
  6.3431980e-05
 -2.6098729e-04
 -1.5200491e-05
  7.9432331e-02
  6.9285029e-01
 -3.5495290e-01
 -7.4378204e-01
 -3.2671499e-01
  1.9100345e+00
  1.9766046e-01
  1.9892874e+00
 -3.8432014e-01
  1.1616528e+00
  4.9010734e-04
  1.2916436e+00
 -1.6087680e-01
 -1.7345199e-01
 -2.5009999e+00
  3.1678152e-01
 -2.0207625e-02
  3.9354386e-03
 -2.7077767e-01
 -5.8185750e-01
 -3.6306288e+00
  2.2891182e-01
  8.9282936e-01
 -6.6294748e-01
 -5.1969326e-01
  3.3677363e-01
 -1.9844669e-01
  1.5589684e-01
  5.2257901e-01
  8.4068835e-01
  3.9654562e-01
  2.6370883e-05
 -3.9188255e-04
 -2.6301976e-05
  1.3862502e-05
 -2.2022137e-05
 -2.7642898e-05
  5.1514857e-05
  8.6578939e-06
  6.3553394e-05
 -5.2701253e-06
 -2.1596463e-05
 -2.0326623e-05
 -2.9778963e-05
  1.8879186e-04
 -7.2792514e-05
 -1.6521903e-05
  5.3064516e-05
 -4.4949418e-05
  6.7392648e-07
  8.7450506e-05
  2.4306682e-05
  1.0054793e-05
 -9.2144888e-05
 -3.1475423e-07
  2.5797630e-05
  8.2054212e-05
 -3.8228296e-05
  1.2883004e-04
 -1.8654608e-04
 -7.8590274e-05
  6.3362443e-01
  3.8618347e-01
  2.8339768e-05
  5.0297908e-02
 -1.0331302e-01
 -9.4127917e-01
  2.1174064e+00
 -8.8799225e-06
  7.0010185e-01
  2.2584925e+00
 -8.4078409e-02
  9.4436325e-02
  1.6624895e+00
  6.1749405e-01
  1.4447205e-04
  1.2989652e-04
 -2.0947397e+00
  5.7734686e-01
 -8.3158535e-01
  8.0872834e-02
 -2.0168006e+00
  1.0428989e+00
  4.8140148e-05
  6.7406821e-01
 -5.7579837e-07
 -2.3776686e-01
  1.2552167e+00
 -2.5979850e-01
 -1.6103511e+00
 -5.8451542e-06
  7.9101652e-01
  1.0172263e+00
  7.3148638e-01
  1.3378955e+00
 -8.8150448e-01
 -2.2491629e+00
  1.6281717e+00
 -3.6579790e-05
  1.3266233e+00
  1.9048737e+00
 -2.4589939e+00
  2.5001161e+00
  2.2512860e+00
 -1.7778465e+00
 -8.1813123e-05
  1.1329909e-05
 -1.5909334e+00
  1.1482952e+00
  1.3350838e+00
  1.6002095e+00
 -1.3172445e+00
 -6.5812194e-01
 -1.5599311e-04
  2.0464871e+00
  3.7332309e-05
  7.7061409e-01
  1.6934702e+00
  1.0973631e+00
  1.8889403e+00
 -7.1426453e-05
 -1.4595380e+00
 -3.7577604e-05
 -2.1597247e-05
  2.8569928e-01
 -6.7390647e-05
  2.0764186e+00
 -2.1292244e-04
 -2.6087663e-01
 -1.0566006e+00
  9.4813037e-01
  4.3915097e-05
  3.9188748e-05
  1.2901894e-04
 -2.8283652e-05
  3.2248244e-01
 -9.2112641e-06
 -1.2170808e-01
 -1.4519541e+00
  3.5442051e-01
  6.7349021e-05
 -2.2712165e-06
  7.9417114e-05
 -4.9220897e-02
  1.5172131e-01
 -5.8359629e-01
  1.0363008e+00
  2.6270518e+00
  1.2801339e-01
 -1.8936469e-05
  1.4859552e-05
  3.8349259e-01
  5.2540100e-01
  1.2355410e+00
 -6.8738687e-01
 -3.1235519e-01
 -9.4842184e-01
  2.4012060e+00
 -2.4419978e-05
 -8.7124630e-05
  5.3238615e-02
  2.1737477e-01
  6.4581633e-01
 -2.7950573e-01
 -4.4022238e-01
 -5.5588942e+00
  3.7473207e+00
 -1.5352263e-05
  3.2983462e-05
  3.7464630e-05
 -2.5639373e-01
  4.1449794e-01
 -1.3396057e+00
  1.8323418e+00
 -1.4293438e+00
  3.1402047e+00
 -2.1803936e-04
  2.1650540e-05
  5.7547870e-05
  5.3527296e-01
  5.2599651e-01
 -8.8651592e-01
 -9.2908517e-02
 -1.0859223e-01
  1.3495667e+00
 -3.6298075e-05
 -6.9714966e-05
  3.0105857e-02
  5.6138773e-02
  2.5264564e+00
 -1.0025718e+00
 -7.3298967e-01
 -4.8601928e-01
 -1.3308640e+00
 -4.3945838e-06
  8.6701351e-05
  8.9624815e-02
 -2.4007818e-01
  9.1827981e-02
 -1.2053391e+00
 -1.3526813e+00
 -1.5461862e+00
 -1.3800685e+00
 -2.4857861e-01
  3.9538662e-07
  9.2577912e-02
  1.0228401e-02
  1.3586397e-02
  4.6889356e-01
  2.5475490e-01
 -3.2588751e+00
  4.0408444e-02
  3.5897493e-02
 -1.1503982e-05
 -8.8438898e-02
  5.3147111e-02
  7.0571560e-01
  8.0627310e-01
 -2.3178041e-01
  2.2359742e-01
 -3.3219624e-01
  3.1634996e-04
 -8.6790715e-06
  1.5126231e-01
 -5.8385652e-01
  1.3426036e+00
 -2.5649874e-02
  6.9823332e-02
 -3.0641699e-02
 -7.5090420e-01
 -6.0182959e-01
 -1.0474963e-05
  2.1470104e-01
 -5.8100522e-01
 -7.8348882e-02
  1.0053794e-01
 -1.1945280e-01
  4.4875115e-01
 -6.8383282e-01
  3.5015321e-06
 -4.9596863e-05
  2.2329652e-01
  3.8560179e-06
  1.5934150e+00
 -4.8043990e-01
  1.1008530e+00
 -1.4620870e-01
  2.2416613e+00
  7.7477234e-06
  5.3320440e-05
  4.0488626e-04
  1.8019816e-04
  2.1236960e-03
  9.5822162e-04
  9.1654164e-01
  7.6116931e-01
 -3.3061182e-01
 -1.7660599e-04
  1.6140750e-04
 -2.2195053e-04
  4.1507228e-05
 -4.8279628e-05
  1.1710145e-01
 -1.1107461e+00
  1.2022645e-02
 -7.5486071e-02
  5.2656751e-06
 -7.3677977e-04
  1.2304025e+00
  4.8125118e-02
 -2.7089772e-01
 -4.9686238e-01
  2.1348848e+00
 -2.6658282e+00
 -1.4404454e+00
  2.0009580e-01
  5.3135045e-05
  3.5835838e-01
  5.1912630e-06
  6.3574737e-01
 -3.8595408e-01
  2.8590269e+00
  1.0796015e+00
 -1.4695498e+00
 -5.1042879e-01
  2.0128606e-01
  9.5079708e-01
 -2.9721556e-04
 -3.9213986e-04
  3.1111175e-01
 -1.5414456e+00
  8.3606935e-01
 -1.9108514e+00
  2.4709462e-01
 -4.9939714e-02
 -5.4030091e-01
  3.0241651e-02
  6.1988986e-01
  2.9644075e-01
  8.3608001e-01
 -4.4509281e-05
 -4.7616118e-01
  1.1830196e-04
 -8.9140736e-02
  1.3820322e+00
 -3.6204714e-05
  4.8863417e-01
 -3.6934248e-01
  5.7995450e-01
 -1.6772914e+00
 -1.2249966e+00
 -1.6058013e-03
  2.8006411e-01
  1.7300409e+00
 -1.7038834e-03
  1.7801885e-05
  1.4381061e+00
  1.1609350e+00
  9.9746180e-01
  6.7044806e-01
  1.6836585e-01
  3.7256762e-01
 -1.5161823e-01
  1.8983537e-01
  6.6707295e-01
 -2.4768949e+00
  1.2211493e+00
  2.1324737e-01
 -5.9346718e-01
  3.4665046e-03
 -3.5631904e-01
  1.5666856e+00
  4.3701646e-05
  1.3886399e+00
  1.0514805e+00
  3.0846176e-01
  5.7523602e-01
 -2.9779819e-01
  8.5081818e-05
  6.3906485e-01
 -5.5998918e-02
 -1.3994667e-03
  6.2424192e-06
  9.7092050e-01
 -1.1838187e-01
  1.8958101e-01
 -3.6281890e-01
  3.6648610e-01
  2.3251692e-02
 -4.4400766e-02
  4.4001618e-01
  1.8639131e+00
  8.8164115e-01
  6.2547630e-01
  6.4944977e-01
  4.4750017e-01
  3.1677166e-06
 -4.2239457e-01
  3.6383886e-04
 -5.3629010e-05
 -1.6553800e-01
  1.3238132e+00
  3.8040197e-01
 -7.3190796e-01
  5.9570986e-01
  3.4001401e-05
 -3.2473468e-05
  3.4582685e-05
 -3.0674571e-05
  4.4216482e-05
  7.7037477e-01
 -3.7408754e-01
 -3.4238517e-04
  3.4235904e-01
 -2.4322855e-05
  5.1691288e-05
  1.6928121e-05
 -1.7691555e-05
  4.8131110e-06
  2.3217621e-01
  6.6845369e-01
  7.8666174e-01
 -3.9864334e-01
  7.8400026e-06
 -2.0533969e-01
  8.7263455e-05
 -3.1498257e-05
 -1.6854788e-01
  1.4083776e+00
 -7.9897374e-01
 -3.2431524e-02
 -6.8311105e-03
 -1.3938798e-04
 -2.2658141e-04
  3.2123581e-01
 -7.0982657e-02
 -1.0328462e-03
  2.6090306e-01
 -1.4674522e+00
 -5.0933603e-02
  2.3410350e-01
  2.7884245e-05
  1.0970412e-05
  3.5921663e-02
  2.5603728e-02
 -1.8592106e-01
 -3.6012669e+00
  1.4591244e-01
 -5.3250182e-02
 -1.3612442e+00
  2.6114457e-04
 -7.1557008e-02
  4.5813398e-05
 -4.0441981e-01
  2.2044829e-01
  3.2176122e-01
 -2.7896176e-05
  1.3279008e+00
 -1.7792537e+00
 -8.0311764e-04
  3.3408287e-07
  2.3579460e-01
  6.0876218e-06
 -2.3346098e-01
 -2.2117877e+00
 -3.4276800e+00
 -2.2264168e-01
  6.4604205e-01
 -6.8810841e-06
  9.2743860e-05
 -1.0458637e+00
 -4.7493316e-02
  2.1242067e-05
  3.0506960e-01
 -1.1347121e+00
 -3.0383821e+00
  6.2828308e-01
  3.5939068e-03
 -6.6686547e-01
  6.5779620e-01
 -8.6164176e-01
 -5.5394471e-01
 -1.2889057e-01
  6.6303599e-01
  7.0263818e-02
 -1.2375988e+00
 -1.9074136e-03
 -6.6762539e-07
  1.0551072e-03
  4.3754408e-01
 -1.0390559e+00
  1.4059204e+00
  5.3485858e-01
  5.6967872e-01
 -4.6009520e-01
 -4.2874698e-02
  6.3686472e-05
 -1.6569257e+00
 -9.2945820e-01
 -2.0610597e-02
  1.6723235e+00
 -5.9366882e-01
  1.3310765e+00
  2.8962067e-01
  4.5696743e-02
 -1.7454529e-01
  1.8678121e-01
  1.9287686e-01
  6.2679812e-02
  6.0930234e-01
 -6.8864518e-01
 -8.2443821e-01
  6.1866367e-01
 -1.5815465e+00
  5.2723724e-01
  8.6212420e-01
  9.5153728e-06
  4.2876607e-05
  1.2514918e-01
 -8.7582029e-04
  2.5641253e-02
 -5.6557101e-01
  2.9484328e-05
 -8.9443944e-05
 -1.6618956e-02
  8.2745828e-05
 -1.0046187e-04
  2.2723754e-04
 -6.2882391e-05
  4.6253788e-01
  7.4719628e-06
  1.7044471e-05
 -3.9328757e-01
  1.6957022e+00
  2.6420494e-05
  3.7261561e-05
 -8.7896064e-02
 -5.1071748e-02
 -9.2613169e-05
  6.4111829e-01
 -1.3601793e-01
  4.7120762e-01
 -1.8894688e-03
 -2.0691390e-04
 -2.9647276e-06
 -4.6391666e-01
 -9.7652795e-03
 -2.0394931e+00
  2.9366082e-01
 -5.9035438e-01
  4.3541426e-04
 -1.0315616e+00
 -3.1400370e-04
  5.9245926e-06
 -3.5185953e-05
 -5.5985743e-01
  4.4459334e-01
 -9.3933541e-01
  8.2201284e-01
 -6.0050160e-01
  2.1818097e+00
 -3.1364645e-05
 -1.3418071e-04
 -3.0784166e-05
 -5.6405467e-01
  4.9951589e-01
  6.7936867e-02
 -3.1697376e+00
  4.1907668e-02
  3.3690543e+00
  1.4017954e-05
  2.0657270e-01
 -2.8911284e-01
  2.6598275e-01
  1.0638245e+00
  3.0180484e-01
 -1.0924990e-02
  1.3744455e-03
  1.6947372e+00
 -2.7948734e-01
 -6.8466798e-03
  1.6322939e-04
  1.4228481e+00
 -1.8711171e+00
 -2.4448595e+00
  3.8501489e-01
 -3.0185640e-01
  1.1276529e+00
  3.0858078e-05
  2.8990416e-07
 -2.2804262e-01
 -1.5010650e-01
  6.4083737e-01
  1.4807296e+00
 -1.5898734e+00
 -3.8533399e-01
  1.0862665e+00
 -8.3826990e-06
  1.1027625e+00
 -5.7478952e-01
  6.7349476e-01
  1.3009098e+00
  1.6861118e+00
 -1.6202970e-01
  1.4390919e-02
  1.7395337e+00
 -4.4926611e-01
 -3.0582756e-01
  2.7082939e-04
 -8.8543481e-01
  1.2558539e+00
  8.8657867e-03
  6.1162758e-01
 -3.8594806e-01
 -1.6891787e+00
  4.6031737e-01
 -7.2103873e-02
 -1.0448065e+00
  3.7297565e-01
 -1.6725546e+00
  9.9074858e-01
  1.1762848e-01
 -1.1914461e+00
 -1.2855775e+00
 -3.9999250e-06
  7.4406928e-01
 -1.5319939e+00
 -9.9744356e-01
  8.0444390e-01
 -2.3579021e-01
  1.2856999e-01
  5.6919795e-01
  8.5169196e-01
 -2.7604264e-03
  2.1052713e+00
 -8.5601950e-01
 -1.8806863e+00
  9.6750450e-01
 -8.6466491e-01
  9.9762052e-05
 -3.2363743e-05
 -5.6069481e-01
 -1.8350647e-07
  3.1524509e-02
  1.6432807e-01
 -5.3329434e-02
 -2.4214547e+00
  4.2308211e-02
 -1.9746272e-05
  2.1741749e-05
  1.2812856e-01
 -2.0786065e-05
  2.0173649e-04
  2.0701985e-01
  3.7325767e-01
  1.9584831e+00
  8.2975316e-01
  3.3648897e-02
  1.7865719e-01
  4.4482461e-01
 -7.4436182e-05
  8.1321907e-01
  1.1435938e+00
  1.7723358e-04
  2.8996459e-01
  1.8396125e+00
  5.5700184e-05
  4.7481144e-04
 -1.4297797e-01
  5.6350291e-06
  7.5882918e-01
  2.4665687e-02
 -1.9254049e+00
 -9.5699561e-01
  2.6417692e+00
  5.5354565e-05
 -2.2256176e-01
  2.6796696e-01
  1.3606949e-04
 -1.9118914e-05
  6.3531041e-01
  6.1043259e-02
 -1.0586079e+00
 -5.6531036e-01
  3.5378906e-01
  6.1904854e-01
 -2.1376689e-01
 -3.5785029e-05
  4.5291007e-01
 -1.7450688e-02
  1.6397893e+00
  2.6315932e+00
 -4.7438726e-01
  7.6259190e-01
  5.1867530e-02
  5.7827771e-01
 -5.5126857e-05
  4.4160512e-01
  7.5154804e-02
 -1.7794199e+00
 -2.7828836e+00
 -1.1642765e+00
 -2.3190062e-02
 -1.9840358e-04
 -5.7390326e-01
  7.8242028e-06
  2.3794821e-03
  1.9371889e+00
 -1.6780814e+00
 -2.8908327e+00
  9.4271576e-01
  2.5175762e-01
 -1.9328198e-01
 -7.7436700e-02
 -5.9369162e-05
  9.0900832e-01
  3.4681344e-01
  9.5016286e-02
  7.5307883e-02
 -1.1223260e+00
  5.6179011e-01
  4.9163815e-01
  7.2850406e-01
  4.9933667e-05
  6.1769825e-01
  1.1648322e+00
 -2.3320399e-01
 -3.8020796e-01
 -8.8615990e-01
 -3.2864904e-01
 -3.0167240e-01
  2.1187951e-01
  2.2048815e-03
  9.9901527e-01
  2.0748503e+00
  2.3540379e-01
  1.8253540e+00
  1.2455593e-01
  9.8918542e-02
  1.6157359e+00
  1.5979531e+00
 -4.9030289e-01
  3.3465222e-01
 -9.1295898e-02
  3.2695881e-01
  1.5853057e+00
  5.0455850e-01
 -2.5466850e-01
  2.5866830e-01
 -1.4748623e+00
 -3.3123195e-01
 -4.4426069e-01
 -1.6639870e+00
 -3.9484748e-01
  4.0751305e-01
  1.5238249e+00
  2.8842431e-04
  4.9659200e-05
 -1.2932955e-01
  5.4304428e-06
 -7.0917784e-05
  5.5939806e-01
  1.9478649e+00
  2.4626977e-03
 -1.6285574e-04
 -1.0774314e+00
  3.1742226e-02
  3.2065815e-05
 -5.8494243e-03
 -2.3567010e-01
 -3.3627028e+00
 -3.3336084e-03
  5.9264654e-01
 -5.9391677e-01
  9.1602588e-01
  9.2097089e-06
 -2.2416224e+00
 -4.8019402e-04
 -2.7000209e-04
 -7.9118423e-02
  1.1693380e+00
  1.1272758e-01
  4.4246712e-01
 -5.8281356e-01
  1.0806738e-01
  1.9495136e-01
  2.1196754e-05
  2.2854565e-06
  8.9031541e-01
  2.6239581e+00
 -2.8541759e-01
  8.3153449e-02
 -2.3832115e-04
 -4.0699051e-05
 -9.8963284e-01
 -1.9591305e-01
 -1.7548211e-01
 -2.8853357e+00
 -1.6601994e+00
 -7.6922363e-01
  5.8122683e-01
  4.2852797e-03
 -1.8444203e-05
 -2.5068991e+00
  8.5017869e-05
  1.6129254e-04
 -2.1860447e+00
  1.1056455e+00
  9.2903547e-02
  1.8411781e-01
 -1.3770446e+00
  6.9232784e-02
  5.9619248e-01
 -3.4728539e-05
 -4.6184197e-01
  6.6732717e-01
  3.9271605e-01
  1.7890854e-01
 -8.8134301e-01
  2.0320876e-02
 -1.2081491e-04
 -2.5693653e+00
 -4.0079582e-02
  1.0237415e-05
 -6.8089944e-01
  4.0524668e-01
  3.6291477e-01
  7.0785537e-02
  3.8431510e-05
  5.6972092e-01
 -4.3193439e-01
  2.1649910e-05
 -3.0201140e-01
 -1.6050406e+00
  1.6856487e+00
  5.3176224e-01
 -1.7528580e-01
 -4.0201086e-01
 -5.6963159e-05
 -3.0853453e-01
 -5.1215804e-01
  2.3514963e-06
 -3.8754374e-01
  2.4319992e+00
  8.4398702e-02
 -2.1031284e+00
  2.1917219e-01
  5.9864205e-01
  2.7864397e-01
  2.8638609e-04
 -1.0738972e-01
 -1.7647047e+00
  3.0906739e+00
  1.3781509e-01
 -2.4956784e+00
  1.4494607e+00
 -2.3785866e-05
  3.3286694e-01
 -1.4584081e-01
 -1.6436732e-04
 -1.2809609e-01
  8.5474885e-01
  1.7323518e-01
 -8.8064635e-01
 -1.0450272e-01
 -6.0301896e-02
  2.7180088e-01
  1.8719720e+00
 -1.3861758e+00
  6.2578207e-01
  2.2287767e+00
 -1.1631722e+00
  1.2193173e+00
 -1.8207442e-05
  4.6973659e-05
 -6.1062914e-01
 -3.0665484e-05
 -2.3543654e-04
  4.9317273e-01
  1.0841917e+00
 -2.6677759e+00
 -1.8778721e+00
 -3.0013153e-01
 -2.1526645e-01
 -1.6830090e-01
  6.0291076e-01
 -4.9753878e-01
  1.9561124e-04
 -1.5351695e+00
  3.6749873e+00
  2.6779428e-01
 -2.9637194e-01
  2.3967220e-04
 -1.9759676e+00
  4.3305866e-03
 -2.3883395e+00
 -1.8158910e+00
 -4.0879270e-01
  3.0071056e+00
 -5.3145546e-01
  3.2721131e-05
 -2.5507745e-01
 -2.0134807e+00
  3.8654136e-05
 -3.7062177e-01
  2.9654591e+00
  1.4873874e+00
 -2.8187239e+00
  2.9508978e-01
 -7.2555655e-01
 -1.0144822e-05
  2.7761812e+00
  3.9185274e-02
 -1.2582244e+00
  1.1652586e-01
 -4.1491258e-01
 -3.1477020e+00
  1.1386603e+00
 -1.9569929e-04
 -1.3582189e-04
 -5.5666333e-01
  5.0856661e-02
 -1.7909078e-01
 -9.0188706e-01
 -1.9933217e+00
  1.5774302e-01
 -1.0877389e-01
 -1.7193231e-01
 -5.4247004e-01
 -2.7391753e+00
  1.2143958e-01
 -1.1681402e+00
 -2.3340388e-01
  8.1032741e-01
  1.3674152e+00
 -5.3631479e-01
 -2.9539403e-01
  2.5151742e-01
 -9.1351938e-01
  9.4712526e-01
  6.1921775e-01
 -7.6445178e-03
  3.5665054e-02
 -9.5665443e-01
 -4.2796183e-01
  3.5315217e-05
 -1.0310086e+00
 -4.1151905e-01
 -2.9581919e-02
 -2.4538238e+00
 -2.2597566e-01
 -1.6633821e+00
 -1.5749975e+00
 -4.4407436e-01
 -2.0967022e-01
  3.3376727e-02
 -5.8326232e-01
  6.4541483e-01
 -9.7811991e-01
 -1.2631100e-01
 -1.9888453e-01
 -1.0211648e+00
 -1.3000507e+00
 -8.0391496e-02
 -6.0701865e-04
 -1.5757732e+00
  2.8431863e-01
 -4.2550206e-01
 -9.3968615e-02
  1.2744333e+00
  1.0725881e-01
 -1.1228434e+00
 -7.2658516e-02
 -5.1661450e-02
 -1.1596458e+00
 -7.2303832e-01
  2.6749352e-01
  2.9764169e-01
  1.9815801e+00
  7.2617280e-01
 -5.5779696e-01
 -1.5638618e+00
  3.2209435e-05
  1.0101110e-01
  1.0953808e+00
  1.9726157e-01
  4.9174708e-01
  6.5942101e-02
  2.9399699e-01
 -9.1005701e-01
 -4.9760685e-05
 -3.2340053e-05
  2.6091235e-04
  5.0702285e-05
  6.7938781e-05
 -1.4658945e+00
  2.2905286e-01
 -5.4292936e-02
 -5.4885083e-01
 -5.1261973e-01
 -1.3259337e-04
  1.1652408e-05
  9.7273773e-01
  3.6359727e-01
  9.9842805e-01
 -3.2914820e-01
 -1.1476465e-03
  1.4548199e+00
 -1.3283726e+00
 -3.0045048e-04
  4.1569343e-01
 -3.9934952e-07
 -5.8090597e-01
  5.0573391e-01
  1.9634444e+00
  2.0013678e-01
 -1.1829258e+00
 -8.3188330e-05
  7.9550140e-05
  1.2112254e+00
  5.9556532e-01
  6.2240977e-03
  4.5470515e-01
  8.4120417e-01
  1.1398227e+00
 -3.1264877e-05
 -1.5537491e+00
 -9.3313962e-02
 -2.0932734e+00
  8.3220229e-03
  6.0778773e-01
 -3.6085690e-03
 -1.0662652e+00
  5.2441001e-01
 -5.0677192e-01
 -2.5352498e-05
  4.1019546e-05
  2.9556519e-01
  2.4782270e-01
  4.1981234e-06
  2.8912501e+00
 -1.0320874e+00
  2.1624139e-01
 -7.9698306e-01
 -5.0220418e-01
 -1.0388848e-01
  7.2809154e-01
  4.3423560e-02
  4.4749951e-04
  1.5016190e+00
  6.7414677e-01
  1.0067121e+00
  1.0438218e-01
 -1.1209407e+00
  9.2780574e-06
 -1.7877257e+00
  5.4565534e-02
 -2.4492154e-01
 -1.0804045e+00
 -5.8646291e-01
  1.5095500e+00
 -9.8178911e-01
 -1.8603794e-03
 -3.5966073e-05
  2.5224452e+00
  1.5205443e-01
  5.3582042e-01
 -3.0582705e+00
  1.2582251e+00
 -7.9769962e-02
 -1.4025781e+00
 -1.0791055e+00
 -2.3706830e-01
 -1.4283217e-01
  1.7265163e-01
 -9.6684463e-02
  5.2935922e-01
  9.6915489e-01
  1.0662681e-01
 -5.3901142e-01
  2.7872714e-01
  1.2697971e-04
  4.8882052e-02
  3.5082960e-01
 -1.6316944e-05
  3.4516817e-01
  2.7938770e-02
  2.5000113e-01
  1.7521384e-01
 -1.4115123e+00
 -4.7122917e-01
  6.9794022e-02
  4.1955039e-02
  1.6711082e-01
  8.1801391e-01
  2.2598119e-01
  6.4643878e-01
 -5.5622365e-02
  1.0632347e+00
 -3.8782945e-01
 -2.7982536e-01
  5.8866803e-02
  1.3592436e+00
 -2.0060723e+00
 -8.8421375e-01
 -3.1937280e-01
 -5.0163436e-01
  3.1285781e-02
  7.4915450e-05
 -6.8838203e-01
 -6.8613085e-06
  1.6326891e-04
 -2.1314785e+00
  3.4586149e-01
 -7.0727921e-01
  1.8663885e-01
  2.6171264e-01
 -1.6955436e-03
  1.1683223e+00
  1.9265299e-01
  1.9574454e+00
 -2.3712433e-05
 -1.2848376e+00
 -2.1314728e+00
 -5.9772164e-01
  3.4681997e+00
 -4.9376220e-05
 -1.6055861e-01
  9.6027652e-05
  2.5369999e+00
 -1.5292231e+00
  1.9608930e-01
 -2.3789341e+00
  4.4631809e-01
 -4.2707538e-06
 -1.4047939e-04
 -1.5984747e+00
  3.5658827e-01
  7.3060149e-01
  1.1434686e+00
  2.6251583e+00
  2.9615149e-01
  1.7726779e-01
  1.5406835e+00
 -1.5904073e-01
  2.7951012e+00
 -4.7517282e-05
  5.6071275e-01
  1.8750243e-01
 -1.9432794e+00
  4.5341077e-01
  1.3087045e+00
  2.1557586e+00
  5.2737134e-05
  5.4833686e-01
 -1.7890286e-05
  1.3876581e+00
 -1.3371297e+00
 -4.9403438e-01
 -1.5867293e+00
  7.6477396e-01
 -3.9984079e-05
 -1.3184305e-01
 -1.1298205e+00
  4.6042161e-04
  5.4934871e-01
  3.5636497e-01
  1.3749926e+00
 -1.1361461e+00
  1.8326143e-02
  2.5694368e+00
  1.0903604e-05
  1.0161288e+00
  3.9552462e-05
  3.5461795e-02
 -5.9830493e-01
 -1.2944424e-01
  9.0059257e-01
  1.2155889e-01
  8.0252594e-01
 -1.1236179e-03
 -3.9700368e-01
  8.6478639e-01
  1.5117265e+00
 -3.1032890e-01
  1.5618377e+00
  8.1911910e-01
  6.5616846e-01
  2.4694394e-02
 -5.8802805e-04
 -1.4489156e+00
 -1.5019701e-01
  4.0868261e-01
 -7.5221747e-01
 -5.5812466e-01
  8.7347299e-01
  2.6313359e-02
  1.3047225e+00
 -1.7126332e-04
 -4.6489069e-01
  6.2480688e-01
  2.0936123e-01
 -6.5593141e-01
  1.0454857e+00
 -1.8406795e-01
 -1.8665645e-01
  1.5087601e+00
 -2.2619428e-01
  4.1667882e-01
 -1.7501958e-05
  7.2843122e-01
  1.0070871e-01
 -8.0213702e-01
 -4.8386440e-01
 -1.1963948e-01
 -4.3432194e-01
  5.6518775e-01
  5.2444696e-01
  9.3482733e-01
  3.3505507e+00
 -4.5601720e-01
  2.1833804e+00
  1.1952062e+00
  2.2534025e+00
  6.1290120e-05
  3.2989879e-05
  9.5757490e-01
  1.6350036e-04
  6.2696156e-05
 -4.5616221e-02
  2.5956570e-05
  1.6443281e+00
  1.8094874e-05
 -5.0124979e-01
  7.7264428e-01
 -1.0388741e+00
  6.1595851e-01
  2.0765800e+00
  1.1355810e+00
 -2.8765696e-04
  1.3569618e+00
 -1.1225587e+00
 -3.1721458e-05
  1.8124474e-04
  4.0587336e-01
  4.2444238e-01
  6.1767650e-01
 -8.9385068e-01
  1.3786434e+00
  1.1919880e+00
  4.2365283e-01
 -4.0995711e-01
  6.7842627e-01
 -8.2126252e-02
  1.3144013e-05
  3.6997560e-01
 -1.6794723e+00
  6.2969404e-01
  8.5139078e-01
 -1.7856852e+00
 -9.4548002e-02
  2.9217781e-04
  1.2096429e+00
  1.1845088e+00
  1.1136454e+00
  8.5926741e-01
 -6.5933293e-01
  2.8761080e-01
  1.2313361e+00
  1.1792706e-05
  1.6086039e-04
  3.8408399e-01
 -2.9936762e-04
 -4.4575976e-05
 -1.9622834e-01
 -3.5906982e-02
  5.4729950e-01
  3.4876463e-01
 -7.7130842e-01
  4.6763137e-01
  7.6189131e-01
  1.5725615e+00
  1.9267107e+00
 -7.4918199e-01
 -1.9712204e-01
 -3.9684263e-01
 -5.8061558e-01
 -1.8036200e-05
 -2.9443591e-04
  7.3539984e-01
  1.3019895e-05
  8.2618260e-01
 -6.6313326e-01
 -9.4022435e-01
 -5.1047754e-01
 -2.4873514e-01
 -4.5101172e-01
  7.8990501e-01
 -4.2815709e-01
  8.0008966e-01
  1.3187814e+00
 -3.0656227e-01
  1.0785177e+00
 -9.7658820e-02
 -1.3086995e+00
 -3.2793978e-05
 -4.8009031e-05
  2.5263629e+00
  3.7889907e-01
  4.3644992e-01
 -1.6262880e-01
  1.0813339e+00
  3.9243969e-01
 -2.0436044e+00
 -9.5595539e-01
  1.6055043e-01
  1.0506918e+00
  3.5683045e-01
  8.3058488e-01
 -2.2910669e-01
  6.1207455e-01
  3.3293015e-01
 -5.9207153e-01
  7.2574064e-02
  1.8431972e-01
  1.3925031e+00
  7.3356740e-02
  8.9311904e-01
 -2.9926980e-01
 -2.0304884e-01
  7.3354812e-03
  3.8250372e-01
  1.6640214e-02
  1.6640214e-02
  1.6640214e-02
  1.6640214e-02
  1.6640214e-02
  4.3687940e-02
  4.3687940e-02
  4.3687940e-02
  4.3687940e-02
  4.3687940e-02
  2.5082333e-02
  2.5082333e-02
  2.5082333e-02
  2.5082333e-02
  2.5082333e-02
  1.2051275e-02
  1.2051275e-02
  1.2051275e-02
  1.2051275e-02
  1.2051275e-02
  6.7577264e-03
  6.7577264e-03
  6.7577264e-03
  6.7577264e-03
  6.7577264e-03
  1.8942138e-02
  1.8942138e-02
  1.8942138e-02
  1.8942138e-02
  1.8942138e-02
