nep4 3 Mo Si N 
cutoff 6 4 102 33
n_max 4 4
basis_size 12 12
l_max 4 2 0
ANN 30 0
  2.4270784e-04
  2.5941047e-04
 -2.6094395e-04
 -1.5632909e-04
  4.2497896e-04
 -4.5882611e-04
  9.3142611e-05
 -7.8966550e-06
  9.6087660e-06
  2.0549442e-04
  5.0364764e-05
 -3.6751095e-04
  2.9530475e-04
  9.3831382e-05
  7.6616678e-05
 -1.6695367e-05
 -4.1378537e-04
  1.0043845e-04
  1.2303340e-04
  3.1887737e-04
 -3.8303566e-05
  9.6551579e-05
  3.1887350e-04
  3.5669241e-04
  1.3945380e-04
 -1.3200376e-04
 -1.3936668e-04
  1.9723372e-04
  4.6787542e-04
 -1.4200498e-04
 -3.4479468e-04
 -9.4038271e-04
 -2.1799403e-04
 -2.5868611e-04
  1.9915961e-04
  4.0970673e-04
 -2.4340258e-04
  3.6757287e-05
  7.3954012e-05
  5.9637794e-05
 -1.5933922e-04
  3.7108574e-04
 -7.1247679e-04
 -5.0749608e-05
 -4.6115575e-04
  2.3683815e-04
 -1.5395501e-04
  1.2092978e-04
 -2.9581372e-04
 -5.1779185e-05
 -2.6147786e-04
 -2.4060145e-04
 -1.2643478e-04
  2.1104362e-04
 -3.8647479e-05
 -4.4383956e-04
  4.9325568e-04
 -3.3994031e-04
 -3.1978730e-04
 -1.2191218e-04
  1.1696460e-04
  8.8641435e-02
 -8.4909832e-01
  4.8579422e-01
  1.5270263e-04
  3.5205373e-01
 -2.4297372e-02
 -1.0335761e-01
  5.9184694e-01
  5.7828985e-02
 -5.2565359e-02
  2.5809687e-01
 -1.2474029e-03
  3.8950169e-01
 -8.6927481e-02
 -4.7197612e-03
  4.1542337e-03
  1.4101918e-04
  6.9374382e-04
 -9.1574114e-04
 -4.6244799e-03
  8.8260575e-05
 -2.7855998e-04
  3.9839637e-01
  7.5626053e-04
  1.0647000e-04
 -5.5648923e-02
 -2.0826192e-04
  1.0617702e-01
  1.0065225e-04
 -2.3223917e-04
  7.1062958e-01
 -2.1295105e-01
 -9.1175473e-01
 -1.4458638e+00
 -3.4361790e-04
  5.1306285e-02
 -8.4274125e-01
 -1.7728177e-01
 -3.0207565e-02
  7.5348216e-05
  4.5820376e-01
  6.2299842e-01
 -1.5953443e+00
  5.6894554e-04
  4.1520658e-01
 -4.5848891e-02
  1.0555335e-03
 -4.2063906e-04
 -4.3465814e-04
 -5.5066921e-02
 -4.3465316e-01
  1.4872624e-03
  4.5171601e-01
 -7.3394678e-03
  3.1820920e-01
  9.3176781e-04
  1.0580914e-01
 -2.3575571e-01
 -1.0038311e-06
 -3.4899324e-02
  1.3507072e+00
 -9.1316365e-04
  1.8745737e-02
 -4.4865304e-01
  5.9342362e-02
  1.9062194e-01
  1.2343184e-01
  2.4679980e-01
 -5.6006455e-01
  4.1571382e-01
  3.7560361e-03
 -7.8377342e-01
 -4.7797807e-02
  1.6146582e-01
  2.7949247e-01
  9.9667475e-02
  5.7152390e-02
  5.9365368e-01
  2.9423900e-02
 -1.3223790e-01
 -6.1548688e-03
  6.3634885e-05
 -1.3678952e-04
 -1.0340905e-01
 -8.5235529e-02
  3.6575899e-02
  9.0701403e-03
 -9.7582326e-04
 -1.5554100e-03
 -4.8458591e-05
 -6.0038161e-01
 -5.4850221e-02
  2.4419710e-02
  6.1261839e-01
  2.4852449e-02
 -4.1622284e-01
  4.9002925e-01
 -2.6362348e-01
 -2.9603427e-04
  3.6182892e-01
 -3.5305631e-01
 -5.2407402e-01
 -1.4839600e+00
 -3.3253002e-01
 -9.4378488e-03
 -1.9821326e-01
  2.3446006e-01
  5.5046290e-01
  5.0360668e-01
 -1.0049024e-01
  4.4299787e-01
 -1.7778212e-01
 -9.7126412e-01
 -7.9692341e-03
 -1.4233805e-01
  9.9793278e-02
 -8.6580799e-04
 -3.2647291e-01
  2.2701490e-01
  1.6821641e-05
 -1.1914071e-04
 -6.2524705e-05
  9.0537200e-05
 -5.0301675e-04
 -1.5123841e-05
 -2.4346025e-05
  2.8084294e-04
  1.5293108e-04
 -6.0878127e-05
 -2.6744229e-04
  5.4810796e-04
 -1.6707112e-04
 -1.3463756e-04
 -2.8297098e-04
  2.8393426e-04
 -6.0849408e-05
  4.0729594e-04
  1.9155523e-04
 -3.0372664e-04
  3.3707934e-04
  1.8889544e-04
  4.9429509e-05
 -1.6213628e-04
  1.1769881e-04
  6.4180465e-04
 -3.9380990e-05
 -4.9245631e-05
 -1.7602046e-04
 -7.2111427e-05
 -3.6342838e-01
 -5.5637825e-02
 -8.7413788e-01
  5.7636178e-01
 -2.5790071e-01
  6.6600172e-05
  4.7476727e-01
 -9.4776139e-02
 -9.4934493e-01
  6.8122208e-01
 -2.5469279e-01
  5.3205711e-01
  4.6444863e-01
 -1.0113546e-01
 -3.4655887e-01
  3.2745871e-01
 -2.0891187e-01
 -6.7866814e-01
  5.5419821e-01
 -3.0795818e-02
 -2.5658083e-01
 -1.8250261e-01
 -4.8689970e-01
  6.2823123e-01
 -9.8111171e-01
  7.0138437e-01
  6.9075239e-01
  9.6412718e-01
 -2.8918391e-01
  1.6303839e-01
 -3.1291498e-04
  2.0445359e-04
 -2.4132515e-04
  4.9798702e-05
 -1.0133347e-04
  6.4888809e-05
 -3.6176376e-04
  1.5385303e-04
  1.6622740e-05
 -1.2831140e-04
  1.7241007e-04
 -1.0941176e-04
 -7.6449149e-05
  2.4124385e-04
 -1.5028694e-05
  3.2241893e-04
  3.1334512e-06
 -2.8836710e-04
 -1.2017519e-04
 -1.6913205e-04
  2.3090461e-04
  3.3108507e-05
  3.8506388e-04
  2.1200182e-04
 -8.8054956e-05
 -2.4317189e-04
 -4.6779049e-05
  2.2207481e-05
 -7.6882752e-06
 -2.2172292e-04
  2.5275355e-04
 -6.0512224e-04
  9.0132431e-05
 -6.8075213e-05
  3.0225528e-05
 -5.6045566e-04
 -3.0803803e-04
 -9.8574652e-05
  3.8141370e-04
  1.7164726e-04
  2.5829257e-05
  2.9369508e-04
 -2.5124988e-05
 -2.2424807e-04
 -7.7274497e-05
  2.2332775e-04
 -3.1160185e-04
 -1.4750331e-05
 -5.6926295e-04
 -6.3697764e-05
  6.1078710e-05
 -1.4250830e-04
 -8.0738231e-05
  1.3386022e-04
 -3.3664901e-04
 -3.4138895e-04
  2.2801118e-04
 -1.4304370e-04
  8.3191867e-04
  3.3127496e-04
  2.7030255e-05
  3.8404905e-04
 -8.4333646e-05
 -1.3956723e-04
  1.0265119e-04
  1.7624786e-04
  1.1799647e-04
 -2.0575688e-05
 -7.4154988e-05
  1.5404058e-04
  4.0098836e-04
  6.0725717e-05
 -7.9927122e-05
  2.2572547e-05
 -2.2143617e-04
  7.3703632e-05
 -7.2842477e-06
  3.5223966e-05
  2.3497854e-04
  5.4708798e-06
  8.4141051e-05
 -2.1635037e-04
 -2.7371003e-04
 -4.1175252e-04
  1.5091860e-04
 -4.2678852e-04
 -2.0974845e-04
  2.0896451e-04
  2.5569566e-04
 -1.5338666e-04
  1.0126897e-04
 -4.7312173e-04
 -1.0511557e-04
  1.8850467e-04
  4.5586185e-04
  1.2578504e-04
 -2.0368854e-04
  8.4768748e-05
 -2.6106989e-04
  1.7731164e-04
 -1.7580585e-05
  9.5475509e-05
  4.9291528e-05
 -1.2026042e-04
  3.7637283e-04
 -1.6206354e-04
 -3.8083483e-04
  3.9696606e-05
 -3.2806685e-04
 -6.1530067e-05
 -1.2643455e-04
 -3.0827612e-04
  1.7023720e-04
 -2.9045725e-05
 -8.5867214e-05
 -1.9449726e-04
  9.4187650e-05
 -3.0617602e-04
  4.9446047e-05
 -4.5251296e-04
 -3.6820114e-04
 -2.1918037e-04
  1.3328265e-04
 -5.0447001e-05
  3.6867301e-04
  5.6015466e-05
 -1.4161253e-04
 -1.8836668e-04
 -5.1351111e-05
  2.8290198e-04
  8.6182736e-06
 -1.5207741e-04
  2.8417366e-05
 -1.5315828e-04
  2.2280603e-04
  3.4018734e-04
  3.0750368e-04
 -5.6881487e-05
 -8.0207377e-05
 -1.0409691e-04
  2.9196919e-05
  1.3295081e-05
  1.4398326e-04
  3.3953134e-04
  2.2283266e-04
 -3.0233801e-05
  9.3221388e-05
 -2.5554225e-04
 -5.4099259e-04
 -4.4888273e-04
  3.4324508e-04
  2.2108681e-05
 -5.9459929e-04
 -5.2337669e-04
 -2.9646113e-04
 -6.7459035e-04
  1.4279418e-04
 -1.0497661e-04
 -1.1940238e-04
  9.5906333e-05
 -1.1357736e-04
  2.8630361e-04
 -4.1286577e-05
 -1.0390436e-04
  1.6647871e-04
 -2.1328058e-02
  6.5553200e-01
 -1.3716369e-04
  3.0942372e-04
 -1.1317265e-04
  7.4120553e-04
 -1.3456035e-04
 -3.6305818e-04
 -1.7482864e-04
  4.6012923e-05
 -2.2041428e-04
 -8.4965301e-05
  1.4183972e-04
  7.2348624e-04
 -1.9010094e-04
 -2.2751618e-05
  2.4646343e-04
 -1.0163562e-04
  1.9874557e-05
  6.5371103e-05
 -2.5791148e-04
  2.1203105e-04
  2.3938723e-05
 -3.6127336e-04
 -7.6536258e-04
 -9.2848088e-05
  7.3727471e-04
 -4.2816775e-04
  3.0731451e-04
 -3.8397851e-04
  8.4955813e-05
  2.4627632e-01
  3.6011461e-05
  9.2588816e-05
  1.5477474e-04
  2.8100915e-04
  1.6215454e-06
  3.0994942e-04
 -2.9148630e-04
 -1.8414758e-04
 -1.6032030e-04
 -2.6514989e-04
 -1.6459447e-04
 -2.1646843e-04
  8.0136153e-05
 -5.0742868e-02
  6.7401969e-01
  1.9212373e-05
 -1.7644295e+00
 -1.7426417e+00
  1.4282366e-05
  5.8926582e-02
 -1.2025341e-02
 -3.3063361e-01
 -8.4527819e-05
  2.8426442e-01
 -2.3577897e-01
  2.6617536e-02
 -2.0000280e-01
 -1.8168511e-04
 -4.2372131e-01
 -2.0932332e-04
  1.8209375e-01
  2.4045107e-04
  2.5278956e-04
  1.2342885e-01
  2.1740339e-05
 -7.6414704e-02
 -7.3619951e-05
 -7.6295185e-04
  2.6800472e-04
  1.4059505e-01
 -1.8088427e-05
  1.6591978e-01
 -3.8814968e-03
 -6.2103993e-01
  4.1248754e-01
 -1.0253670e+00
 -1.3045468e+00
  2.9651742e+00
 -2.3873019e+00
 -2.8217676e-01
  1.8983154e-01
  2.3313503e-01
  2.6883514e-05
  2.2601284e-01
 -5.4111656e-02
  9.0438581e-01
 -4.5914122e-01
 -1.0752974e-05
  5.0756365e-01
 -2.6804073e+00
 -6.5584445e-01
  6.2779009e-01
  5.2064562e-01
  1.3180166e-03
  3.2992929e-01
  3.6451462e-01
  1.5211372e-01
 -1.0959019e-04
 -1.7008096e-01
  1.0202111e-01
 -1.6074917e-01
  5.0264674e-01
  3.2335918e-02
 -1.0362077e+00
 -1.3842995e+00
  1.7177678e+00
  1.7797654e+00
  8.5898381e-01
  5.5661428e-01
  3.0259416e-01
 -8.4787500e-01
 -1.3361406e+00
  4.2646745e-01
  1.0956105e+00
 -6.0558327e-02
  8.3438039e-02
 -4.9885180e-02
 -8.5264730e-01
  7.2634727e-01
 -1.9052764e-02
  3.2597366e-01
 -7.1851321e-02
  2.1366877e-04
  3.4094530e-01
  2.6958609e-01
 -5.4207569e-01
  3.6377195e-01
  9.5847499e-05
  9.6454221e-04
  3.0919433e-02
  2.2308663e-01
  1.1200166e-01
  3.2041138e-01
  1.0911150e-05
  8.1166709e-06
 -3.1251778e-04
  2.1433226e-04
  1.2246083e-05
  6.6896313e-04
 -7.5324526e-05
  2.7181290e-04
  1.6166203e-04
 -1.1488747e-04
 -8.7399552e-05
 -1.2175966e-04
 -7.4142485e-04
 -2.2297986e-04
 -4.0094962e-04
  3.0502194e-04
 -2.2422209e-04
 -6.5541384e-04
  1.1118700e-04
  2.7639337e-04
 -1.5343902e-04
 -4.1691391e-04
 -8.8642155e-06
 -5.6606607e-04
  6.3885607e-05
  6.6291330e-05
 -6.0584192e-05
 -4.0416012e-04
  8.5325264e-06
 -6.4678825e-05
  1.1527140e-05
  2.0039179e-04
  2.1531351e-04
  9.9832425e-05
  6.7729433e-04
 -9.7380645e-05
  6.2007959e-05
  1.4221878e-04
  4.1165456e-04
 -4.3136338e-04
 -7.5882228e-05
  4.7318137e-04
 -1.5584286e-04
  2.2823965e-04
  1.1561665e-04
  2.1730293e-05
  1.2111601e-04
  1.6150864e-04
 -9.8353798e-05
  2.3519187e-05
 -3.3830458e-04
 -1.0427802e-04
 -7.3894960e-05
  5.4944823e-05
  1.4642740e-04
 -8.1862127e-06
  6.4585256e-05
  3.7942595e-05
 -4.6134646e-06
 -1.0781565e-04
  2.5740466e-01
 -1.0663588e+00
 -2.4230142e-01
  1.9466932e+00
 -8.8121928e-02
  1.1800108e+00
 -2.1575141e+00
  6.9830471e-01
  8.3608460e-01
  8.3851395e-04
  5.3206468e-01
 -1.3854070e-01
  1.5609129e-01
  1.0359021e+00
  1.8263903e-05
  1.1854087e+00
 -2.2093935e-01
  1.8108008e-02
 -1.8529649e-04
  7.7817537e-02
  2.2859155e-01
  1.8275609e+00
  1.0717366e-03
 -1.1780392e-01
  2.0737830e-04
 -2.3352702e-01
 -3.9148178e-02
 -8.1039524e-01
 -2.2980173e-01
  1.7227512e-03
  5.9916198e-05
 -9.6349744e-05
 -3.6477775e-04
 -1.2604802e-04
  1.7811944e-04
 -4.0989005e-05
 -5.9142685e-04
 -1.9102654e-04
  1.7668627e-04
 -2.1055070e-04
 -3.1314651e-04
 -6.1646383e-04
 -1.1462319e-04
  5.3435833e-06
  7.0995249e-02
  6.4074309e-05
  5.5433695e-05
 -1.8236875e-04
  8.2501072e-05
  4.9091297e-05
  3.4865725e-04
  4.0676221e-04
  1.4766392e-05
 -6.5453147e-05
  1.8923563e-05
  1.3793750e-04
  9.5787909e-05
  1.1642875e-04
  3.2750773e-04
  1.3900512e-04
 -4.8232087e-06
  1.8688780e-04
 -5.1579665e-04
  2.7552599e-04
  5.2684329e-05
  2.0456534e-04
 -3.0489825e-04
  2.2763539e-05
  1.8331637e-04
 -9.2531869e-04
 -6.3897984e-05
 -1.0386649e-04
  1.0644052e-04
 -5.1022291e-01
  1.3104046e-04
 -5.0698221e-04
  3.4501374e-04
 -8.5486718e-05
 -7.1333756e-04
  1.0528813e-05
 -3.7754129e-05
 -1.2026943e-05
 -1.7363165e-04
 -5.8701413e-04
  2.8846903e-06
 -5.3415948e-05
 -5.5532251e-04
  1.9615205e-04
  1.9062939e-04
 -2.7073672e-04
  5.7076446e-05
 -4.2661121e-01
  1.7709881e-01
 -1.8986024e-01
 -1.4752411e+00
  1.4838244e+00
 -4.5653370e-01
 -4.0957561e-01
  1.3116258e-01
  1.5206879e-01
 -2.7683284e-03
  1.3233396e-01
 -2.3941793e-01
 -1.2931809e-01
 -5.5440933e-01
 -2.3771478e-02
  1.5659000e+00
 -8.8286430e-02
 -2.9245436e-01
  6.6632706e-01
 -4.3367767e-01
 -1.0207734e-01
  2.2656773e-04
  1.1401543e-01
 -5.2325905e-04
 -2.8009055e-04
 -1.5311372e-02
  6.3024342e-02
  6.6072607e-01
  9.1988342e-03
  1.7397344e-05
 -1.4059251e-04
 -1.5142559e-04
 -8.9486502e-06
 -6.4333590e-06
  3.9993072e-04
  2.1800712e-05
 -7.1090020e-05
  2.3795162e-04
 -1.3421572e-04
 -3.6553436e-04
 -1.9127277e-04
  3.9400154e-05
 -2.2417480e-06
 -2.4636573e-05
  3.8561947e-04
  3.0282809e-04
 -3.7805259e-04
 -2.6531622e-04
 -4.4012420e-05
  5.3812447e-04
  1.3638567e-05
 -3.1539306e-04
 -3.1419963e-04
  1.6777188e-04
 -2.4753320e-04
 -2.7212236e-04
 -2.0950339e-04
  1.7167498e-04
  2.7414988e-04
 -2.4343914e-04
 -2.4938127e-01
 -4.9177527e-01
  2.8335196e-01
 -2.9674675e-02
  3.1374970e-01
  6.7168839e-02
 -8.1298538e-02
  7.1660227e-01
  5.1204270e-01
  5.9681034e-01
 -2.7893952e-04
 -1.5251477e-02
  2.0495214e-01
 -4.5246474e-02
 -2.8150290e-01
 -5.1698983e-01
  9.5780335e-02
  7.3390551e-02
  5.0603203e-02
  5.8221199e-02
  7.6963419e-01
 -2.5221270e-01
  5.0030235e-04
  2.8639320e-01
 -2.4409473e-01
 -1.3504256e-04
  2.0896884e-02
  1.7263125e-01
 -2.0640877e-04
 -1.1698360e-04
 -3.7155967e-04
  1.7721945e-04
 -9.0474539e-05
 -1.2611106e-04
  1.8215843e-04
 -1.3219756e-04
 -5.5610424e-05
 -9.8008684e-05
  1.2329638e-04
 -2.2631079e-04
 -3.0753034e-04
  2.1875794e-04
 -1.0276523e-04
 -1.7070840e-04
 -1.1688640e-04
  9.7125441e-05
 -3.1667115e-04
  2.5506219e-05
  1.5036552e-04
 -3.5548041e-04
  3.6507187e-04
  2.0956872e-04
 -1.9503881e-04
 -2.4188937e-05
  1.0368170e-04
 -4.5236552e-04
  9.5344200e-05
 -2.0051136e-04
  1.6659757e-04
 -3.0040020e-01
  1.4897609e-01
 -3.1024614e-01
  1.4783323e+00
 -1.6942431e-01
  7.0022601e-01
  7.3600173e-01
 -3.5187062e-02
  8.4912586e-01
  2.9193010e-02
  9.1753209e-01
  3.7755232e-04
 -5.9103310e-01
  6.4112449e-01
 -1.9714324e-04
 -1.5534070e+00
  2.4193573e+00
  4.6984923e-01
 -5.8540279e-01
  4.1668409e-01
 -5.6961384e-02
  1.1100366e+00
 -7.0099652e-01
  3.1997329e-03
  4.0029469e-01
 -3.2261416e-04
  3.7226582e-01
 -2.8237157e-02
  4.7336140e-01
  8.7739929e-05
 -1.7667960e-05
 -4.9418522e-06
  2.6979669e-05
  7.0804468e-05
  7.9407066e-05
 -2.8193192e-04
  2.4055238e-04
 -9.5008931e-05
  4.3890026e-04
 -1.1925519e-04
  3.3809358e-04
  1.2348536e-04
 -4.7313224e-05
 -9.6560463e-05
 -2.7621434e-05
  2.6850647e-04
 -2.3452987e-05
 -1.9220717e-04
  5.7182147e-04
 -2.6907728e-06
 -7.8093843e-05
 -3.3160355e-05
  1.9650707e-04
  1.3067904e-05
 -2.4549253e-04
  3.5396282e-04
 -4.5273453e-05
 -2.6997749e-04
  1.9141485e-04
  2.9216561e-04
  3.8342521e-01
  5.5024070e-01
  5.2331042e-01
 -3.8449064e-01
  1.0862962e-01
  6.7322886e-01
 -4.6227131e-02
  6.1291596e-03
  5.6652308e-01
  6.1205131e-01
 -1.4217736e-01
  1.0733440e+00
  1.2822989e-01
  9.2756563e-01
 -3.0969372e-01
 -1.1450351e-01
  1.3311311e+00
 -3.6280984e-01
  2.1170630e+00
  1.3476065e+00
 -4.2752406e-01
  8.0073118e-01
  1.1103875e-01
  6.6223311e-01
 -8.7060913e-02
  5.1409472e-05
  2.4960363e-01
  6.7562157e-01
 -4.2723510e-01
  2.6523322e-04
  4.6377484e-04
  4.8497960e-04
  9.9509782e-01
 -1.4415330e-02
  1.9738871e-01
  1.5594697e-01
 -2.0603613e-04
 -5.6560844e-01
 -3.8486389e-05
 -2.5795994e-04
 -1.0435997e-04
 -5.8791265e-05
  2.1347057e-04
 -4.0361389e-05
  9.4659312e-04
 -4.3911546e-01
  7.9070359e-02
  2.5956061e-01
 -3.2951834e-04
 -1.4117957e-04
  3.8590482e-01
 -1.1911237e-05
  1.3604481e-04
 -4.4650236e-01
 -5.5501645e-05
 -4.6661332e-01
  1.4255622e-04
  8.1740034e-01
  1.5815608e-04
  2.2934732e+00
 -2.4325011e-04
 -1.2540340e-04
  1.0049825e+00
 -9.8927909e-01
 -1.2610605e+00
  1.2018008e+00
  3.6320918e-05
  1.7499539e+00
  9.5488853e-05
  4.2661377e-05
 -4.2648569e-02
 -2.7908289e-04
  1.7360016e-05
 -1.9926400e-01
 -1.7179528e-01
 -9.7199440e-01
  3.0741453e+00
  1.6604096e+00
 -7.6981538e-05
  3.7652906e-04
  1.1123594e+00
  5.4167522e-05
  1.1099976e-01
  1.5077909e+00
 -5.2954187e-05
  1.2969369e+00
  5.6018279e-04
  5.7861060e-01
 -5.1341358e-05
  1.3317668e+00
 -7.0626562e-04
 -7.0091037e-06
 -2.1159378e-04
  7.5890840e-04
 -1.1872887e-03
 -3.5536764e-04
 -7.8236728e-05
  2.2942020e-04
  1.8293555e-04
 -1.5365721e-04
  7.6070457e-05
  1.0771993e-04
  1.4249334e-04
  1.3837239e-04
 -1.5726827e-04
 -7.3573992e-06
 -7.7078243e-05
  2.9647994e-04
 -1.9478884e-05
 -5.6393305e-04
  1.4627106e-04
  6.7655987e-05
  1.0140517e-04
  6.1357001e-05
 -2.6394868e-05
 -2.2859604e-06
 -5.1039417e-04
 -8.2463215e-05
 -8.9949070e-05
  1.0183104e-04
  6.8497574e-01
 -1.2577374e-03
 -2.1944788e-01
 -6.6411132e-01
  2.4410661e-02
 -6.7876875e-01
 -5.3961653e-01
  7.5272667e-01
  2.9933671e-03
  5.0268459e-01
 -6.2789720e-01
  1.2771662e-01
  4.0124136e-04
  1.1985489e+00
 -1.2390726e-01
  2.6685160e-01
  4.3631421e-04
  1.0521148e-01
 -1.6892381e+00
 -8.0434895e-01
 -6.5180886e-01
  4.9563977e-03
 -4.1171101e-01
 -1.1225455e-01
  7.8243005e-01
 -7.1579891e-01
 -3.4306001e-02
  5.1153356e-01
  4.4912513e-02
  3.4730858e-01
  3.9936703e-01
 -5.4133307e-02
 -2.4530342e+00
  1.8465290e-02
  7.5406730e-01
 -1.6802937e-01
 -4.7841629e-01
  3.3777466e-01
  1.1263747e+00
  5.4038286e-01
  4.2075223e-01
  2.4286046e+00
 -6.8089414e-01
 -2.8750902e-01
  8.7516522e-01
 -1.3364367e-01
  9.8187399e-01
  1.9410153e-01
 -1.8316077e-02
 -3.0030790e-01
  1.6925754e-01
 -3.4230463e-03
  2.7554429e-01
  5.2486771e-01
  2.5280195e-01
  4.0755785e-01
  6.6042245e-05
 -8.0227005e-01
  5.4459256e-04
  7.1682173e-01
  1.1976018e-04
  1.4229541e-04
  1.3370794e-04
  1.4910584e-05
 -4.7418670e-04
 -1.3955573e-04
 -5.7188339e-05
 -1.3429558e-04
 -4.0091042e-04
 -3.9196934e-04
  4.3755572e-05
 -1.1668615e-04
  1.7037807e-04
  4.4665750e-04
 -2.6761089e-04
 -1.5249988e-04
 -1.3342247e-04
 -5.6326477e-05
  2.8175215e-05
 -2.3549769e-04
 -6.6112843e-05
  1.9471468e-04
 -2.9477496e-05
  3.1472673e-04
  1.9736709e-04
  2.1745623e-04
  2.0404336e-04
  5.2012161e-05
 -2.0856697e-04
 -2.4599445e-04
 -4.9461085e-01
  8.6570656e-01
  7.5191230e-01
 -1.1622053e+00
  1.2769593e-01
  2.2517561e-03
 -2.5783323e-02
  8.4014827e-01
  4.1696231e-04
  6.4312041e-02
  4.8578888e-02
  8.4226698e-01
  2.6025820e-01
 -1.1917498e+00
 -8.2678251e-02
  4.8383877e-01
 -1.4595793e-03
  3.6363968e-01
  1.0047061e+00
 -2.6957360e-01
 -1.9280414e-01
 -2.0385374e-01
  2.9250273e-01
  1.3102994e-05
  1.0698240e-01
 -1.1477047e-01
  3.0748546e-04
 -1.8590844e-01
  2.5404161e-01
 -2.7854937e-01
  2.4496159e-01
  5.9461140e-04
  4.2779269e-05
 -1.2237957e-01
 -1.3057163e+00
  1.2033540e-02
  4.4452280e-02
 -7.5496268e-05
 -3.5666236e-01
 -6.4799559e-01
 -1.9122809e-01
 -3.7856689e-01
 -1.1035012e-04
 -4.7744378e-02
 -9.2831723e-02
 -1.3638137e-01
 -1.8449201e-03
 -3.5375555e-04
  6.1255974e-01
  1.4184705e+00
 -1.9765548e-01
  7.5132260e-04
 -1.1702764e-04
 -8.1001170e-02
  2.6558049e-05
 -1.1165289e-01
  4.0237510e-04
  1.0567695e-04
  2.9603145e-04
  7.8558706e-02
  5.2850519e-04
 -1.1376872e-04
  3.2642996e-04
  3.1659321e-04
  2.7995615e-05
  7.0834307e-05
 -1.9143990e-06
  5.7181725e-05
 -5.7495077e-04
 -3.8898792e-04
 -1.3660625e-05
  4.9184182e-05
  1.7789815e-04
  3.5258042e-04
  3.2958301e-04
 -1.3304697e+00
  5.4061515e-05
  1.5989772e-05
  5.4364999e-05
 -4.8208251e-05
 -3.9128895e-04
  5.6304812e-04
  2.7093670e-04
 -4.4056488e-04
  3.2224384e-04
  3.9138508e-04
  3.3494888e-04
  5.9845428e-05
  4.4695078e-04
  1.6367537e-04
 -2.9307969e-02
  8.7997672e-05
  1.0074857e-03
  1.5192828e-04
  9.2458486e-04
  2.7563772e-05
 -1.9449531e-04
 -8.0363784e-04
 -2.7037429e-04
 -5.5179041e-04
  7.7535346e-02
  3.6147257e-04
 -9.3684474e-05
 -2.2319834e-01
 -8.0553985e-01
  9.7520307e-05
 -4.8175815e-04
 -6.1828534e-05
 -2.6246274e-01
  6.9681404e-04
  6.9210993e-04
 -4.0944971e-05
  2.2051914e-03
 -3.0270626e-04
 -3.3863544e-04
  1.4157829e-04
  2.2635609e-04
 -2.4991203e-04
  1.8514847e-04
  6.4547959e-05
  9.5597255e-01
 -1.0089284e-01
 -1.1845747e+00
  3.5932700e-03
 -3.5456836e-01
 -6.3366491e-01
 -1.2115833e-01
 -5.4162148e-02
 -2.5085197e-04
  4.5083388e-04
  2.7111536e-01
  6.3989264e-01
  1.6859807e-01
 -3.0888620e-01
  1.0166066e+00
 -1.6695282e-01
  2.3208869e-04
  4.0556878e-01
  9.2898434e-01
  3.1408753e-02
 -1.2459031e+00
 -5.2852255e-01
  3.1754115e-04
 -6.6193950e-01
  7.1769133e-03
 -1.4373269e-02
  3.2740121e-04
 -1.3762712e-01
  3.6987953e-02
  1.5268638e+00
  4.3746285e-04
  1.3982598e-04
  6.6737623e-05
 -2.0809253e-04
  6.6714405e-05
 -1.1282720e-04
  1.9673980e-04
 -1.3086526e-04
  1.8471721e-05
  4.1275937e-04
 -3.2936569e-04
 -4.6220614e-04
  4.9244387e-05
 -2.7666782e-04
 -3.1169137e-04
 -9.2452799e-05
  6.6953726e-05
  1.2766305e-04
  5.2828097e-04
  1.6175488e-04
 -9.9065335e-05
 -6.3922264e-05
  1.5126230e-04
 -5.1229005e-04
  3.7106243e-04
  1.1178733e-05
  6.5740314e-05
 -2.9771483e-05
 -8.9847235e-05
 -2.2330980e-05
  1.9712145e-03
  3.7741327e-01
 -7.0281833e-01
  1.1624612e+00
  1.6227818e-01
 -1.0394142e+00
  2.8824750e-01
  1.2801675e+00
 -1.7400839e+00
 -7.1381204e-02
  1.2366528e-01
  1.5431324e+00
 -5.8665532e-01
 -2.6337525e-01
  2.4376372e-01
 -6.7688838e-02
  5.2281070e-01
  1.8364722e-02
 -8.4974296e-02
  2.3101559e-01
 -3.7154016e-01
  3.4975601e-05
 -4.8443206e-04
 -4.1195762e-01
 -2.5681707e-01
  3.0479635e-04
 -1.5953356e-01
 -1.0704533e-04
 -6.8558520e-01
 -2.1331108e-01
 -7.5381601e-01
  8.6653635e-02
  1.8486215e-01
 -4.1650730e-04
  1.2662311e-01
 -2.2422208e-04
 -1.4396367e-04
 -4.6826026e-05
 -6.1177131e-04
 -3.1221873e-04
  5.8083111e-05
  2.1107330e-03
 -7.5595162e-06
 -5.8881997e-04
  3.2967457e-01
  3.8839255e-02
 -2.4238639e-02
  3.6824981e-04
  3.5517284e-01
  2.8992991e-03
  2.2690280e-01
  1.5456195e-03
  7.7624578e-04
 -3.8811413e-04
  1.9404061e-04
 -4.0084829e-05
 -1.0600284e-04
  4.8170776e-05
  2.0569059e-04
  6.2939888e-01
 -1.4475020e+00
  1.3338315e-01
  5.2411269e-02
 -2.3652537e-02
  1.8311855e-01
 -2.1250644e-01
  8.4067351e-01
  3.9792517e-01
 -7.7547270e-01
  1.7904505e-01
  5.7740533e-03
 -1.9248359e+00
  1.3259351e+00
 -1.2308520e+00
  2.0737300e+00
 -5.6844015e-02
 -3.6570311e-01
  7.4037248e-01
  4.4154710e-01
 -8.4066458e-02
  2.2548983e-02
  7.6180451e-02
  1.2185884e+00
  1.5042520e-02
  1.0162196e-01
 -1.7488337e-04
 -9.9855401e-03
  3.1572382e-04
  4.4719884e-01
 -1.3657382e+00
 -1.3856881e-04
  2.3218225e-05
 -6.4420732e-05
  3.1283143e-04
 -2.5271325e-04
 -7.5570570e-05
  1.8570815e-04
 -3.1861698e-04
 -2.0865149e-04
 -3.1478234e-04
 -5.5994187e-04
 -5.6354867e-05
 -1.0271620e-05
  1.9704536e-04
 -2.4256311e-05
  4.5500241e-05
  1.0928364e-04
 -1.4647962e-05
  1.7003430e-04
  6.1159561e-05
  3.6124973e-05
 -1.3926203e-04
 -6.3708008e-05
 -6.2636485e-05
  5.3373697e-06
 -9.3741321e-05
 -6.9145142e-05
 -8.2761841e-04
  5.1347160e-04
  2.8268798e-04
  4.7618618e-05
 -4.1079402e-05
  3.2756326e-04
 -3.6155272e-04
  1.3842011e-05
  4.9050956e-04
  1.0492779e-05
 -2.1861907e-04
 -3.8719885e-05
  4.9410696e-04
  1.7751200e-04
 -6.7963667e-04
  2.7620507e-04
 -6.6493216e-05
  3.1543037e-05
 -3.7945851e-05
 -2.0476943e-04
  3.2548603e-04
  7.8103629e-05
 -2.0859086e-04
 -1.5888613e-04
 -4.9294304e-04
 -1.0890946e-04
  4.7481877e-05
  1.1548498e-05
  1.9964778e-04
  2.0925718e-04
  6.3882071e-05
  1.8290302e-04
 -9.0068541e-05
 -1.2721154e-01
 -1.4359674e+00
  1.2817534e+00
  5.6835014e-01
  1.9949692e+00
 -6.7153352e-04
 -1.4234935e+00
  7.8424906e-05
  1.6890791e-01
  1.9950666e-01
 -1.8439066e-04
 -1.3021331e-01
 -4.5820478e-01
 -1.5645179e-01
  7.9751885e-01
 -5.0860310e-01
 -2.3232563e-04
  3.0074367e-01
 -1.4999096e+00
  8.5614389e-01
  2.7034238e-02
 -1.5141477e-01
  1.0923691e+00
 -6.5765244e-01
 -4.5993137e-01
 -1.5705867e-01
  1.1120206e+00
 -2.1450198e-01
  2.4124402e-01
 -3.5608843e-01
  2.2627988e-05
 -1.3051632e-04
  5.2483461e-04
  1.0710737e-04
  2.3905857e-04
 -3.2778480e-05
 -5.0641316e-05
 -1.3637188e-04
  1.1682953e-04
  5.5760046e-04
 -7.8237281e-06
  3.0540814e-05
  4.2408006e-05
 -9.7345175e-05
  5.0828792e-04
 -3.7467369e-04
  1.6410933e-05
 -7.3609495e-05
  3.1546183e-04
  1.4537777e-04
 -9.4953080e-04
 -1.5939472e-04
 -8.8749410e-05
 -1.0942738e-04
  2.6125457e-05
 -2.1865544e-06
 -4.9094484e-05
  4.7928312e-05
  2.1246674e-04
  2.3258597e-04
 -1.9460669e-04
 -5.2559262e-05
 -5.0208316e-04
  1.0784832e-04
 -2.6543092e-04
 -2.9553540e-04
  1.9124296e-04
 -1.2356108e-04
  6.1943923e-05
  2.0421635e-04
 -1.5380765e-04
 -3.0184459e-04
  4.2917262e-04
 -1.5068823e-04
 -5.4120523e-04
  1.1446582e-04
  1.2118051e-04
  8.3168707e-05
 -1.2622582e-04
  3.0787001e-04
  2.5320114e-05
  8.8990113e-05
  9.9716053e-06
 -5.1271076e-05
 -2.0463389e-04
  1.1016509e-04
  1.0590072e-03
 -2.3365015e-04
  2.4201635e-04
  7.8268145e-05
  1.9431584e+00
  1.0059130e+00
 -2.3312417e-04
 -1.2551702e+00
  9.9617547e-01
  2.7275997e-01
 -1.0006481e-01
 -3.1441411e-01
  1.0831059e+00
 -5.0904590e-01
 -5.9998430e-02
  5.5643106e-01
 -7.8979343e-02
  7.5468799e-04
 -2.8501305e-01
 -2.0412602e-02
  4.1999406e-01
  6.8176106e-02
 -9.2064679e-02
 -6.9796450e-02
 -3.6317155e-01
  6.5940505e-01
 -3.3361237e-02
 -7.4704999e-01
 -1.9167237e-03
 -5.6556594e-01
 -2.9314709e-01
  2.2048770e-02
 -3.2786945e-01
  6.8836105e-03
  2.1571363e-04
 -3.0340953e-04
 -2.3671548e-04
 -1.3567865e-04
 -4.5503932e-04
  8.5855747e-05
  2.3051500e-05
 -7.2624483e-05
  1.1177489e-04
 -1.6759541e-04
  7.2023668e-06
 -1.0830437e-04
  5.1214191e-04
  3.0040293e-04
 -1.4376504e-04
  5.9062197e-05
  2.9026742e-05
  2.6499169e-04
 -1.8824743e-04
 -5.9516096e-05
  7.0974173e-05
 -2.1701596e-04
 -2.4518243e-04
  1.8918443e-04
 -7.1560775e-05
 -1.5851491e-04
 -2.0712455e-04
 -1.1807589e-04
  2.0833436e-04
  3.7083949e-04
 -2.3838066e-04
 -5.8055779e-05
 -2.0007582e-04
 -1.0317344e-04
 -9.0343773e-01
  2.3802243e-04
 -2.8863922e-04
 -3.8570730e-04
 -2.6742226e-05
  9.5546689e-05
 -1.7804350e-05
 -7.2980474e-05
 -2.1219133e-04
  1.0328364e-04
  3.7731620e-04
  2.2747469e-01
 -9.7751664e-04
 -1.8638911e-04
  5.4558830e-05
  4.7438203e-05
  8.6138862e-06
  1.8817409e-05
  1.2524017e-03
 -1.7792018e-04
  3.3566661e-04
  7.2708463e-05
 -4.7012503e-04
  1.2896047e-04
 -3.5321766e-05
  2.4967414e-04
  1.3709867e+00
  2.3247023e+00
 -1.2827489e-01
  1.0620695e+00
  2.7894485e+00
  1.4055407e+00
  7.3816895e-02
 -7.3431784e-01
 -7.0119202e-02
 -3.8245639e-01
 -1.6307941e-01
  2.7842492e-01
  2.5591227e-01
 -3.0717233e-01
 -1.5104691e+00
  9.1327228e-02
 -2.2884991e-04
 -3.6455277e-02
 -1.1715060e+00
 -2.8389952e+00
  1.6074682e+00
  2.9643482e-01
  2.0761915e-01
 -8.7394905e-01
 -4.1288749e-04
 -1.0210040e-01
 -1.0571061e-01
  3.0037633e-04
 -1.0490963e-02
 -1.4636749e-01
  2.5085997e-04
 -2.3473558e-04
  1.9584426e-05
 -7.3591451e-05
 -3.1736551e-04
  5.5532710e-04
 -6.0780294e-05
 -6.5999007e-04
  2.5429024e-04
 -1.9911646e-04
  9.5626136e-05
 -3.3923652e-04
  1.0007039e-05
  3.2922233e-04
 -5.7797151e-05
  8.6449290e-07
  1.7520008e-03
 -6.2916829e-04
  1.6007460e-04
 -1.7226937e-04
 -2.1622604e-04
 -9.5948417e-06
 -8.3319732e-04
  1.8236268e-04
  4.1663111e-04
  4.0364562e-04
 -7.0547540e-04
  4.6738522e-05
  7.0433551e-04
 -7.0054538e-04
 -4.6855403e-04
 -4.3224593e-04
 -1.1666124e-04
  2.6913296e-04
 -4.4454678e-04
 -4.5825487e-05
 -1.4381317e-04
 -5.9936341e-04
 -2.8978608e-04
 -4.5469889e-05
 -1.5442968e-04
  6.0132654e-05
 -7.5631286e-04
 -1.6159686e-04
  2.4265336e-04
  2.9493682e-04
 -3.2015427e-04
  1.0322415e-04
  3.9319064e-05
  1.6070135e-04
 -2.6129783e-07
  4.4561160e-04
  1.5941396e-04
 -2.5036954e-04
  5.0833944e-04
 -4.6271132e-05
  8.2546365e-05
  1.7309553e-04
 -3.1676446e-04
 -4.4780478e-05
  3.0517153e-04
 -6.8899966e-04
 -3.3217639e-04
 -5.4270838e-04
 -2.6250118e-04
  5.3262669e-05
  3.1683670e-05
  8.2332001e-05
 -4.4311491e-05
 -1.4071292e-04
  8.1570077e-05
  2.3311717e-05
 -1.6402266e-05
 -3.4153913e-04
 -5.4845220e-04
 -4.2517881e-05
 -1.0333961e-04
 -1.9687559e-05
  2.5043271e-05
 -2.8908016e-07
 -9.6912328e-05
 -3.1016348e-04
 -5.9853395e-04
  5.0452515e-04
 -3.4396324e-04
  5.2473706e-04
  1.1810065e-04
  1.4537493e-04
 -1.6111633e-05
  1.3401255e-04
 -3.2707586e-04
 -2.5578777e-04
  2.2730361e-04
 -5.3169968e-04
 -5.8161389e-05
 -5.5747496e-05
 -7.0566684e-04
  2.2619241e-04
 -3.7102353e-05
 -1.2563690e-05
  2.7562754e-04
 -4.3148662e-05
  1.9210087e-04
 -5.2513566e-04
  3.2034342e-04
 -3.3956298e-04
  5.0373001e-05
  6.7203910e-05
 -2.0756401e-04
  2.2331126e-04
  2.8528707e-04
  1.0046850e-04
 -1.5966743e-04
 -1.7554668e-04
 -1.3054202e-04
  1.7477258e-04
  1.5269253e-04
 -4.1180312e-05
  4.0042901e-04
  1.5277378e-04
 -8.7005945e-05
 -3.1235293e-04
 -7.3874115e-05
  3.1758365e-04
  1.4997667e-04
 -1.9968575e-06
  2.5524624e-04
  1.2456474e-04
  2.3055400e-06
 -4.0215271e-04
 -4.3284290e-05
  2.3196360e-05
  5.6116805e-06
 -7.4064417e-05
  3.6803089e-05
  1.1281524e-04
 -1.2457749e-06
 -8.5428276e-04
 -2.9351721e-05
  2.3494041e-04
 -4.2380532e-05
 -4.5409961e-05
 -2.1491411e-05
  7.7196950e-05
 -2.3559663e-04
 -2.8893808e-04
 -1.7738948e-05
  6.1588835e-05
  6.8435838e-07
  8.1238446e-05
 -1.3511757e-02
  2.6423401e-01
 -1.9937480e-02
  3.9722651e-01
 -6.0342956e-01
 -2.5583369e-01
  3.2324955e-04
  2.2330850e-01
 -4.4771558e-01
 -1.0242859e+00
 -3.3049071e-01
 -6.9828188e-01
  3.1565991e-01
 -1.4338875e-03
  1.0118543e-01
 -1.3744019e+00
 -7.4217433e-01
  6.6318625e-01
  1.0078630e+00
 -1.5791802e-02
 -4.6658361e-01
  5.2831834e-04
  6.0408992e-01
 -1.8261892e-01
  1.4891571e+00
 -2.0253781e-04
  6.2649481e-02
  3.2091346e-05
  7.5365596e-02
  6.2115032e-06
 -1.7676696e+00
 -1.5185295e+00
  8.5507846e-01
 -3.5606630e-04
 -7.2528398e-01
 -1.2033131e+00
 -1.8783548e+00
  4.4477522e-01
 -1.2337685e+00
  1.4782147e+00
  3.5913833e-04
  1.8593288e-04
 -3.2979876e-01
  5.5358005e-01
  1.2320613e+00
  5.0994996e-02
 -1.1117344e-01
 -5.4934108e-01
  2.5539979e-01
  1.1103467e+00
 -2.4808209e-01
  2.2265550e-02
 -2.7730826e-05
  6.0950005e-01
  2.1257496e-01
 -5.5061711e-05
 -2.5850538e-02
  2.3969917e-01
 -2.9042712e-01
  1.8559097e+00
 -9.8322845e-01
  1.0148693e-02
  1.8294710e-01
 -5.2424353e-02
 -7.7431798e-01
 -5.1562381e-01
  1.2861328e-01
  2.0451571e-01
 -1.3143870e-01
 -1.4955542e-05
  3.3145207e-01
  1.6462666e-01
  6.3570097e-02
 -1.7561178e-01
  2.1922089e-01
  9.0725565e-01
 -1.4286239e-01
  1.8106776e-03
 -1.8522117e-01
 -1.4034534e-01
  4.3698284e-04
  1.7167514e-04
  2.6485869e-03
 -1.6174592e-01
  2.3181392e-03
 -1.1901180e-03
  9.1334397e-05
 -5.3172335e-02
 -9.1338247e-02
  1.5474968e-02
  5.3113792e-05
  5.9897786e-01
  8.3147362e-03
  5.9524918e-04
  2.2611408e+00
  8.6622708e-02
 -5.3229640e-05
 -1.9548278e-01
  6.6631895e-01
  3.1201763e-04
 -8.5003912e-01
 -1.8784248e-04
  6.4292014e-01
 -8.0705358e-06
  1.5589267e-06
 -4.5823492e-02
 -2.0085118e-04
  1.3911234e-04
  2.0906763e+00
  3.2357188e-05
  6.0468738e-04
  9.8059809e-01
  1.4746436e-04
  2.2953999e-04
 -1.9680173e-04
  2.5806131e-04
  1.4740680e-04
  9.5676921e-02
 -1.0972800e+00
 -7.4192934e-02
 -3.5931531e-05
  1.4676001e+00
  1.4446989e+00
 -7.2394061e-05
 -1.3797332e+00
 -7.4210960e-01
 -1.0878367e-03
 -2.8460830e-01
 -7.1369684e-01
  1.1400387e-04
  1.1025527e+00
 -6.0006827e-01
 -1.2289335e+00
 -1.0527752e-04
  8.5745320e-02
 -1.4420450e+00
 -1.5198666e-02
  3.1553465e-04
  2.1529915e+00
  1.0381598e-04
 -3.6235529e-01
 -6.4766622e-01
  1.4450103e-01
  3.7050192e-04
  1.4652619e-01
  6.3732157e-05
 -1.7077404e-04
 -1.0290700e+00
 -9.0156811e-01
 -8.5517037e-01
  6.1779196e-05
  1.4492162e-04
  2.1769080e-01
  8.8705763e-04
 -8.7244931e-04
  4.5852285e-04
  7.5655520e-01
  1.4422269e-04
 -2.3021410e-01
 -5.9450820e-05
 -4.1829535e-01
  3.3189610e-01
  1.0118054e+00
 -1.7042503e-02
  5.3569174e-04
 -1.8470027e-01
  1.7105486e+00
 -8.9156240e-01
 -6.2556553e-04
 -4.4799046e-05
  2.1121544e-03
 -1.6338577e-02
 -1.0005986e-04
 -1.5461337e-04
  1.7513693e-04
  3.7465250e-04
 -1.3040516e-03
 -3.4829593e-04
 -2.0366180e-04
  3.6146568e-05
  1.4639999e+00
  1.2134757e+00
  2.1912907e-01
  1.0922260e+00
  2.9281354e-01
 -7.6356447e-01
  1.4778553e+00
 -9.1913668e-04
  1.3832828e+00
  1.0749485e+00
 -3.9194146e-04
  1.1545448e+00
 -2.2048001e-01
  6.6758492e-03
  8.9944759e-03
 -6.8022960e-01
 -1.5255806e-01
  1.0363180e-01
 -6.4527124e-02
  1.6307977e-01
  5.0346684e-01
  3.7666616e-01
  5.4323691e-01
 -1.4977309e-01
 -9.4395787e-01
  5.0772965e-02
 -6.8272245e-01
  3.2406871e-05
 -3.7717036e-04
  4.0961927e-04
 -1.3887834e-04
 -2.2940150e-05
  4.6667128e-04
  8.7197300e-04
  3.0387312e-01
 -1.9410672e-02
 -1.6742507e-02
 -4.5208924e-04
 -8.1957251e-02
  4.3332679e-04
 -2.9594600e-04
 -1.0460445e+00
  1.4362982e-04
  1.6834350e-02
  2.2168495e-04
 -7.9631105e-02
  1.0430593e+00
 -1.6158120e-03
 -4.0686151e-05
 -4.8166240e-04
  3.5995720e-03
  1.8760817e-04
 -2.5828255e-02
 -4.5411654e-02
 -2.4255729e-04
 -1.9024948e-05
  1.3232043e-01
  2.4981145e-04
  4.4852227e-04
  1.8413401e-03
  2.2859046e+00
 -5.1206653e-03
  6.6849363e-01
 -1.1012340e+00
  9.7123301e-01
 -1.8006053e+00
  9.3922412e-01
 -5.5339241e-01
 -8.1186707e-05
 -7.9713792e-01
 -2.7378187e-01
  4.9948368e-02
  8.5708946e-02
 -1.9807857e+00
 -3.5023940e-04
 -7.0903999e-01
  4.7099727e-01
 -9.1949284e-01
  6.4820677e-01
  3.0192876e-01
  1.5598459e-03
 -5.3567165e-01
  9.6394829e-02
  1.8177722e-01
 -2.4184065e-03
  4.2930465e-02
  1.6452703e-01
 -2.4826964e-04
  1.7344379e-01
 -2.8742310e-01
 -1.2182084e+00
 -6.2535512e-03
 -2.2368044e-05
 -8.0085695e-03
 -9.1051191e-01
  3.4932366e-01
 -3.1747207e-01
  8.2693905e-01
  6.8926710e-01
  1.6050547e-01
  5.9166417e-04
  1.2871056e+00
  6.2232431e-02
  1.2573437e-04
  3.1195009e-01
  7.1452755e-01
 -6.9856226e-01
  2.1001382e-01
  3.5108227e-01
 -2.2471177e-05
 -1.2142953e-02
 -3.4339511e-01
 -1.4698130e+00
  5.4678915e-04
  1.3906998e-04
 -7.6512218e-04
 -1.1313567e-01
  4.6947596e-04
  4.1421724e-04
 -1.7694175e-02
 -5.2398514e-02
  2.3820555e+00
 -5.3238928e-01
 -4.0948396e-03
 -3.3898303e-01
  2.9412410e-01
 -1.6604983e+00
  1.1055834e-05
  8.8943529e-01
 -1.8192333e-04
  4.6300185e-01
 -1.4091267e-01
 -3.9723086e-01
  7.4465489e-01
 -5.7597954e-02
  4.5925462e-06
  1.0821420e+00
 -7.5198554e-02
  7.9126829e-01
 -5.9525542e-02
  1.0395401e-05
  1.0953406e+00
  9.6944685e-05
  3.7491876e-01
  3.6541009e-04
  3.3866352e-05
 -4.9410442e-01
  6.2178100e-05
  1.1671349e-05
  4.0865394e-05
  1.5442350e+00
 -1.9032097e+00
 -3.5104585e-01
  2.7098575e+00
  2.1615228e-02
  3.8248378e-01
  1.4954212e+00
  7.6824450e-01
  9.2330271e-01
  8.0300868e-02
  8.4588021e-02
  1.1080202e+00
  7.9774296e-01
  3.3802196e-01
  8.0023670e-01
 -6.0920911e-03
 -1.0035703e-01
  8.8181835e-01
 -7.4103363e-02
  1.3445866e-01
  2.2564845e-01
  9.1723669e-01
  8.5109669e-01
  6.8491012e-02
  9.6990108e-01
  5.0178298e-04
 -2.0188147e-01
 -2.0399605e-01
 -7.3755141e-03
  5.6962979e-01
  9.6732634e-05
  2.0515923e-04
 -6.4370724e-05
 -1.2374907e-04
  6.6357179e-06
  6.9259222e-05
 -2.9745734e-05
 -2.2086468e-04
 -1.9225222e-04
 -2.4371860e-05
  3.8643606e-04
 -2.6177272e-04
 -3.1370291e-04
  5.1430083e-04
  2.3309601e-04
 -3.0094780e-05
  7.7691118e-05
  2.6757829e-04
 -1.9788952e-04
 -1.4148367e-04
 -7.5485121e-04
  1.8277511e-05
  4.1581999e-04
 -2.2601795e-05
  5.8610629e-05
  3.1268206e-05
  6.6103668e-05
 -1.4962965e-04
  2.7583598e-04
  4.5688936e-04
 -8.8926500e-01
  6.5116322e-01
  3.9916945e-01
  4.0231324e-03
 -3.3364233e-01
 -8.6826438e-01
  7.1523792e-01
  4.1608664e-01
  2.0371244e+00
 -4.0740642e-01
  3.5444409e-01
  1.3523260e+00
  1.9356979e+00
  5.3880483e-01
  2.6723677e-02
  1.1699973e+00
 -1.5743272e-01
  1.0484648e+00
  2.0739920e-02
  4.6149793e-01
  8.9426166e-01
 -5.4890865e-01
 -1.6531169e-02
 -6.2760037e-01
  8.7987095e-01
  4.2183480e-01
  4.9418005e-01
 -9.4120517e-02
 -4.1584254e-04
  1.0901792e+00
 -4.0762294e-03
  9.1819763e-02
 -1.0743162e-02
  4.1242693e-02
  9.2939497e-04
  7.5920206e-04
  1.7044322e+00
  3.4567428e-01
 -1.2517037e+00
 -3.1429363e-04
  1.3408891e-04
  1.3784910e+00
  3.6391810e-01
 -2.2085328e-01
 -2.5101132e-03
  4.4704357e-06
  1.7266878e+00
 -2.9149440e-01
 -2.2860622e-01
 -7.0186467e-03
 -8.3210085e-05
  1.5089998e+00
  1.4558206e-02
  1.1287219e-04
 -1.7169575e-01
  5.7715457e-05
 -1.2201232e+00
 -2.5189965e-04
 -4.1801840e-04
  2.2200653e-02
  1.4449221e+00
 -1.0679076e+00
 -5.5865693e-01
  2.4600809e-03
  7.0515078e-01
  6.4673029e-02
 -1.0912145e+00
 -6.9671381e-01
  2.1125782e+00
  1.7455560e+00
  3.5380335e-03
 -2.3131778e+00
  6.6424876e-02
  3.4572329e-02
  1.2096980e+00
  5.9424173e-02
 -1.0701666e+00
  2.5860232e-03
  1.4547141e+00
  4.2883074e-01
 -5.8243889e-01
  1.6797310e-01
  1.3717324e-01
  7.0498377e-01
  6.7306775e-01
  2.9045157e-04
  2.4595916e+00
 -2.3224526e-03
  6.5002084e-02
  1.5759593e-01
  1.7618694e+00
 -2.8688641e+00
  1.3771305e+00
 -4.1834673e-01
  1.6367393e+00
 -9.5127791e-01
 -1.1544026e+00
 -6.5620828e-01
 -1.3608855e+00
  3.4787631e+00
 -1.2545876e-01
 -8.5373408e-01
 -1.1928955e+00
 -2.8898832e-01
 -5.3116536e-01
 -1.5638407e-01
 -8.1559201e-04
  1.6812276e-02
 -4.5681316e-02
  1.2612758e+00
 -7.6665616e-01
  3.9422846e-01
 -2.0020375e-01
 -8.9175051e-01
 -1.5223383e-03
  4.6859242e-04
  1.2093166e+00
 -2.4318355e-01
  7.7431607e-01
 -1.5614367e+00
  1.0426543e-04
  1.2712581e+00
  4.0432814e-01
 -5.4760194e-01
 -1.9510666e-01
  4.0661240e-01
 -4.3775040e-01
  1.2608976e+00
  5.5229616e-01
 -3.5428444e-01
  9.7866571e-03
  1.3212297e+00
  2.2145003e-01
  3.1189999e-01
  2.3494083e-01
 -3.2579429e-02
  1.1791757e+00
  5.4253440e-02
  2.8163092e-02
  3.6934236e-01
  3.3188677e-01
  8.8772410e-01
 -3.2791096e-01
 -2.7895506e-02
 -2.8922158e-01
 -2.7349091e-03
  1.2097372e+00
 -7.3191118e-01
 -9.6115142e-02
  1.4490851e-03
 -8.2151508e-01
 -2.9718079e-02
 -1.1774653e+00
 -9.4088405e-01
  1.0375630e-01
  1.8406026e-01
 -2.1402781e+00
  2.6655960e-01
  6.2890954e-02
 -2.0096309e+00
 -2.2840831e+00
  5.5517417e-01
 -3.9517322e-01
 -3.7894869e-01
 -1.3482487e+00
 -6.3345402e-01
 -1.7342511e-04
  6.5684003e-01
  1.0938618e+00
 -1.0912459e+00
  5.6868210e-02
 -1.1109915e+00
 -3.1806460e-01
  7.6241326e-01
  4.6702325e-02
  1.7719578e-02
 -5.7660718e-02
  4.1357547e-01
 -3.0262602e-02
  6.0517913e-01
 -1.5879994e-04
 -3.5657448e-04
 -1.7170991e-05
 -1.0331029e-04
  3.3570552e-04
  2.2100387e-04
 -1.2606625e-04
  4.7489768e-05
  8.7965935e-05
  2.5848809e-04
  5.5423421e-05
 -1.4442165e-04
  1.8637575e-04
  1.1984297e-05
  1.6962513e-05
  2.2739464e-01
 -2.6899099e-04
  2.9688911e-04
 -2.4535775e-04
  3.8364445e-04
  3.3964912e-05
 -1.6366571e-04
 -1.8679412e-04
 -3.0762947e-04
 -2.4216570e-04
 -9.5131436e-06
 -4.6064320e-04
  3.2953214e-04
 -1.6428632e-05
 -3.2528958e-04
  1.0959250e-04
  1.6869612e-04
 -6.6578948e-05
 -6.7653536e-04
  1.5644095e-04
 -2.2576159e-04
 -1.1292440e-04
 -2.7171758e-04
 -2.8358790e-04
 -1.3400610e-04
 -8.1675447e-05
 -6.0855080e-05
 -3.3261554e-04
 -2.8727605e-04
 -1.6481518e-04
  3.3998531e-06
 -1.4776786e-04
 -8.3693121e-05
 -3.2677348e-05
  4.2095890e-05
 -1.5069715e-04
  3.2438803e-04
  6.3019848e-05
 -8.8765497e-05
  2.1252339e-04
  3.4445431e-05
  6.6290604e-04
 -3.9689050e-05
  2.4010151e-04
 -2.0217205e-05
  8.4361580e-04
  1.2507387e-04
 -1.1997473e-02
 -1.5827364e-04
 -2.4617443e-04
  7.9638063e-05
 -1.0317819e+00
 -1.6211866e-01
  6.3748583e-02
 -5.8673751e-05
  1.5261141e-05
 -1.8132629e-01
 -4.4432651e-05
  1.9633278e-04
  4.8130169e-04
  7.7738776e-05
 -6.7728138e-01
  6.7829727e-03
  3.5300947e-04
  4.1269355e-05
 -4.6185995e-04
 -1.4105506e-01
  3.9105868e-04
  1.5307870e-04
  2.9623028e-04
 -7.9485995e-05
 -1.6761956e+00
 -1.1240452e-05
  3.2393535e-04
 -2.7709303e-04
  1.4360991e+00
 -4.0637087e-03
  1.1726688e+00
 -2.2235239e+00
 -2.1250114e+00
 -1.4058856e+00
  4.2546463e-01
  9.6626747e-03
  9.2571624e-02
 -4.2485330e-01
  2.6045236e-01
  4.1034427e-01
 -1.1885466e-04
  2.9001200e-01
  5.1772451e-01
  2.3747481e-01
  1.3539574e+00
  3.1789083e-02
  3.8250044e-01
  2.3932223e+00
  1.2363063e-01
  1.9744637e+00
  2.8779501e-01
  1.9609287e-01
  6.7936468e-01
 -6.6784312e-05
 -1.4538045e+00
 -8.3767200e-01
 -1.0810289e-04
  2.0322217e-01
  5.0772202e-01
 -5.9756851e-01
  1.8969910e-01
 -1.4061809e+00
  1.8370365e+00
  1.3797024e+00
  3.1994703e-01
  1.6078091e-01
 -1.7029712e-01
 -1.8802400e+00
  4.9030426e-01
  2.0096216e+00
 -1.4761666e+00
  1.4863626e+00
 -7.4262065e-01
  4.3825382e-01
  7.8765742e-02
  1.1488415e-01
 -6.4621615e-01
 -3.4744215e-01
  9.4111687e-01
  7.4499106e-01
  1.8748776e+00
 -8.5590608e-02
 -1.3321078e-01
 -4.8091159e-05
  5.4965084e-03
  2.0856614e-04
 -5.6986076e-01
  2.5831841e-04
  1.6918558e+00
 -8.4167480e-01
 -6.2175345e-01
  5.9248459e-01
  1.3864146e+00
  7.1026415e-01
  3.9593378e-01
 -6.5308601e-01
 -6.0383552e-01
  2.3202212e-01
 -3.5287035e-01
  1.0224527e+00
 -6.1892986e-01
  6.2143117e-01
 -8.5659188e-01
 -1.3143442e+00
  1.7511613e+00
  1.0444822e+00
 -1.5310258e-01
 -3.0493271e+00
 -1.7336800e+00
  1.8431257e-01
 -6.7862503e-02
  3.5905153e-02
  6.6888206e-02
  8.1405050e-01
 -8.2418698e-01
  1.2688119e+00
  4.6806625e-01
 -3.6289611e-01
  3.3960473e-03
 -6.9016725e-04
 -4.9394248e-03
 -1.5615676e-01
 -2.3190242e-03
 -6.7969930e-04
  2.7040070e-01
 -1.7237636e-01
  1.6790825e-01
 -1.9211566e-05
  5.4292228e-05
 -9.6294916e-01
  3.9970598e-04
  1.4278949e-04
  2.8120418e-04
  3.0281080e-05
 -2.6922088e+00
  1.3778675e-03
  4.9986220e-03
  2.3218074e-04
 -3.8404073e-04
 -7.1648735e-01
 -9.9219891e-05
 -8.1666694e-05
  6.9166042e-02
  3.5974086e-04
 -7.1488428e-01
  3.9175196e-05
  2.9941712e-04
 -7.9035445e-04
 -3.7654165e-05
 -3.2958061e-01
 -6.4619941e-01
  1.3756899e+00
 -1.5109329e+00
  8.1406870e-05
 -3.1517631e-01
 -7.0038525e-04
  2.8433180e-01
 -6.0708070e-04
 -1.7331191e-03
  3.4541611e-04
 -1.4988471e-04
 -6.5816224e-02
  1.0150753e+00
  1.0075094e-01
 -4.7755480e-04
 -1.3356363e-02
 -5.9712235e-02
 -1.1797737e+00
 -1.8975331e-02
 -2.6103371e-04
 -4.8271053e-02
  2.3445477e-04
 -4.4872482e-05
  1.3089778e-04
  3.8879135e-04
 -2.8415944e-04
  4.5518231e-05
 -2.6338890e-01
 -1.0316167e-04
  4.7722153e-04
 -3.2423235e-05
 -4.9689296e-04
 -3.4678733e-04
 -1.3677376e-04
  2.6012442e-04
 -1.9773885e-05
  5.1209550e-05
 -5.2095356e-04
 -7.0566166e-05
 -1.9693238e-04
  4.7807149e-05
  1.1383931e-04
 -1.6077736e-04
 -1.4521278e-04
  4.2217504e-04
 -8.0187747e-06
  2.4899701e-04
  3.0717292e-04
  4.6768779e-04
 -6.3066007e-05
 -8.5602725e-05
  2.5601001e-05
  6.3197332e-04
  7.5586322e-05
 -1.4293093e-05
  2.1445630e-04
  6.1916653e-06
  2.5953585e-04
 -2.0586558e-01
 -4.6797274e-03
  2.3360053e-01
  1.3043202e-03
  1.3528650e+00
 -3.6088437e-01
  1.7299084e-02
 -6.0881996e-01
 -6.4255172e-01
  5.5279833e-04
 -8.8563947e-06
  8.9819455e-01
 -1.9371986e-01
 -1.4712213e-04
 -3.7897464e-02
 -6.3810535e-02
  7.6021022e-01
  3.5522053e-01
  3.1116822e-01
 -2.2992556e+00
 -2.6601739e-02
  4.0482911e-01
 -4.5096327e-05
 -1.5553769e-04
 -1.8893052e+00
 -7.7444667e-05
 -1.2794863e-01
  4.8382003e-02
 -3.4509648e-02
 -6.5150023e-05
  8.4385458e-05
  4.1277043e-04
 -2.8762297e-05
 -3.3045566e-05
 -4.2825493e-05
 -3.3921890e-05
 -5.5206713e-04
 -2.0213205e-04
  3.6676659e-04
 -1.7908220e-04
 -2.0114807e-04
 -1.6028389e-01
 -1.5322835e-04
 -2.3682183e-03
  3.4812040e-04
  7.4910477e-02
 -7.3370742e-05
 -1.1568546e-04
  5.5843939e-05
 -5.4929529e-05
  4.3911336e-05
  1.8261786e-04
  1.2943250e-04
 -4.7549467e-05
 -3.1926407e-04
 -2.8975320e-04
 -1.7017820e-04
 -1.9993473e-04
  1.9204912e-05
 -8.0933730e-04
  2.1835601e-01
  1.8278297e-04
 -1.2201128e-01
 -4.8421312e-02
  1.0374215e-04
 -6.2065786e-01
  9.6322343e-02
 -7.4942857e-03
 -2.4095125e-01
  1.9917170e-04
 -1.0852566e-01
  1.0547073e+00
  2.2564569e-04
  7.8355026e-01
  1.7407325e-05
  1.3251652e-02
  2.0759087e-02
  2.4908687e-01
  7.0434920e-02
  5.8825409e-01
  6.2218285e-04
  2.2636299e-01
 -5.8346802e-01
 -3.8104787e-01
 -3.0288563e-04
 -3.2789246e-04
  9.0266042e-04
 -2.7197829e-01
  8.5983856e-04
  1.2989791e-01
 -5.2800126e+00
  2.7003713e+00
  2.1580241e+00
  1.2040130e+00
 -4.1795278e+00
  5.9836251e-01
  9.1714533e-03
  2.0009117e+00
 -5.0979924e-01
 -4.4966567e-01
  3.0742403e-02
  2.7459056e+00
  1.3252728e+00
  4.3118093e-02
  3.1529911e-02
  4.5781107e-05
  1.0582631e-01
  2.0514574e+00
  1.4497336e+00
 -6.4385861e-01
  7.2889507e-01
  6.6549480e-01
  1.3615577e-01
  3.9896643e-01
 -2.8997341e-01
 -2.0715940e-01
  3.4256780e-01
  5.9185255e-01
 -1.0971339e+00
  1.1800358e+00
  2.4146972e+00
 -4.1846948e-04
 -7.6055908e-01
  6.8104931e-04
  2.3516045e-04
 -8.0877107e-01
 -6.3576603e-01
  4.1156191e-01
 -6.2691545e-01
 -6.8525136e-05
 -9.8597920e-01
  4.8078749e-01
 -6.6991204e-05
  7.8333952e-03
 -1.0333310e-01
  7.6587567e-05
 -3.3161473e-02
  9.4712663e-01
 -4.6694851e-01
  3.7709486e-02
 -8.4265615e-05
  4.5471556e-02
 -5.1270165e-02
 -1.8975438e-01
 -1.0380583e-03
  9.9663390e-04
  2.5717411e-04
  1.8620478e-04
  1.1656275e-04
  1.5436321e-02
  7.9087353e-01
 -3.5838354e-01
 -7.5255734e-01
 -3.2632607e-01
  1.9462889e+00
  1.3191792e-01
  2.1211119e+00
 -3.8536307e-01
  1.1433580e+00
 -8.5927629e-01
  1.4178097e+00
 -1.9015652e-01
 -1.3363457e-01
 -2.6032217e+00
  4.2135376e-01
 -3.3180978e-02
  3.2181360e-04
 -2.6965240e-01
 -5.6990421e-01
 -3.6708043e+00
  1.5906906e-01
  9.5940310e-01
 -6.6196030e-01
 -5.0215888e-01
  6.4306307e-01
 -3.2929704e-01
  1.0514569e-01
  3.2786497e-01
  8.8825643e-01
  3.5737994e-01
 -2.4005199e-04
  1.4967116e-04
 -2.9334147e-04
 -3.5664369e-04
 -1.2562721e-04
  2.5358018e-05
  8.8857087e-05
  2.0370647e-04
 -2.1646617e-04
 -2.0702007e-04
 -5.6204991e-04
 -4.6622328e-04
 -1.3978140e-05
  2.8218966e-04
  3.4148412e-04
  2.5907898e-04
 -7.7755452e-05
 -9.5083546e-05
 -6.0213279e-05
 -9.8627745e-05
  1.0096247e-04
  1.9926281e-04
 -5.5238874e-05
  3.8536473e-05
 -9.5112038e-05
  5.0406012e-04
 -6.1649596e-04
  5.2261203e-05
 -7.7536469e-04
  2.9060774e-04
  6.5831095e-01
  3.8918394e-01
  5.7219360e-05
  5.4019023e-02
 -1.1662811e-01
 -9.8879868e-01
  2.1339600e+00
  9.7809163e-05
  7.1898091e-01
  2.2623086e+00
 -8.9284278e-02
  1.0221116e-01
  1.6640929e+00
  6.2183022e-01
 -4.9980830e-05
  3.9141618e-05
 -2.1044166e+00
  5.9735245e-01
 -8.3535802e-01
  7.7939093e-02
 -2.0171778e+00
  1.0541575e+00
 -4.4166419e-04
  6.9063365e-01
 -3.6751651e-04
 -2.3650318e-01
  1.2513797e+00
 -2.5121352e-01
 -1.6164364e+00
 -3.0237125e-04
  7.8840303e-01
  1.0153517e+00
  6.2987077e-01
  1.3064315e+00
 -8.7103593e-01
 -2.2314606e+00
  1.6286964e+00
 -4.4046443e-05
  1.3306527e+00
  1.9040176e+00
 -2.4526820e+00
  2.4050994e+00
  2.2533650e+00
 -1.7475458e+00
 -1.1090949e-03
 -5.3774107e-05
 -1.5992484e+00
  1.1056130e+00
  1.3151275e+00
  1.5992340e+00
 -1.3171815e+00
 -6.3539022e-01
  4.1235212e-04
  1.9943889e+00
 -2.1726145e-01
  7.2903562e-01
  1.6773716e+00
  6.9610739e-01
  1.8886299e+00
  3.1252997e-04
 -1.5599509e+00
 -1.0025617e-05
  3.4183403e-04
  2.9462051e-01
  7.5566567e-02
  2.0931327e+00
 -2.8969260e-04
 -2.6512855e-01
 -1.0579221e+00
  9.4968992e-01
 -1.2807768e-04
  2.1575109e-04
  4.8184226e-04
  8.1234635e-04
  4.6090165e-01
 -1.7677389e-02
 -1.0690785e-01
 -1.4594138e+00
  3.6679149e-01
  1.2186253e-04
  5.0337090e-05
 -5.1499857e-04
 -2.1821935e+00
  2.5517568e-01
 -6.5939540e-01
  8.3268881e-01
  2.6606925e+00
  1.3475172e-01
 -4.9549376e-04
 -9.9008437e-05
  4.7674888e-01
  6.6111368e-01
  1.2240913e+00
 -6.8529433e-01
 -3.0450916e-01
 -9.6394426e-01
  2.4018531e+00
  4.3345103e-04
  3.8845901e-05
  5.2464407e-02
  2.1961407e-01
  6.4530289e-01
 -2.6763320e-01
 -4.1726273e-01
 -5.5818305e+00
  3.7548881e+00
 -1.9695745e-04
  1.2042724e-04
  2.8998461e-01
 -4.1366499e-02
  4.1501242e-01
 -1.3804939e+00
  1.7958989e+00
 -1.4864718e+00
  3.1626554e+00
 -3.5646479e-04
 -1.7872473e-04
  8.1874261e-04
  5.8544779e-01
  5.3605187e-01
 -8.8849312e-01
 -8.5371017e-02
 -9.7603090e-02
  1.3924621e+00
  1.3492402e-04
  1.5920005e-04
  3.1698552e-01
  6.1063066e-02
  2.5802057e+00
 -9.4418651e-01
 -7.9514372e-01
 -4.8696554e-01
 -1.3424374e+00
 -6.5466702e-05
  2.0370717e-04
  1.6744021e-02
 -1.9718136e-01
  9.2860088e-02
 -1.2117890e+00
 -1.3700403e+00
 -1.5607567e+00
 -1.3912005e+00
 -3.4591264e-01
 -1.4195393e-04
  9.9210382e-02
  1.0456963e-02
 -8.0097884e-02
  4.6899444e-01
  2.5637642e-01
 -3.2673268e+00
  2.0196972e-02
  6.2854119e-02
 -7.3718501e-04
 -1.5408434e-01
  6.7368023e-02
  7.1102083e-01
  8.2280421e-01
 -2.1552120e-01
  2.5569609e-01
 -3.0947927e-01
  1.8676385e-04
  1.4231984e-04
  1.3681526e-01
 -6.9056714e-01
  1.3496974e+00
 -2.3026373e-02
  1.0360342e-01
 -3.4585956e-02
 -7.5568467e-01
 -4.8436689e-01
  1.4992131e-04
  2.1790473e-01
 -6.5637255e-01
 -9.1582671e-02
  9.7022668e-02
 -1.3765004e-01
  4.6065435e-01
 -6.9289559e-01
  3.6237858e-02
 -4.6888469e-03
  2.2542801e-01
  1.7334446e-02
  1.6281672e+00
 -4.8348090e-01
  1.1172154e+00
 -1.7029762e-01
  2.2561226e+00
  3.5426627e-05
  4.4630589e-05
  3.3421221e-04
 -3.6545141e-05
  6.1056274e-04
  5.0086586e-04
  1.1197675e+00
  8.4955907e-01
 -3.6090803e-01
 -2.6791421e-04
 -5.1337378e-05
  1.3886232e-04
  3.8827151e-05
 -4.0884475e-05
  4.0533397e-01
 -1.1206322e+00
  2.7814733e-02
 -6.6755079e-02
  1.5293773e-04
 -2.3904169e-04
  1.2465315e+00
  1.5307872e-01
 -6.2568766e-01
 -5.0503796e-01
  2.2400830e+00
 -2.7650115e+00
 -1.4667037e+00
  1.9500759e-01
 -1.2768313e-03
  3.5525209e-01
  3.5976787e-05
  6.9883800e-01
 -3.7620485e-01
  3.0386755e+00
  1.0935111e+00
 -1.4677963e+00
 -4.5552924e-01
  2.1392612e-01
  1.3198314e+00
  2.8391249e-04
 -6.8860489e-04
  3.1038243e-01
 -1.4202212e+00
  8.3436531e-01
 -2.1083322e+00
  2.5340599e-01
 -1.7124227e-03
 -4.5887414e-01
  1.8451344e-03
  6.1504412e-01
  3.3703512e-01
  6.0240239e-01
 -1.3822288e-04
 -4.7817889e-01
  4.6349358e-04
 -2.4086477e-01
  1.3925657e+00
 -3.8731796e-05
  4.2096135e-01
 -2.2907171e-01
  4.5496148e-01
 -1.7327306e+00
 -1.2245268e+00
 -2.7769373e-03
  4.4877276e-01
  1.7514932e+00
 -8.1219419e-04
 -1.1512383e-04
  1.4445633e+00
  1.1940591e+00
  1.0214360e+00
  7.8626329e-01
  2.3776878e-01
  7.6255536e-01
 -1.5068796e-02
  1.4026630e-01
  6.6652799e-01
 -2.6731184e+00
  1.4004683e+00
  1.8980148e-01
 -5.9817117e-01
 -2.6481746e-05
 -3.6955005e-01
  1.6555827e+00
  3.0991784e-04
  1.4024653e+00
  1.2211213e+00
  3.0411538e-01
  5.9482634e-01
 -3.2050720e-01
 -2.3690499e-04
  6.8635786e-01
 -1.3171804e-01
 -1.6031712e-03
  2.0268726e-06
  1.0021733e+00
 -2.7125660e-01
  1.5829521e-01
 -3.7328741e-01
  5.1590902e-01
  6.2534936e-02
 -1.7518753e-02
  2.4339071e-01
  1.9101137e+00
  8.9198428e-01
  5.6493640e-01
  6.6497475e-01
  4.4948158e-01
 -2.7503828e-02
 -5.3010529e-01
 -2.4695652e-05
 -2.5158978e-01
 -1.6701725e-01
  1.3337705e+00
  5.0414050e-01
 -7.7101421e-01
  6.2323761e-01
 -2.4430151e-04
 -2.0742389e-04
  1.0586658e-04
 -1.9683133e-04
 -6.1405021e-06
  7.9908675e-01
 -4.3224126e-01
  1.3667837e-04
  5.5422175e-01
  7.0851493e-06
 -5.5346091e-04
 -5.2398078e-05
 -3.9382410e-04
 -1.4462958e-04
  9.3325049e-01
  8.0825853e-01
  8.9540243e-01
 -3.7609473e-01
 -2.1633381e-04
 -6.0179126e-01
 -1.6523931e-04
 -1.2779888e-04
 -1.7089234e-01
  1.4131913e+00
 -8.7767512e-01
 -3.3567518e-02
  4.7343306e-02
 -6.5310643e-04
 -7.5729215e-04
  4.0116027e-01
 -1.2819248e-01
 -1.3174600e-02
  2.4531953e-01
 -1.6211213e+00
 -7.6163512e-01
  2.9553238e-01
 -3.9258541e-04
  1.5228126e-05
  4.7598279e-01
  1.6112505e-04
 -3.8362512e-01
 -3.6684599e+00
  3.8709167e-02
 -3.7210219e-02
 -1.4710763e+00
 -2.4611480e-04
 -3.2119751e-01
  5.8000948e-04
 -4.8454016e-01
  2.4167269e-01
  2.4796198e-01
  3.2658226e-04
  1.3341981e+00
 -1.6594230e+00
 -9.6411572e-04
 -7.0212467e-05
  1.9050273e-01
 -2.1549690e-04
 -1.7158522e-01
 -2.4088018e+00
 -3.8561683e+00
 -2.8630972e-01
  6.6267663e-01
 -8.5098494e-04
  5.8140569e-05
 -9.3571973e-01
 -1.6367003e-01
 -2.5612864e-04
  3.0664104e-01
 -2.0111005e+00
 -3.0452354e+00
  6.3440967e-01
  3.4709788e-05
 -7.2405398e-01
  4.7042602e-01
 -1.0984808e+00
 -5.5915135e-01
 -1.2042844e-01
  6.7642272e-01
  7.4511081e-02
 -1.2225058e+00
 -1.5905298e-03
  6.4282358e-04
 -9.0213412e-05
  4.1602978e-01
 -1.2424179e+00
  1.4124165e+00
  5.9838879e-01
  5.5528909e-01
 -4.6521559e-01
 -2.9451645e-03
 -2.4009400e-04
 -1.7161295e+00
 -9.1881740e-01
 -1.3313506e-02
  1.6822453e+00
 -5.9630173e-01
  1.3336912e+00
  4.2788571e-01
  7.2712050e-04
 -1.7232983e-01
  2.5495613e-01
  1.7047460e-01
  1.4397816e-01
  6.0801858e-01
 -7.5331897e-01
 -8.1284350e-01
  6.3639170e-01
 -2.0197139e+00
  5.6431007e-01
  8.7009549e-01
  1.1795655e-04
  1.0073586e-04
  1.4991084e-01
 -5.8879721e-04
  2.2856342e-02
 -5.6825686e-01
 -2.3488986e-04
  4.4373050e-05
 -3.1010138e-02
 -2.5604377e-04
  1.2304485e-04
  1.8846127e-04
  1.5972868e-04
  5.0712490e-01
  8.8365916e-05
  3.3842365e-04
 -4.1688630e-01
  1.9039410e+00
 -6.9524656e-05
 -2.6916343e-05
 -6.8958014e-02
 -3.8447019e-02
 -2.2350866e-03
  6.4561665e-01
 -3.8022307e-01
  5.3769773e-01
 -3.4367484e-03
 -1.2809047e-04
 -7.7352262e-05
 -4.6513450e-01
 -3.9183788e-02
 -2.0723937e+00
  2.8246081e-01
 -5.6053269e-01
  1.0058846e-03
 -1.0367866e+00
 -9.6036278e-04
  6.3217871e-05
 -2.1619217e-04
 -9.4370896e-01
  4.0620235e-01
 -9.1500568e-01
  7.1984202e-01
 -6.9631213e-01
  2.7235558e+00
  1.2696750e-05
 -6.7977444e-04
 -1.8267063e-04
 -4.3819273e-01
  5.0863618e-01
  6.5643340e-02
 -3.5789492e+00
  1.0723314e-02
  3.4810271e+00
 -1.0652826e-04
  3.1163931e-01
 -2.7287567e-01
  3.3123174e-01
  1.3650092e+00
  2.9478499e-01
 -1.1086070e-03
  1.7952654e-04
  1.7154034e+00
 -1.4449869e-01
 -2.5641307e-02
 -1.7065769e-01
  1.7122501e+00
 -2.0569520e+00
 -2.4866145e+00
  3.4565824e-01
 -3.2833108e-01
  1.1297860e+00
  9.4941154e-04
 -7.8369854e-03
 -2.3609276e-01
 -7.5444505e-02
  6.4143014e-01
  1.5986289e+00
 -1.6258316e+00
 -4.2227823e-01
  1.0415096e+00
 -3.0251344e-05
  1.2383661e+00
 -5.8997202e-01
  7.4271810e-01
  1.2939459e+00
  1.7127566e+00
 -1.1607296e-01
 -8.8220410e-02
  1.8918651e+00
 -3.8204801e-01
 -3.0295372e-01
  3.4613474e-04
 -8.5555649e-01
  1.4401236e+00
 -1.3232663e-01
  6.7395252e-01
 -3.8889933e-01
 -1.7130014e+00
  3.6811727e-01
 -2.2504467e-01
 -1.0699748e+00
  3.6707240e-01
 -1.7388308e+00
  9.9069422e-01
  1.5241355e-01
 -1.3210101e+00
 -1.2976379e+00
 -1.9446245e-03
  7.4561608e-01
 -1.6571509e+00
 -1.3018366e+00
  8.5315377e-01
 -2.0595786e-01
  1.2328335e-01
  5.7230175e-01
  8.9964080e-01
  1.2169166e-04
  2.1103096e+00
 -8.6736178e-01
 -1.9382601e+00
  9.8082900e-01
 -8.6463481e-01
  1.7563945e-04
  4.2006050e-05
 -5.6412488e-01
  2.1548131e-04
  1.0776753e-01
  1.5436994e-01
 -5.5885278e-02
 -2.4384949e+00
  1.1436594e-01
 -3.4386024e-04
  1.4419917e-05
  1.7190436e-01
 -7.8003955e-05
  9.7198565e-05
  2.3225805e-01
  4.0273228e-01
  1.9881169e+00
  8.5991156e-01
  2.7235141e-02
  1.8450157e-01
  5.3941959e-01
  1.7538405e-04
  8.0157304e-01
  1.1589464e+00
 -4.7581928e-04
  2.8282994e-01
  1.8734418e+00
  6.2815764e-04
  2.4579049e-04
 -1.3694738e-01
  1.9283108e-04
  7.7251422e-01
  2.4677480e-02
 -2.6631911e+00
 -9.4433290e-01
  2.6917801e+00
 -3.7082919e-04
 -3.0667463e-01
  2.6763758e-01
 -7.3952913e-05
  8.3536652e-05
  6.2019616e-01
  8.4864728e-02
 -1.0658607e+00
 -5.9281874e-01
  4.0929219e-01
  6.3375950e-01
 -1.6584976e-01
 -2.9793702e-04
  4.4705743e-01
 -1.4659439e-02
  1.7581632e+00
  2.6649911e+00
 -4.6951559e-01
  7.0842165e-01
  3.5718021e-03
  5.9031779e-01
  1.3922060e-04
  5.5734658e-01
  8.4628880e-02
 -1.7827792e+00
 -2.8973002e+00
 -1.1713319e+00
 -1.6566764e-03
  1.7611004e-05
 -5.6359595e-01
  1.8036085e-04
  1.4436186e-03
  1.9359262e+00
 -2.1765931e+00
 -2.9929931e+00
  9.8694330e-01
  2.5073457e-01
 -4.9734297e-01
 -5.8146581e-02
 -3.4678722e-04
  9.0742260e-01
  3.9810395e-01
  5.8687124e-02
  6.6071510e-02
 -1.1226990e+00
  5.5189139e-01
  4.7500837e-01
  7.3345387e-01
  4.1034891e-05
  7.1846521e-01
  1.1630754e+00
 -6.3945048e-02
 -3.6012900e-01
 -8.8015288e-01
 -5.3256884e-02
 -3.1127223e-01
  2.1943775e-01
  9.8981149e-03
  8.2432657e-01
  2.1464872e+00
  2.3251364e-01
  1.8342464e+00
  1.2082308e-01
  4.5108732e-02
  2.3343980e+00
  1.6467426e+00
 -3.7784785e-01
  3.5950476e-01
 -1.0437520e-01
  3.2785535e-01
  1.6125996e+00
  5.9104174e-01
 -2.8276357e-01
  6.9384384e-01
 -1.4734228e+00
 -2.3348942e-01
 -4.3231198e-01
 -1.6654674e+00
 -1.4054424e+00
  4.0538305e-01
  1.5594471e+00
  3.8027069e-06
 -1.8403333e-04
 -1.4622453e-01
  5.2848307e-05
  8.8342480e-05
  4.8449600e-01
  1.9523000e+00
 -4.9606041e-04
 -6.8578142e-05
 -1.4674603e+00
  3.7877971e-01
 -1.0039085e-04
 -5.6084781e-03
 -2.8003863e-01
 -3.4369242e+00
  1.4415370e-01
  5.8307564e-01
 -9.6091419e-01
  1.1031326e+00
  2.4950915e-04
 -2.1285093e+00
  4.0340365e-05
  3.2625161e-05
  3.6726490e-01
  1.1510671e+00
  1.0547294e-01
  4.5153129e-01
 -7.1934235e-01
  1.4500326e-01
  1.3647102e-01
 -3.7795072e-04
  2.0390013e-05
  8.8035333e-01
  2.6147509e+00
 -4.5353562e-01
  3.6901470e-02
  6.9561824e-02
 -3.5730234e-05
 -8.1370926e-01
 -1.3185884e-01
 -1.4105181e-01
 -2.6278505e+00
 -1.8709958e+00
 -7.5973934e-01
  5.9345353e-01
  1.8075100e-01
  6.9966953e-04
 -2.5047383e+00
 -3.7522572e-05
 -1.2793340e-04
 -2.2920439e+00
  1.0131605e+00
  8.4276825e-02
  1.8690088e-01
 -1.3421266e+00
  9.8979302e-02
  5.4767227e-01
 -2.1039072e-04
 -4.5047665e-01
  7.1089703e-01
  3.8383266e-01
  2.0694403e-01
 -9.8158014e-01
  1.5866306e-02
 -1.8330390e-04
 -2.6458931e+00
 -1.9846708e-05
  2.1861927e-04
 -9.0114182e-01
  3.8683617e-01
  2.3669320e-01
  7.8146845e-02
 -1.3752950e-03
  5.7215685e-01
 -3.9403814e-01
  2.4624396e-04
 -4.0066120e-01
 -1.5237558e+00
  1.6771390e+00
  5.1675493e-01
 -1.4410976e-01
 -4.3306348e-01
 -6.0397992e-04
 -2.5771165e-01
 -3.6917335e-01
 -1.2639569e-04
 -6.4639044e-01
  2.4181619e+00
  8.4757507e-02
 -2.1196265e+00
  7.7135938e-01
  7.0826501e-01
  3.9498484e-01
  2.2329448e-05
 -2.3192364e-01
 -1.7559862e+00
  3.1782508e+00
  1.2688434e-01
 -2.5276830e+00
  2.3797724e+00
 -1.4119883e-05
  3.4202507e-01
 -2.1027090e-01
 -3.5228051e-04
 -1.9113550e-01
  8.5482132e-01
  1.8278953e-01
 -8.6962062e-01
 -8.5887060e-02
 -1.7807466e-01
  3.3924723e-01
  2.1855383e+00
 -1.2563255e+00
  6.2261629e-01
  2.2307160e+00
 -1.1631852e+00
  1.2406080e+00
  3.1310363e-05
  1.7301303e-05
 -5.9895092e-01
  2.4080352e-04
 -3.8738895e-04
  4.8288777e-01
  1.0834334e+00
 -2.6676548e+00
 -1.9669583e+00
 -5.2500486e-01
 -1.9450943e-01
 -1.3131942e-01
  7.1472669e-01
 -1.6179816e-01
 -6.0425424e-03
 -1.5303990e+00
  3.6977117e+00
  2.5277561e-01
 -6.5554404e-01
  3.1006045e-04
 -1.9758908e+00
 -5.6799705e-05
 -2.3907521e+00
 -1.8179927e+00
 -4.7907636e-01
  3.0063212e+00
 -5.2700001e-01
  4.9408991e-04
 -2.8251401e-01
 -1.9768499e+00
  6.8090987e-05
 -7.5801039e-01
  2.9636357e+00
  1.4729301e+00
 -2.8184688e+00
  3.3114713e-01
 -6.5236002e-01
  1.8394117e-05
  3.0030911e+00
  5.7301052e-02
 -1.2273973e+00
 -1.5760392e-02
 -4.1197321e-01
 -3.1481686e+00
  1.1379979e+00
 -2.1654472e-04
  1.0029574e-04
 -5.0035179e-01
  7.2233111e-02
 -1.7863682e-01
 -6.9834006e-01
 -2.0536478e+00
  1.5715852e-01
 -8.5326642e-02
 -3.5231707e-01
 -4.5687890e-01
 -2.9004209e+00
  2.9122090e-01
 -1.1574435e+00
 -2.6454800e-01
  8.1749094e-01
  1.3747538e+00
 -5.3607017e-01
 -2.7389529e-01
  3.8788527e-01
 -8.2787567e-01
  8.4669912e-01
  6.4358056e-01
 -2.9229449e-02
  1.6153321e-02
 -9.5753193e-01
 -4.2982128e-01
 -1.8958453e-05
 -1.0806026e+00
 -4.1128427e-01
 -1.1267694e-02
 -2.5080762e+00
 -1.8073395e-01
 -1.6389061e+00
 -1.5746980e+00
 -4.4088402e-01
 -1.8065119e-01
  9.9859953e-02
 -5.8228248e-01
  6.3460088e-01
 -9.7743171e-01
 -1.5628411e-01
 -2.0775484e-01
 -1.0210992e+00
 -1.2996172e+00
 -5.4157183e-02
 -6.2106326e-02
 -1.5733373e+00
  2.9576734e-01
 -4.2585981e-01
 -8.8305339e-02
  1.2938653e+00
  1.0769566e-01
 -1.1250932e+00
 -2.3928502e-01
 -7.6088190e-02
 -1.2936481e+00
 -7.2946894e-01
  3.2469290e-01
  2.9775989e-01
  1.9912345e+00
  7.3246098e-01
 -5.5692011e-01
 -1.5493050e+00
 -5.1184627e-04
  1.0214651e-01
  1.0606568e+00
  2.1779394e-01
  4.8230937e-01
  4.8514437e-02
  2.9360604e-01
 -9.0875906e-01
  3.0987358e-05
 -9.8484597e-05
  2.4747408e-03
  3.5123999e-04
 -2.6789861e-04
 -1.9258133e+00
  2.2780946e-01
 -7.3141538e-02
 -8.9835781e-01
 -5.3206670e-01
 -2.7196234e-04
 -3.5729337e-02
  8.9146823e-01
  4.4248307e-01
  1.0022624e+00
 -1.0426709e-01
 -8.0702128e-03
  1.5309069e+00
 -1.3626515e+00
 -4.2035858e-04
  6.8383098e-01
  3.5232044e-04
 -5.8801740e-01
  4.6146718e-01
  1.9633189e+00
  1.9479519e-01
 -1.1447453e+00
  4.9926988e-05
 -1.8561722e-04
  1.2008653e+00
  5.8282161e-01
  8.7416713e-04
  4.5394486e-01
  8.2951564e-01
  1.1488829e+00
 -4.2961218e-04
 -1.5237077e+00
 -1.0223364e-01
 -2.1592317e+00
  2.1066940e-03
  7.6343089e-01
  7.0015669e-02
 -1.1020862e+00
  4.6836421e-01
 -5.2357697e-01
 -5.7411257e-02
  5.9276150e-05
 -2.7834287e-01
  3.6667326e-01
  1.5471257e-04
  2.9662817e+00
 -1.0358373e+00
  2.3393868e-01
 -5.2770931e-01
 -1.7349230e-01
 -1.8543188e-01
  6.7761493e-01
  1.1897253e-02
 -9.5500395e-02
  1.4746388e+00
  6.7128849e-01
  1.0082439e+00
  1.0428380e-01
 -1.2274309e+00
 -1.3220622e-04
 -1.7867398e+00
  2.3219427e-01
 -2.5398004e-01
 -1.0773418e+00
 -5.5863690e-01
  1.5080806e+00
 -9.9006945e-01
 -3.5639666e-04
 -8.3669096e-05
  2.5323331e+00
  9.6194617e-02
  5.3678691e-01
 -3.0773010e+00
  1.2558799e+00
 -8.1503153e-02
 -1.4733413e+00
 -1.1366668e+00
 -3.0435620e-02
 -2.1632221e-01
  1.7203513e-01
 -1.4531313e-01
  5.2698195e-01
  9.7383505e-01
  1.0738569e-01
 -4.5623723e-01
  9.2941380e-01
  1.5412706e-03
  3.4867863e-03
  2.8232753e-01
  3.5585830e-04
  3.5630012e-01
  3.3721004e-02
  2.4449466e-01
  1.6523238e-01
 -1.0667301e+00
 -4.6182805e-01
  1.8911064e-01
  6.5295929e-03
  1.7339922e-01
  8.3072364e-01
  2.2552887e-01
  6.4807975e-01
 -4.7380604e-02
  7.6301670e-01
 -5.2657682e-01
 -2.6933926e-01
  1.6861834e-01
  1.3190725e+00
 -1.9978893e+00
 -9.2219293e-01
 -3.1543243e-01
 -5.5154896e-01
  6.6765510e-03
 -2.0224888e-04
 -6.6371608e-01
  9.1634007e-05
  6.3551043e-04
 -2.1609843e+00
  1.9865985e-01
 -7.0708919e-01
  1.2922050e-01
  2.4609207e-01
 -6.3639367e-04
  1.0978981e+00
  2.8771654e-01
  1.9627523e+00
  2.3069312e-03
 -1.3232130e+00
 -2.3585203e+00
 -6.2183130e-01
  3.5340517e+00
 -1.5885744e-04
 -1.3573258e-01
 -6.9768215e-04
  2.8769805e+00
 -1.5292016e+00
  1.8693373e-01
 -2.3532352e+00
  4.4011861e-01
 -9.1599533e-05
 -4.6739363e-04
 -1.4076810e+00
  4.1395459e-01
  7.5989544e-01
  1.1731800e+00
  2.7581019e+00
  2.9473227e-01
  1.2845367e-01
  1.5269163e+00
 -4.7143575e-02
  3.0898571e+00
 -8.0177248e-05
  5.0390840e-01
  1.9177501e-01
 -1.9899313e+00
  4.5489395e-01
  1.3824166e+00
  2.1891038e+00
  2.2803093e-04
  6.1648661e-01
  5.1663438e-04
  1.3769062e+00
 -1.3204404e+00
 -7.2907990e-01
 -1.5536748e+00
  7.3991358e-01
 -4.5604291e-04
 -6.4856797e-02
 -1.1211797e+00
  9.3916461e-02
  4.9272576e-01
  3.5658655e-01
  1.3867704e+00
 -1.1197248e+00
  1.0480825e-02
  2.5702465e+00
 -2.0761563e-05
  9.7989202e-01
  3.9820271e-04
  3.5674263e-02
 -5.9739035e-01
 -1.4067809e-01
  8.9938068e-01
  1.4490682e-01
  7.8294986e-01
 -1.2268321e-04
 -3.9855582e-01
  9.6844774e-01
  1.5058078e+00
 -2.6698941e-01
  1.6113462e+00
  8.3299768e-01
  6.4737326e-01
  7.9880133e-02
 -8.9010790e-02
 -1.4514300e+00
 -1.0112692e-01
  3.8305774e-01
 -7.4502528e-01
 -6.9793499e-01
  8.7369317e-01
 -5.7235576e-02
  1.3004166e+00
  8.3459029e-04
 -4.8590600e-01
  5.9724087e-01
  6.8589717e-02
 -6.9149411e-01
  1.0030289e+00
 -1.8004088e-01
 -1.7361183e-01
  1.1360463e+00
 -1.9986874e-01
  4.9036279e-01
  4.2736562e-04
  6.9958431e-01
  1.0579434e-01
 -8.5016066e-01
 -4.7319576e-01
 -1.1592589e-01
 -2.4610656e-01
  4.9145535e-01
  5.1341605e-01
  8.7935394e-01
  3.3626378e+00
 -4.5250723e-01
  2.2257538e+00
  1.1894760e+00
  2.3014319e+00
 -3.1477386e-05
 -3.1636213e-05
  9.5688641e-01
 -2.2099341e-05
  9.4261988e-05
 -2.0545883e-02
  3.4106455e-03
  1.6066083e+00
  3.9040271e-02
 -3.4949368e-01
  6.1046576e-01
 -1.0127194e+00
  5.9279925e-01
  1.7500563e+00
  1.1476310e+00
 -3.7741896e-02
  1.4704951e+00
 -1.1019651e+00
  4.7533438e-02
  1.6097413e-04
  1.6912256e-01
  3.9368087e-01
  5.8270937e-01
 -8.8798821e-01
  1.3808372e+00
  1.1809555e+00
  3.9765555e-01
 -6.0199488e-02
  5.6072193e-01
 -7.0309736e-02
 -1.3727491e-04
  3.3379212e-01
 -1.6724935e+00
  6.7068905e-01
  6.8267274e-01
 -2.0281827e+00
 -2.1285482e-03
  1.8712989e-04
  8.7659037e-01
  1.1619036e+00
  1.0878534e+00
  8.6186957e-01
 -6.1514246e-01
  3.1261986e-01
  1.2455020e+00
  3.8028584e-04
  8.4656634e-04
  3.8239115e-01
 -3.4033433e-03
 -1.1195937e-04
 -1.8165317e-01
 -1.6217238e-01
  5.2395219e-01
  3.8370198e-01
 -1.5533660e-01
  4.8189238e-01
  3.6289203e-01
  1.4699026e+00
  1.7968141e+00
 -7.5814050e-01
 -4.1251570e-01
 -3.9664099e-01
 -5.4329699e-01
  1.0986415e-04
 -8.5670261e-05
  7.8653806e-01
  2.1806415e-04
  8.5962939e-01
 -6.5448129e-01
 -9.2084634e-01
 -5.1798344e-01
 -4.5201379e-01
 -5.7555753e-01
  1.0490788e+00
 -4.5177507e-01
  9.1217637e-01
  1.3146882e+00
 -3.1058133e-01
  1.0396857e+00
 -1.6088124e-01
 -1.5823240e+00
  4.3200562e-05
  2.2089655e-05
  2.7568259e+00
  7.9991686e-01
  4.3354979e-01
 -1.5826188e-01
  1.0924779e+00
  3.8830182e-01
 -2.0472155e+00
 -1.0915130e+00
  2.4066815e-01
  1.0036516e+00
  4.7998849e-01
  8.2993686e-01
 -2.3875536e-01
  6.1224812e-01
  3.3437827e-01
 -6.0227883e-01
  1.0418367e-01
  5.3942841e-02
  1.3936341e+00
  1.4474581e-01
  8.8210666e-01
 -2.9055309e-01
 -2.9901594e-01
  3.7575722e-02
  3.8232869e-01
  1.6640214e-02
  1.6640214e-02
  1.6640214e-02
  1.6640214e-02
  1.6640214e-02
  4.3687940e-02
  4.3687940e-02
  4.3687940e-02
  4.3687940e-02
  4.3687940e-02
  2.5082333e-02
  2.5082333e-02
  2.5082333e-02
  2.5082333e-02
  2.5082333e-02
  1.2051275e-02
  1.2051275e-02
  1.2051275e-02
  1.2051275e-02
  1.2051275e-02
  6.7577264e-03
  6.7577264e-03
  6.7577264e-03
  6.7577264e-03
  6.7577264e-03
  1.8942138e-02
  1.8942138e-02
  1.8942138e-02
  1.8942138e-02
  1.8942138e-02
