nep4 3 Mo Si N 
cutoff 6 4 102 33
n_max 4 4
basis_size 12 12
l_max 4 2 0
ANN 30 0
  1.9060263e-01
 -9.9114992e-02
 -1.2115308e-01
 -8.6189941e-02
  1.0331907e-01
 -4.1641854e-02
 -2.6889291e-02
 -2.9576138e-01
  1.2953520e-02
 -1.8611286e-02
 -3.2676816e-02
 -2.9568728e-03
  8.4977351e-02
 -1.3874486e-02
  8.3767004e-02
  1.1581637e-02
  1.1151195e-01
  8.8636065e-03
 -3.9508797e-02
  1.8442887e-01
 -2.5989536e-02
  7.4383937e-02
  2.5955932e-02
  7.7619189e-03
  1.4077504e-03
  5.2478466e-02
  6.3002575e-03
  7.3074043e-02
  8.8386070e-03
  3.4735780e-02
  1.8973842e-03
 -5.0057750e-02
  4.2105451e-02
 -8.3207257e-02
  4.2476527e-02
 -3.9324719e-02
  1.0980829e-01
  5.0020903e-02
 -1.9325995e-01
  4.3903045e-02
  1.1969626e-01
  2.2855724e-01
 -2.5671516e-03
 -8.6545818e-02
  6.7401335e-02
 -1.0680627e-02
  2.9756758e-02
  1.0019411e-01
  5.3733356e-02
 -4.9811292e-02
  1.6662478e-04
 -1.6246714e-01
 -6.0285803e-02
 -1.8107351e-03
  9.1332898e-02
 -5.2105725e-02
 -6.5912455e-02
 -1.7919664e-03
 -6.4241946e-02
 -1.1808139e-01
  5.2202672e-02
 -5.4131903e-02
 -7.2633612e-01
  3.5928309e-01
  2.4790399e-02
  2.0375310e-01
  2.8647710e-02
  8.3658099e-03
  5.8293593e-01
  4.4587117e-02
 -7.8493711e-03
  4.3912446e-01
  5.8195069e-02
  3.3796859e-01
 -2.1081991e-01
 -8.3493382e-02
  4.0400371e-01
 -1.6555387e-01
 -1.6313715e-02
  3.5039288e-01
  2.1739485e-02
 -4.1979071e-02
 -3.4980632e-02
  6.0863054e-01
 -1.0383358e-02
 -3.6850188e-02
 -3.6482289e-01
  1.8794341e-02
  4.1173406e-02
 -4.7580563e-03
  8.9427009e-02
  6.5318412e-01
 -4.1993517e-01
 -1.1479865e+00
 -1.5229731e+00
 -5.2861452e-02
  4.0172252e-01
 -6.7768109e-01
 -1.7515685e-01
 -1.1335064e-01
 -5.8098983e-02
  2.6135385e-01
  5.2416295e-01
 -1.5801837e+00
  1.8911463e-01
  4.1933054e-01
 -1.6992030e-01
  3.4244277e-02
  1.6787493e-01
  1.7112473e-02
 -1.7073467e-01
 -9.1220516e-01
 -8.8039450e-03
  9.7400844e-02
  8.5218921e-03
  4.1770214e-01
  1.2351405e-01
  2.6162735e-01
 -2.2837263e-02
 -1.5321505e-01
 -1.9855461e+00
  1.4054375e+00
  1.2339475e-01
  2.7360898e-02
 -3.3772704e-01
  2.6134767e-02
  1.5455796e-01
  1.4734006e-01
  3.7870783e-01
 -1.6830491e-01
  3.1525847e-01
  7.8606978e-03
 -6.8138570e-01
  3.2196831e-02
  1.0124866e-01
  3.9326161e-01
  1.2212975e-01
  2.5748122e-02
  6.5963751e-01
  3.5077836e-03
 -3.0868578e-01
  2.4799731e-02
  3.9451677e-01
  1.7144395e-02
 -6.3432050e-03
 -3.0182734e-01
 -2.7047813e-02
 -1.1108410e-01
 -2.5818141e-02
 -1.1391526e-01
 -1.1061600e-02
 -6.4465988e-01
  2.2249709e-01
 -4.8280984e-02
  6.6445559e-01
 -2.1359823e-03
 -2.7441038e-02
  3.8175958e-01
 -1.2251072e-01
  2.8075282e-02
  4.5295879e-01
 -2.2145353e-01
 -3.9618021e-01
 -1.7992792e+00
 -1.2481841e-01
  8.6715057e-02
 -3.2123601e-01
  3.5440502e-01
  7.1334243e-02
  3.7079325e-01
 -5.5342710e-01
  4.7415504e-01
 -1.6349124e-02
 -1.9459891e+00
  2.4099256e-01
  5.4673802e-02
 -2.7237582e-01
  1.6221127e-01
 -1.3673785e-01
  9.6427724e-03
 -7.1540855e-02
  3.4733766e-01
  1.3551320e-01
  1.2588175e-02
 -1.8269133e-02
 -1.9157994e-01
 -1.0000102e-02
 -2.1862935e-02
 -1.8320337e-03
  6.5304957e-02
  9.3430374e-03
 -2.1251662e-02
 -6.5927006e-02
  1.2152530e-01
  7.5317234e-02
  6.3575521e-02
 -2.6271667e-02
 -1.5200531e-02
 -5.6231849e-02
 -1.6006827e-02
 -9.2571452e-02
  4.8526477e-02
 -1.2204237e-04
  7.4966627e-01
  1.9240817e-01
  4.3399064e-03
  4.7802459e-02
  2.0588305e-02
  2.2052675e-02
  3.0293179e-01
 -4.4966069e-01
 -5.7117708e-02
 -8.4401518e-01
  4.4902271e-01
 -2.5745735e-01
  1.0082273e-01
  3.9227241e-01
  6.0203835e-02
 -1.1431226e+00
  3.1297293e-01
 -1.4328609e-01
  3.9185125e-01
  4.2695510e-01
 -5.7212025e-02
 -6.6291833e-01
  4.7542053e-01
 -1.7122811e-01
 -7.2434253e-01
  6.8996406e-01
 -4.2184359e-01
 -9.9806346e-02
 -1.3312376e-01
 -6.2969995e-01
  6.4016312e-01
 -1.0926363e+00
  7.7844095e-01
  1.2987463e+00
  1.1487243e+00
 -1.7702316e-01
  4.0846765e-02
 -6.3404664e-02
 -3.5666861e-02
 -2.9803481e-02
  1.9883146e-03
 -1.9286860e-02
  1.8432590e-01
 -9.7049758e-02
 -1.8929834e-02
 -3.9364580e-02
  1.3389692e-01
 -6.4268261e-02
 -4.7603413e-02
 -1.0751576e-02
  1.2966022e-02
  4.3300435e-02
  5.9347842e-02
  6.4441562e-02
 -9.9641331e-02
 -9.9143213e-01
  2.8417346e-01
  3.4520123e-02
  9.4766647e-02
  1.1657426e-02
  7.4918568e-03
 -5.7267115e-02
 -7.2932122e-03
  2.1786045e-02
 -1.6540777e-02
 -5.4246290e-03
 -1.0089586e-02
  3.1186081e-02
  4.6269916e-02
 -2.9913811e-02
  9.0830894e-03
 -3.5822764e-02
 -1.0376590e-01
  6.5685026e-02
 -5.7129711e-02
 -1.2156093e-02
  1.2204030e-01
  8.8923633e-02
  1.4174859e-01
  9.7180769e-02
  4.2344415e-01
  2.4687611e-02
  5.2835450e-02
 -1.5869114e-01
  2.5884187e-02
  1.0781908e-02
  4.5176896e-01
 -1.9924648e-02
 -1.0259522e-02
  3.0129250e-02
  3.3324681e-02
 -1.8770006e-01
 -1.2505947e-02
  6.9944240e-02
 -5.0288267e-02
 -2.2143774e-02
  8.7462679e-02
  2.7219672e-02
  7.9870671e-03
  7.3148116e-02
 -8.0153169e-03
  4.3206856e-02
  6.1428059e-02
  6.1622087e-02
  1.1270516e-01
 -2.0685557e-02
  6.1240274e-02
  6.9317423e-02
  5.8021378e-03
 -1.8457629e-02
  3.6658775e-02
 -4.0571080e-03
  9.8423930e-03
 -2.8309014e-02
  5.6378312e-02
 -4.8001308e-02
  4.7183082e-02
 -3.0512799e-02
  6.1750691e-04
  1.0801797e-02
  8.0139168e-02
  1.3270299e-03
 -8.4970165e-03
  4.8689079e-02
 -1.5350785e-02
 -1.5133864e+00
 -4.2342607e-02
 -5.3833004e-02
 -5.6242503e-02
 -3.0466653e-02
 -1.9895339e-01
  5.5876547e-03
  5.3024203e-02
 -7.5734369e-02
 -1.2420119e-02
 -4.0770929e-02
 -5.0560310e-02
 -8.9473709e-02
 -3.8970213e-02
 -8.7619998e-02
  1.2447788e-01
  1.2739540e-02
 -2.0846562e-01
  7.7783674e-02
 -3.1323656e-02
 -1.9575857e-02
 -9.1559529e-02
  9.9194281e-02
 -4.1771654e-02
  2.0629143e-02
 -1.7137567e-02
 -2.2314139e-02
  4.1755423e-02
 -2.7393932e-02
 -2.3445591e-02
  2.7114421e-02
 -1.0669587e-01
 -3.0987141e-01
  8.1178382e-02
  1.2534185e-01
 -2.3415849e-02
 -6.4870924e-02
  8.7651528e-02
  9.2330195e-02
 -7.3476471e-02
 -4.4516444e-02
 -1.1342202e-01
  1.4201513e-03
 -1.9531097e-02
  2.7386462e-02
  3.4918379e-02
  1.7290492e-01
 -2.3452733e-02
 -7.8673080e-02
 -3.9574489e-02
 -5.3310476e-02
 -3.9001126e-02
  7.1886025e-02
 -2.5947798e-02
 -5.4914493e-02
  2.1800771e-04
 -3.1760702e-04
  1.4121393e-02
  6.8606749e-02
 -5.7485223e-02
 -5.8738362e-02
 -5.8977388e-02
 -6.0514979e-02
  3.1265217e-01
 -4.9063120e-02
  9.1491193e-03
  4.4640997e-01
 -1.3027975e-01
 -2.9767039e-01
 -3.4022361e-01
  2.4046674e-01
 -2.9874183e-03
  5.7297099e-02
 -8.7392695e-02
 -2.2826854e-02
  8.6047724e-03
  6.3726701e-02
 -6.6870749e-01
  9.3345374e-01
  1.4306685e-01
 -1.3495426e-01
 -3.8346142e-02
  1.4454542e-01
  4.4553716e-02
  7.7380314e-03
 -8.8182300e-02
 -6.0578715e-03
 -1.5260540e-01
 -4.9618348e-02
 -1.2181503e-01
 -1.2490906e-01
  3.4444846e-02
  4.8462614e-02
 -8.1300579e-02
  8.5769836e-03
  1.8679450e-01
 -2.4666736e-02
 -6.2570602e-02
  1.0623644e-01
 -1.0921910e-01
 -4.5709530e-01
  8.6731575e-03
  1.7096528e-01
  9.6160602e-03
 -2.1926276e-01
  4.6477832e-02
 -3.4744991e-03
  1.2513626e-02
  6.0390437e-01
  3.3747211e-02
  6.3876629e-02
 -3.9554991e-02
 -7.4858472e-02
  1.4904088e-01
  3.2858543e-02
 -6.9074780e-02
  5.6723300e-02
 -1.7229672e-01
 -4.9795855e-02
 -1.7595761e-02
 -1.1534882e-01
 -5.3281999e-01
  5.8475967e-02
  7.1617836e-01
  5.6997046e-02
 -1.8166724e+00
 -1.8525854e+00
  2.7529269e-02
 -2.4933451e-01
 -2.4442400e-01
 -5.2733070e-01
  5.3869772e-01
 -3.3144057e-02
 -2.5266168e-01
 -5.2835673e-01
 -3.6219952e-01
  8.7395079e-02
 -4.9434495e-01
 -6.6826329e-02
  1.8565135e-01
 -2.0248546e-01
  3.1700444e-03
  9.5807053e-02
  6.7293353e-02
 -5.1832534e-03
  2.8353941e-01
  2.6465794e-01
  1.5527272e-03
  3.0790238e-02
 -8.4535815e-03
  2.2066821e-01
  2.0913409e-02
 -8.2457554e-01
  4.0522119e-01
 -1.1657373e+00
 -1.2612263e+00
  3.0586507e+00
 -2.9845800e+00
 -3.0186033e-01
  1.5751334e-01
  2.9891607e-01
  2.2274934e-02
  5.6640029e-02
 -1.6678230e-01
  1.1078699e+00
 -1.9537146e-01
 -4.7758099e-01
  4.3900833e-01
 -2.8180349e+00
 -4.4144079e-01
  8.5974014e-01
  1.6896953e-01
  1.4097488e-01
  4.0729293e-01
 -4.1263424e-02
  4.5173329e-01
 -3.0354368e-02
  4.0812090e-02
  6.4631072e-03
 -1.1924537e-01
  3.9568534e-01
  4.8561469e-02
 -1.2973201e+00
 -1.3684242e+00
  1.7084198e+00
  1.8834730e+00
  9.7622675e-01
  3.4305701e-01
  6.3341379e-01
 -1.0764580e+00
 -1.5408080e+00
 -1.1493989e-01
  9.5388907e-01
  3.6591291e-01
  2.5921467e-01
  5.4876395e-02
 -4.8753273e-01
  6.6227257e-01
  1.1212416e-02
 -2.7694169e-02
  2.0867033e-01
  2.8179135e-02
  5.1477295e-01
  2.6749954e-01
 -4.2755017e-01
  6.7508990e-01
 -3.2085252e-01
 -4.6153665e-02
 -1.6057711e-02
  1.8193281e-01
  4.9348272e-02
  5.4217976e-01
  3.0630974e-02
 -1.1502837e-01
 -1.1547446e-01
  1.6745126e-02
 -3.3845089e-02
  6.7998418e-03
 -2.7309656e-02
 -6.0496513e-02
  1.0787916e-01
  1.5740689e-02
  2.6999468e-01
 -5.1920870e-03
  3.8786460e-02
 -1.1219293e-01
  8.2088998e-03
  7.9191662e-02
  1.0337094e-01
  9.3929004e-05
 -7.4402027e-02
 -1.1100588e-02
 -3.6436394e-02
  2.2941403e-02
  3.4938005e-01
 -1.7324287e-02
 -5.0831698e-02
  2.8135490e-01
  1.0616004e-02
 -2.0701103e-02
 -2.7397208e-02
  1.2409153e-02
  1.6780445e-02
 -3.5074823e-02
  1.5223235e-01
 -7.4851878e-02
 -1.0702659e-01
  2.7263638e-02
 -3.3515885e-02
  4.4697877e-02
 -1.5176306e-02
  6.8174616e-02
 -4.5095280e-02
 -1.8106167e-01
  1.8059833e-02
  3.0311791e-02
 -6.4341221e-03
 -2.3123678e-02
  3.1874046e-02
  6.8172924e-02
 -1.0034351e-01
  9.6129021e-04
  5.2106626e-02
 -5.8924440e-02
  8.1637525e-04
 -9.8165132e-02
  4.0003709e-02
 -6.1072908e-02
 -2.0971975e+00
  2.6115872e-02
  5.8953995e-03
 -1.0551846e-01
  7.9845488e-01
 -1.0540220e+00
 -3.8696647e-01
  1.9794346e+00
  5.2257199e-03
  1.7731684e+00
 -2.3220270e+00
  3.7732267e-01
  8.7464839e-01
 -8.7341592e-03
  5.7386106e-01
  3.2777905e-02
  4.3948859e-02
  1.1507649e+00
 -6.7889713e-02
  1.3834407e+00
 -1.7074920e-01
  4.0935177e-01
  7.4890372e-03
  4.4275853e-01
  2.2906803e-01
  2.0668430e+00
  4.7657844e-02
 -3.5297507e-01
  2.3608696e-02
 -4.1753072e-01
 -2.6747352e-01
 -1.7788012e-01
 -1.0213528e-01
  3.2198840e-01
 -1.1359589e-01
 -3.9082192e-02
 -1.5797889e-01
  2.2431523e-02
  5.5217430e-02
  8.0329970e-02
  2.8982344e-01
  2.7214784e-02
  1.9683750e-01
 -7.5598758e-01
  2.1339678e-03
  1.2333524e-01
  2.7756514e-03
  3.6002774e-02
  8.2061596e-02
 -2.3093955e-01
  6.3927896e-02
  8.4352501e-02
  5.2518494e-02
  3.1542620e-03
  1.0877804e-02
 -1.0001396e-01
 -2.1258816e-02
 -4.3423921e-02
 -4.2841703e-02
  5.1795043e-02
 -6.2124476e-02
 -1.2150099e-02
  1.0147680e-01
 -1.3122153e-01
 -7.5253159e-02
 -5.4335456e-02
 -1.5913787e-01
  9.1210473e-03
 -9.9770270e-02
  1.6280551e-02
 -3.1862780e-02
  4.7184713e-02
 -3.4907494e-02
 -4.7286965e-02
  4.3004103e-02
 -4.9571641e-02
  5.7007704e-02
 -1.1445231e+00
 -2.7336530e-02
 -7.2083212e-02
 -1.5502531e-02
  2.7119848e-01
  2.5728801e-01
 -2.5208735e-01
 -8.7937504e-02
  1.3859686e-02
 -2.1165338e+00
 -2.4810877e-02
 -1.5777534e-01
  1.6059926e-02
  6.5360218e-02
  9.9510420e-03
  2.0827629e-02
  7.0533641e-02
 -4.9431594e-03
 -3.9405814e-01
  1.3347349e-01
 -4.1424838e-01
 -1.4976938e+00
  8.3943993e-01
 -2.5589278e-01
  1.2424589e-01
  2.0899804e-01
  3.7455082e-01
  9.8909047e-03
 -9.7594000e-03
 -8.8976309e-02
  5.0551843e-02
 -5.7778168e-01
  3.7049577e-02
  1.5894084e+00
 -6.9240786e-02
  2.2749491e-02
  6.2749964e-01
 -2.9144379e-01
 -2.3824677e-01
 -4.2170219e-02
  3.4768811e-01
 -4.9400467e-01
 -3.5999436e-03
 -1.1472026e-01
 -2.0892470e-01
  8.4869230e-01
  4.3602088e-01
  1.4597683e-01
  1.3709055e-01
  1.0434920e-01
  3.3219069e-02
  8.3799968e-03
  5.5414595e-02
 -1.4012419e-01
  7.9282656e-02
 -6.8613039e-03
  2.6500471e-02
  5.5371313e-03
 -1.0698473e-01
  3.6777470e-02
 -1.5022224e-02
  9.2774525e-02
 -4.2098492e-02
 -5.9096515e-02
 -1.1216379e-02
  6.3043326e-02
  1.3580076e-02
 -1.2785252e-02
 -7.0103891e-03
 -1.0110354e-02
 -3.5134334e-02
 -2.5270302e-02
  1.5893195e-02
 -1.2521781e-03
 -1.0102548e-01
  4.9026530e-02
  8.0044661e-04
 -4.0532701e-02
 -1.8513861e-01
 -3.0500388e-01
  8.8707790e-02
 -4.6856105e-02
  5.5679280e-01
 -5.9487657e-03
 -1.7416237e-01
  6.2931132e-01
  2.2302723e-02
  6.4259571e-01
 -1.8033141e-02
  4.1293118e-02
  1.1525410e-01
  1.1593312e-02
 -1.3864574e-01
 -4.5947617e-01
  1.8966561e-02
  1.5342076e-01
  1.6916150e-01
 -5.8183402e-02
  7.2373933e-01
  7.0716343e-03
  1.5929675e-01
 -9.3513459e-02
 -4.4085410e-01
 -5.7363588e-02
 -2.0611629e-02
  1.0286960e-02
  2.1778462e-02
 -1.4518057e-02
 -1.0682815e-01
 -1.6738114e-01
 -1.3396609e-01
  1.0844921e-01
 -7.4000858e-02
  8.9313097e-02
  4.8367474e-02
 -2.3462424e-02
 -3.4828290e-02
 -1.3160872e-01
  1.3678792e-01
  8.3751984e-02
 -5.4700036e-02
 -5.7838745e-02
 -4.3008596e-02
 -8.3552875e-02
  1.4060674e-02
 -9.0981603e-02
 -4.8212912e-02
  2.2308184e-03
  1.9197424e-01
  1.9510385e-01
 -5.2092969e-04
  1.3946617e-02
 -1.4241642e-01
  5.5658333e-02
 -1.1861590e-01
 -7.8259170e-02
  2.3250464e-02
 -7.0507276e-01
  1.6607535e-01
 -1.3270404e+00
  1.9493980e+00
 -1.3934368e-01
  6.2177056e-01
  9.6886194e-01
 -1.8172911e-01
  1.0884085e+00
  6.5676713e-01
  1.6564591e+00
 -3.9004013e-01
 -6.7184108e-01
  7.5291330e-01
  1.5153841e-02
 -1.7283710e+00
  2.6073503e+00
  4.2718584e-03
 -8.0022305e-01
  4.7212148e-01
 -1.0581633e-01
  1.7823097e+00
 -5.1497817e-01
  1.7523877e-01
  2.3167418e-01
 -1.9158272e-01
  1.2168868e-02
 -1.4963044e-01
  6.7225450e-01
  2.0340578e-01
 -2.7159685e-02
  9.8145336e-02
  1.3581003e-01
 -1.1937363e-02
  2.4073128e-02
 -4.0934816e-02
  1.5320621e-02
 -6.0795560e-02
 -6.4538486e-02
  9.4792709e-02
  4.2625736e-02
  4.6795972e-02
 -1.6455630e-02
 -2.9912472e-02
  2.4711149e-02
 -4.0411718e-02
 -1.1378055e-04
  8.1870832e-02
 -1.6623901e-01
 -7.7194087e-02
  8.5176520e-02
 -6.7998320e-02
  3.1315416e-02
 -2.5895748e-01
  9.5545560e-02
 -1.8613493e-02
  6.2398382e-02
  8.4805921e-02
  7.5725541e-02
  2.5978807e-01
  4.2558962e-01
  5.5356425e-01
  3.9190177e-02
 -5.2022523e-01
  1.3635431e-01
  9.2629308e-01
 -3.9862621e-01
 -1.7110534e-02
  4.4903287e-01
  5.6460768e-01
 -2.2157010e-01
  1.1463910e+00
  3.5477504e-01
  1.1512825e+00
 -2.8440127e-01
 -9.5951654e-02
  1.4607600e+00
  1.2721009e+00
  2.1863260e+00
  1.9979124e+00
 -5.3841501e-01
  7.6958281e-01
  1.4734611e-01
  6.8094045e-01
  4.7013056e-01
  1.9514962e-01
  7.3018938e-01
  8.7273324e-01
 -4.3576896e-01
 -5.4006152e-02
  7.6177567e-02
  6.4879261e-02
  1.2063963e+00
 -5.4788493e-02
  2.0809124e-01
  2.4643697e-01
  2.7530155e-01
 -6.0563564e-01
  1.0349265e-02
  3.6973380e-02
  5.1647425e-02
  1.9443573e-01
 -1.3828045e-01
  1.2888243e+00
 -1.3090864e-01
 -5.4161704e-01
  8.4533088e-02
  2.8189284e-01
 -3.1527743e-02
 -1.6252288e-01
  4.4326621e-01
 -1.7464668e-01
 -1.2537958e-01
 -5.0906450e-01
 -3.1892183e+00
 -6.0942674e-01
  6.6502213e-01
  1.0365467e+00
  1.9241478e-03
  2.2874970e+00
 -4.3672990e-02
 -1.2394956e-01
  8.1060082e-01
 -8.0342507e-01
 -1.0181665e+00
  1.0971198e+00
  7.7027574e-02
  1.6453515e+00
  6.6654049e-02
 -5.9375796e-02
 -2.2343867e-01
  2.1980580e-02
 -4.4424348e-02
 -2.6830292e-01
 -1.9212720e-01
 -9.5803624e-01
  3.1663330e+00
  1.4807559e+00
 -2.1518596e-01
 -6.5863626e-03
  1.0313538e+00
 -2.6229862e-02
  1.4829266e-01
  1.3765731e+00
  2.5274325e-02
  1.0575010e+00
 -2.0794989e-01
  5.1034307e-01
  7.1481101e-02
  1.2068939e+00
 -3.7810211e-03
 -2.7149031e-02
 -1.9962497e-02
 -1.0491677e-01
 -5.1142331e-02
 -1.3381270e-01
 -5.1442795e-02
  1.2030727e-01
  2.6411619e-02
  4.7184624e-02
  8.3629631e-02
 -9.6335253e-03
 -1.2037636e-01
  2.6716274e-01
  4.6239212e-02
  1.0192433e-02
 -1.8144960e-02
 -8.7846354e-02
  3.9389580e-02
 -5.6328095e-02
  1.6672201e-03
 -5.0124891e-02
  3.9423760e-02
 -5.5943400e-02
 -7.4452490e-02
 -1.2180701e-01
 -8.9755885e-02
 -1.0132303e-02
 -4.6560946e-03
 -9.1347648e-03
  9.6492410e-01
  3.5749253e-02
 -4.8666781e-01
 -7.0836580e-01
 -8.0253650e-03
 -3.8413435e-01
 -6.2793970e-01
  1.0605564e+00
 -9.6511769e-01
  4.3835023e-01
 -7.8372639e-01
  5.8201897e-01
 -4.4389954e-01
  1.2877027e+00
  2.1563783e-01
  3.8425273e-01
 -3.7930589e-02
  5.9985840e-03
 -1.7916275e+00
 -1.1537362e+00
 -4.7631210e-01
  1.9637144e-01
 -3.8501155e-03
  7.9968721e-03
  8.8962901e-01
 -1.6699858e-01
  5.0604073e-03
  3.1190699e-01
 -5.2200381e-02
  7.2088885e-01
  3.8411292e-01
 -8.5940234e-02
 -2.4044533e+00
 -1.1600798e-02
  7.8209025e-01
  1.7720910e-03
 -4.3445256e-01
  3.8090354e-01
  1.0295324e+00
  9.4955033e-01
 -3.3681009e-02
  2.5060921e+00
 -6.7974526e-01
 -1.1431549e-01
  7.9391569e-01
 -2.1245265e-01
  1.3882371e+00
  2.1840812e-01
  2.0628955e-02
 -2.9589713e-01
  3.4949157e-01
  1.7614064e-01
  1.1717043e-01
  1.1272662e+00
 -6.4572953e-02
  2.3873167e-01
  2.1261768e-02
 -5.1488441e-01
  1.3309166e-01
  7.6008409e-01
 -2.2447694e-02
 -2.2426084e-02
 -3.1566411e-02
  8.3527517e-01
 -2.3625232e-03
  1.4820300e-02
  2.3539145e-02
  9.6717164e-02
  8.8738590e-02
 -2.6306501e-02
  4.0659059e-02
  9.4172470e-03
  6.9165185e-02
 -4.2341296e-02
 -1.2034911e-02
  6.0098700e-02
  1.0084920e-01
  3.1513039e-02
  2.6320411e-02
 -2.7172398e-03
  1.8564546e-03
 -2.6746500e-02
 -1.8140789e-02
 -1.2131777e-02
 -5.5644676e-02
 -6.9383875e-02
 -1.4786429e-02
 -8.5241936e-02
 -4.3457147e-02
 -1.7891756e-01
 -7.4491823e-01
  8.2348138e-01
  8.3054584e-01
 -1.2861246e+00
  5.4577619e-02
 -1.4742944e-01
  3.6279459e-02
  4.2491677e-01
 -6.1134055e-02
  1.4166927e-01
  5.4444186e-02
  4.2192359e-02
 -3.3439907e-01
 -1.3210236e+00
 -1.9877104e-01
  6.2827855e-01
 -6.0822290e-01
  4.9570784e-01
  1.0482661e+00
 -2.4385828e-01
 -4.8269373e-01
 -1.4476556e-01
  7.3509198e-01
  9.1895729e-02
  4.6246551e-02
 -3.2879320e-01
 -7.6133192e-02
 -2.8539014e-01
  3.2975648e-02
 -2.5953466e-01
  3.9141151e-01
  1.3632824e-01
  5.0614256e-01
 -2.5341180e-01
 -1.3408841e+00
  1.3641271e-01
  3.3998626e-01
 -1.1170492e-01
 -8.5740745e-01
 -7.1107590e-01
 -5.2322322e-01
 -1.5405756e+00
  1.4169690e-01
 -5.6146216e-01
  1.5598401e-01
 -1.4701027e-02
 -9.1720514e-02
  4.0219378e-01
  6.7587978e-01
  2.2233791e+00
 -3.3575818e-01
 -1.2196299e-01
 -5.4880399e-01
 -2.3151144e-01
 -1.4770573e-01
 -4.7171122e-01
  1.0463831e-02
 -3.6201645e-02
  4.5572244e-02
  4.1827610e-01
 -7.7506423e-02
  5.3305402e-02
 -2.5746210e-02
  8.0135465e-03
  2.8961221e-02
  6.0991284e-02
 -2.8032392e-02
 -1.1292055e-01
  5.1864590e-02
  1.1941119e-01
  3.0104734e-02
 -7.2742924e-02
 -1.3889548e-01
  2.3452911e-01
 -2.0888498e-01
 -1.5647469e+00
 -1.0138279e-01
  1.5055710e-01
  8.6878441e-02
 -5.0596789e-02
 -1.0994409e-02
  1.4382216e-01
 -1.1233257e-02
  7.3871344e-02
 -1.6905935e-03
 -2.4770658e-02
  4.5458384e-02
  3.9545819e-03
 -3.1402819e-02
  1.0113139e-01
  3.5257399e-01
  1.2106291e-01
  5.7466581e-02
  1.4915575e+00
  1.4441317e+00
  9.7314209e-02
  5.2466225e-02
 -1.3951039e-02
 -5.9410393e-02
  2.2922775e-02
  1.1056254e+00
 -9.8158292e-02
  1.3718066e-01
  1.4519979e-01
 -1.5405667e+00
  1.3298477e-01
  6.0240513e-01
 -1.8102331e-01
 -1.9166496e-01
 -2.3141339e-02
  7.0748851e-02
 -2.1150682e-02
  1.3291313e-02
 -1.8072458e-01
  5.6950685e-02
  1.0782023e-02
 -8.6050458e-02
 -2.3755749e-01
 -6.3211359e-02
 -5.9702128e-01
  9.6163523e-01
 -1.9630082e-01
 -9.9984848e-01
 -2.5724277e-01
 -2.8170779e-01
 -7.5755048e-01
 -1.6234162e-01
  7.3626436e-02
 -1.1867398e+00
 -1.3317764e-02
  3.6501382e-02
  1.3067082e+00
  1.0720592e-02
 -1.3222554e-01
  1.1301141e+00
 -7.0723301e-01
 -4.6352491e-02
  4.8094407e-01
  1.0508977e+00
  5.2079707e-02
 -7.9901356e-01
 -6.5128464e-01
 -1.0134054e-02
 -7.8416568e-01
  1.6660366e-02
 -1.0473751e-01
 -5.8817748e-02
 -2.2019270e-01
 -4.0852651e-03
  1.8753527e+00
  1.3027513e-01
 -1.2144750e-01
 -7.2041616e-02
  5.2090183e-02
 -5.6923199e-03
  6.7617536e-02
  3.5030253e-02
 -1.7904956e-02
 -3.2068878e-02
 -1.9211426e-02
 -3.8370620e-02
 -1.6677989e-01
 -7.5615674e-02
 -3.3855475e-02
 -2.9753169e-01
  1.4594140e-02
  2.1160658e-02
 -7.9862326e-02
  2.7728897e-01
  1.2130900e-01
  1.1881994e-01
  1.6418512e-01
  2.1442662e-01
 -3.0485502e-01
 -5.6492254e-02
 -5.7928741e-02
 -2.5791157e-02
  2.9061833e-02
 -4.1077203e-01
  1.0895868e-01
 -8.3061770e-02
  3.2648075e-01
 -8.1881666e-01
  1.1818771e+00
  1.7806764e-01
 -5.5024177e-01
  4.0694302e-01
  1.3078425e+00
 -2.1320410e+00
  1.3560410e-01
  2.7046941e-02
  1.3216816e+00
 -6.7009234e-01
 -4.2021975e-02
  2.1432811e-01
 -1.0255431e-01
  4.0445927e-01
 -7.4771158e-02
 -1.6682412e-01
  9.4695399e-03
 -7.2831631e-01
 -7.1808966e-03
 -1.5261373e-02
 -4.6257150e-01
 -2.9577410e-01
  3.1942561e-02
 -3.0028856e-01
 -6.6637844e-02
 -1.1915799e+00
 -3.8969523e-01
 -2.0199788e-01
 -1.3935310e-01
  6.6513151e-02
  2.2333637e-03
  4.3698880e-01
 -3.3615183e-02
  1.4053540e-01
  5.4424174e-02
 -1.8677767e-02
  4.2004980e-02
 -2.7630333e-02
 -3.2878619e-01
 -5.4827556e-02
 -3.3998333e-02
  3.2230392e-01
  2.7721277e-01
 -1.8816994e-01
 -7.0044823e-02
  6.8908846e-01
  3.2386869e-01
  4.4876646e-02
  7.9700463e-02
 -2.8409949e-02
  5.3276215e-02
  2.1584751e-04
  7.3515438e-02
 -2.8288019e-01
 -7.6560997e-03
 -1.5464772e-02
  3.8199073e-01
 -1.5527844e+00
  6.6322573e-02
 -1.4268509e-01
 -6.0749147e-02
  2.0472839e-01
 -2.9147014e-01
  8.4470272e-01
  4.1371772e-01
 -8.3521473e-01
  1.9080751e-01
 -2.6952115e-01
 -2.1297021e+00
  1.5888736e+00
 -1.1688133e+00
  2.2184582e+00
 -1.1337574e-01
 -3.0624283e-02
  8.6580485e-01
  4.8357517e-01
 -3.1144601e-01
  1.1331004e-02
  1.1417883e-01
  2.0474765e+00
  1.1745471e-01
  2.4819934e-01
  4.3453760e-03
  5.2947956e-01
 -9.7209692e-02
  4.6805412e-01
 -1.5028615e+00
 -2.7983734e-02
 -1.3382696e-02
  1.5547791e-02
 -8.4184892e-02
 -6.7290492e-02
  1.4727916e-02
  1.6781671e-01
 -9.5341638e-02
  9.8938905e-02
  4.6827685e-02
  1.7646056e-01
 -2.9182133e-01
 -6.0159422e-02
 -4.6397313e-02
 -2.7842522e-02
 -5.9720449e-02
  3.3103097e-03
 -6.7626916e-02
 -3.6759675e-02
 -6.0729869e-02
  8.0016907e-03
 -2.7532965e-02
 -1.0521814e-02
  2.1718478e-02
 -2.2338375e-02
  4.6577509e-02
 -2.8398056e-03
  6.5013081e-02
 -2.2502860e-02
 -4.5592174e-02
  1.1947277e+00
 -4.2792708e-02
  1.2514914e-02
 -4.2699374e-02
  1.0150030e-01
 -2.8666884e-03
 -8.7050155e-02
 -2.1194831e-02
  8.4416553e-02
  9.1897845e-02
  2.2690804e-01
  2.8237098e-01
 -1.2975916e-01
  2.4838109e+00
 -3.9418694e-02
  5.8779746e-01
 -9.8768592e-02
 -3.7469063e-02
  2.4030879e-02
 -5.9319213e-02
  9.9729234e-04
  1.1953581e-03
  8.4321164e-02
 -2.1728855e-01
 -1.5265124e-02
  3.3063996e-03
  5.1402664e-03
  4.1843232e-02
 -5.2947767e-02
  6.1099410e-02
 -2.2187814e-01
 -1.5286545e+00
  1.6546931e+00
  5.7896203e-01
  2.0071459e+00
  2.2402658e-01
 -1.3227224e+00
  2.1855380e-02
  2.0675333e-02
  4.7329854e-02
 -2.2705510e-02
 -8.4077857e-02
 -5.9836143e-01
 -1.5140404e-01
  1.0312175e+00
 -5.4024923e-01
 -3.3704925e-01
  3.3020090e-02
 -1.6145304e+00
  9.3565989e-01
  1.0410646e-01
 -4.3135065e-01
  1.2339209e+00
 -6.6047186e-01
 -6.2504584e-01
  7.1385421e-02
  9.9803531e-01
  1.6249284e-02
  2.3140907e-01
 -3.2569456e-01
 -2.7954289e-01
 -3.2432280e-02
 -1.5528477e-02
 -2.1394044e-02
  4.6056349e-02
 -2.5846390e-02
  5.1686339e-02
  2.8542947e-02
  3.7671514e-02
  1.2060367e-01
  4.4736866e-02
 -9.4067782e-02
  1.0157331e-01
  1.0232717e-01
 -1.5166166e-02
 -9.2269093e-01
 -3.4633967e-01
 -9.0574220e-02
 -1.0198361e-01
  3.8940203e-01
  1.7735681e-01
  4.6734482e-02
 -1.0999238e-01
 -3.1677107e-04
  3.2761142e-02
 -7.9868380e-03
 -1.8403577e-02
  5.9205554e-03
  1.2139006e-02
 -1.9543786e-02
 -8.4982038e-02
 -8.4228086e-01
  8.4687285e-02
  1.0069281e-01
 -4.5053995e-01
 -3.0854102e-02
  8.3855323e-02
  1.4822233e-02
 -1.6157519e-02
 -4.7779687e-02
  2.3144197e-01
  5.0429720e-02
  2.5394699e-03
 -7.7897236e-02
  4.8469286e-03
  6.6804007e-02
 -2.0926178e-01
  1.8307655e+00
 -1.6703622e-02
  7.5439289e-02
  5.5071343e-02
 -1.3163854e-01
 -2.0736035e-02
  5.7093099e-02
 -1.6262899e-01
 -2.8851308e-02
 -1.0541478e-01
 -3.0920571e-02
 -3.1990983e-02
 -2.6485769e-02
  1.9194908e+00
  1.0582901e+00
  6.8366937e-02
 -1.2749641e+00
  9.6714765e-01
  5.3631699e-01
 -4.3622923e-01
 -4.9009225e-01
  1.0700197e+00
 -4.4656119e-01
  2.3834251e-02
  5.5175483e-01
  1.3028979e-01
  6.0828786e-02
 -1.7924978e-01
 -2.0903058e-01
  3.3478683e-01
  2.8234443e-02
 -1.9318673e-01
 -1.3923001e-02
 -7.9024893e-01
  6.5855336e-01
 -6.8348604e-03
 -6.8391359e-01
  2.8085291e-02
 -4.6566832e-01
 -3.0381712e-01
  3.2804960e-01
 -7.7624959e-01
 -8.3085984e-02
 -2.1189388e-02
  5.9383027e-02
  1.8420551e-02
  1.1905356e-01
 -7.1613163e-02
  1.2205963e-01
 -2.8789125e-02
 -2.5868881e-02
  1.7291658e-02
 -8.8715442e-03
 -1.3119150e+00
 -7.5047947e-03
  3.6464620e-02
 -1.4701946e-02
 -1.0552725e-02
  1.4843427e-01
  1.7353589e-02
  1.9313910e-03
  8.3419770e-02
  3.3399485e-02
  9.3850040e-01
  1.9797644e-02
  1.1186463e-01
  6.5203071e-02
  2.8502267e-02
  5.2962232e-02
  4.3890793e-03
 -7.0923902e-02
  4.5238648e-02
 -1.5430281e-01
 -3.2690796e-03
  1.4861104e-01
  1.4563179e-01
 -4.6325706e-02
 -2.8008578e+00
 -6.2265545e-03
  5.5757340e-02
 -1.1882149e-01
 -2.5199899e-02
 -1.5246716e-02
 -2.9401767e-01
 -1.2470527e-02
  9.2571713e-02
  7.0653841e-02
  8.6616501e-02
  1.2866281e-01
 -8.2925521e-02
 -6.3072130e-02
  4.5981452e-02
  4.3567187e-01
  4.2592127e-02
 -3.2567047e-02
 -2.0409040e-03
  6.9726184e-02
  1.1484800e-02
 -1.3047107e-02
 -1.1439040e-01
  5.2507602e-02
  5.0987460e-02
 -4.7528204e-02
  1.6189486e+00
  2.3122633e+00
 -2.7890149e-01
  9.6446526e-01
  2.7733724e+00
  2.5606277e+00
 -6.6407934e-02
 -2.1426855e-01
 -4.3666944e-01
 -4.2932591e-01
 -2.5460154e-01
  2.4046987e-01
  1.5855448e-01
 -1.6106491e-01
 -1.6290013e+00
  3.9429590e-02
 -8.5669532e-02
 -4.0595762e-02
 -1.1784068e+00
 -3.4050198e+00
  1.8684212e+00
  2.9945713e-01
 -2.2196809e-02
 -6.6995549e-01
 -7.3377259e-02
 -9.6060134e-02
 -2.0112123e-01
 -5.4884188e-02
  2.5039709e-03
 -7.2707497e-02
  1.2757547e+00
  3.2257577e-03
 -1.2380525e-01
 -3.3824258e-02
 -3.6987463e-01
  6.5831073e-02
 -1.1887646e-01
  1.1153369e-01
  7.8073956e-02
 -9.7056508e-02
 -3.8542129e-02
  1.2943704e-01
  4.7931504e-02
 -2.8970236e-01
  1.5059794e-01
 -4.6010241e-03
 -1.0399300e-02
 -2.1986103e-02
  5.6867272e-02
 -8.5128590e-02
 -3.2259107e-02
  1.1590738e-02
 -5.3227836e-01
 -4.6687829e-03
 -1.7810207e-02
  3.7906341e-02
 -3.9448112e-02
  5.0577924e-02
  2.8047357e-02
 -7.9666279e-02
  6.4148009e-02
  1.7902634e-01
  1.1293025e-01
  7.5603649e-02
  1.5065184e-01
  2.4126541e-02
  3.5295948e-02
 -1.6687357e-01
 -1.7082576e-01
 -1.0876179e-01
  3.9868630e-02
 -5.4901060e-02
 -3.6985882e-02
  2.8586416e-03
 -2.3189798e-02
  1.1001651e-02
 -2.3332262e-01
 -3.2167904e-02
 -6.2649310e-02
  6.1544083e-02
  6.2188596e-02
  2.3842055e-02
  2.5737055e-02
 -1.7408937e-01
  1.1704529e-01
  3.7854964e-01
 -1.1250334e-02
  4.3502785e-02
  4.3156102e-02
  6.0975552e-02
 -9.5288187e-02
 -1.6093370e-02
 -1.3514975e-01
 -8.3555691e-03
  1.8448798e-01
  8.9080967e-02
  1.5247199e-02
 -9.0532951e-02
 -5.5991791e-02
  7.9013826e-03
 -5.7170957e-02
 -7.1412325e-02
  9.9095823e-03
 -3.4153193e-02
 -1.1110462e-01
 -9.5710480e-01
 -1.7070800e-02
  8.5665770e-03
  3.0848516e-02
  5.3552300e-02
  2.1080776e-01
 -2.0807552e-01
  2.8365090e-02
  1.8039662e-03
  1.8862255e-02
  1.0689367e-01
  2.8873932e-01
 -2.1613867e+00
 -9.6717931e-02
 -1.0252761e-01
 -6.3324474e-02
  2.3780767e-02
 -8.0167167e-03
  7.0314594e-02
  2.3181131e-04
  8.6105593e-02
  1.2778291e-01
 -4.7181860e-02
 -3.7205923e-02
  4.4528302e-03
 -1.3812510e-02
  1.8653339e-02
  2.9102983e-03
  5.7223633e-02
  6.9947779e-02
 -7.7433214e-02
 -1.6838753e-01
  7.6129541e-02
  6.6229269e-02
 -9.2292335e-03
  5.9621409e-02
 -4.7684677e-02
  2.8646648e-02
 -7.0259273e-02
  2.0453257e-02
 -1.2940387e-01
 -1.9524054e-01
  6.2309202e-02
 -1.8961933e-02
 -4.4000231e-02
  4.0702369e-02
 -2.8227700e-02
  9.2550367e-02
  1.3325930e-02
 -6.5909594e-02
  4.1010458e-02
 -2.6993074e-02
 -5.4452131e-03
  3.6614452e-02
 -1.8677758e-03
  5.0128158e-03
  7.3535897e-02
 -4.9903922e-02
  2.7778298e-03
 -4.4186004e-02
 -2.1321055e-02
 -6.9556892e-02
  2.8061364e-02
 -6.1549997e-01
  2.3963202e-02
  1.1786104e-01
  2.2847518e-02
 -7.3777720e-02
 -8.2150847e-03
 -2.9252624e-02
 -3.2116007e-03
  5.1302925e-02
  2.2271732e-02
 -5.3942233e-02
  3.9919145e-02
  5.5060033e-02
  1.3000399e-02
 -5.4246014e-01
  4.2272481e-01
 -6.1839437e-01
 -1.0396254e-01
 -3.5110954e-02
  7.2237915e-01
 -4.1543233e-01
 -5.8689952e-01
 -5.1805621e-01
 -5.9090054e-01
  5.2279472e-01
  2.8440647e-04
  1.1399830e-01
 -1.5001358e+00
 -9.2364299e-01
  6.8772793e-01
  1.0622076e+00
 -5.4546441e-03
 -2.9745159e-01
 -2.8283745e-02
  6.6821748e-01
 -1.3358030e-01
  1.7300384e+00
  1.0392439e-01
  3.1982228e-02
  1.3709284e-02
  1.7138794e-01
  8.3569564e-02
 -1.3419739e+00
 -1.5135887e+00
  5.5114269e-01
 -1.7817467e-01
 -6.8826073e-01
 -1.4000301e+00
 -2.5681839e+00
  3.1303766e-01
 -1.7729441e+00
  4.0253773e-01
 -2.4485986e-01
  2.9721925e-02
 -2.2909649e-01
  7.7385259e-01
  1.3250660e+00
  8.5737482e-02
  1.2148532e-01
 -3.8919857e-01
  1.5758069e-01
  7.4164331e-01
 -5.8256271e-03
 -1.2298557e-01
 -8.5892221e-03
  5.4830682e-01
  8.9649951e-01
  1.2644184e-01
 -2.0213494e-01
  4.6230432e-01
 -2.0259720e-01
  1.0279711e+00
 -1.0405122e+00
 -7.5738311e-02
  5.1571482e-01
 -4.7901448e-02
 -9.3578941e-01
 -7.1827626e-01
  8.1394024e-02
 -1.9741911e-03
 -1.3631848e-01
 -1.3452359e-01
  3.1975901e-01
  1.9328605e-01
 -2.7544573e-01
 -1.4248595e-01
  3.7186870e-01
  9.4449580e-01
 -3.5214910e-01
 -1.3891630e-01
 -1.8368538e-01
  4.8300624e-02
  1.3596851e-01
 -1.2758048e-01
  4.2648625e-02
 -4.3283829e-01
 -1.9311702e-01
 -1.8120779e-02
 -5.1401891e-02
 -1.4802177e-01
 -3.1830827e-03
  1.0313148e-01
  3.4336396e-02
  7.2291899e-01
 -2.4110481e-02
  1.5625235e-01
  2.3134029e+00
  1.0029574e-01
  2.5694642e-02
 -1.5437546e-01
  6.0295570e-01
 -7.1798272e-02
 -8.5784203e-01
 -1.6355965e-01
  6.3731253e-01
  4.5387909e-01
  8.0367245e-02
 -2.5756584e-02
 -5.5455711e-02
  1.2388170e-01
  2.1516747e+00
  1.0660352e+00
 -1.2980589e+00
  1.0020108e+00
  1.0598897e-02
 -4.4058334e-02
  3.4794673e-02
 -9.6180597e-03
  8.5873514e-02
  4.6040516e-02
 -1.1506135e+00
  1.7131625e-02
  3.1078177e-02
  1.3082120e+00
  1.2596253e+00
  1.1029228e-01
 -1.3659436e+00
 -6.7572188e-01
 -2.9710416e-02
 -3.1042853e-01
 -6.5427673e-01
 -3.7201297e-02
  9.7914249e-01
 -3.9787143e-01
 -1.1708872e+00
  1.0504623e-01
  1.6421430e-01
 -1.5269045e+00
 -1.3798429e-01
 -5.3422447e-02
  2.1972227e+00
  1.6102087e-01
 -2.9265219e-01
 -5.9155041e-01
  2.6974496e-01
 -8.1211269e-02
  1.6100155e-01
  7.1976840e-02
 -2.2892907e-02
 -1.0017818e+00
 -7.5915599e-01
 -6.9530237e-01
 -5.6880686e-02
 -3.6597919e-01
  3.6762121e-01
 -2.4883400e-03
 -4.2138517e-02
 -1.7413661e-01
  8.8122666e-01
  1.2386035e-01
 -4.0942419e-01
 -7.1873772e-01
 -5.8682883e-01
  4.4669870e-01
  1.6706268e+00
 -3.9950028e-01
 -6.9133198e-01
 -1.6915135e-01
  1.9959210e+00
 -2.1184175e+00
 -2.3553714e-01
 -2.4355021e-01
  9.2280678e-02
 -1.6363516e-01
 -1.3018387e-02
  3.5989724e-02
 -2.3522131e-02
 -7.2773453e-04
  1.4520835e-02
  9.3219191e-02
  1.4505814e-01
 -1.0899205e-02
  1.5220196e+00
  1.3747746e+00
  3.9338976e-01
  1.1192105e+00
  1.4298072e-01
 -9.6018571e-01
  1.6663536e+00
 -1.0590676e-01
  1.6991452e+00
  1.4309673e+00
 -1.4371420e-03
  1.2199717e+00
 -1.5539365e-01
  1.0055282e-01
  1.5077759e-01
 -5.6999582e-01
 -2.0310724e-01
  1.3412900e-01
 -4.8586333e-01
  1.3766502e-01
  8.8364553e-01
  5.5344844e-01
  6.5774941e-01
 -1.3769326e-01
 -9.7493589e-01
  5.7527447e-01
 -9.8000103e-01
 -1.9878162e-01
  1.3361451e-01
  3.7616143e-01
 -1.9051121e-01
 -2.1573710e-01
 -2.2500838e-01
  2.0308608e-02
  2.7827016e-01
  2.3655094e-02
 -2.7570668e-01
 -4.9253862e-02
 -1.0548805e-01
 -3.8049772e-02
 -1.5660575e-01
 -1.9096385e+00
 -2.3241720e-01
 -3.4459185e-02
 -1.3842973e-01
 -3.9174635e-02
  1.4085286e+00
 -7.9030395e-03
 -1.1426793e-02
 -3.7508142e-01
  2.8772756e-01
  2.7865926e-03
  1.8512225e-02
 -3.3514149e-02
  3.8713004e-02
 -1.8032068e-02
  2.5876299e-01
  1.4943071e-01
  5.7602048e-02
  1.0122405e-01
  2.3599715e+00
 -2.4508548e-01
  6.8265146e-01
 -1.1081190e+00
  1.5852077e+00
 -1.4638901e+00
  9.5073706e-01
 -6.7276788e-01
  3.2422310e-01
 -6.7385626e-01
 -8.3569705e-02
  4.6009649e-02
  2.9716399e-01
 -2.0795667e+00
 -1.1248513e-01
 -6.5060639e-01
  5.6788510e-01
 -1.0087615e+00
  1.5044273e+00
  1.2532728e+00
  4.2242721e-01
 -5.6425023e-01
  3.8489172e-01
  2.9678839e-01
  3.4733221e-02
  3.7548622e-01
  2.2884658e-01
 -1.3948472e-01
  6.5978128e-01
 -2.1966598e+00
 -1.6611270e+00
  7.6848042e-01
 -7.5080454e-02
  8.4539376e-02
 -1.0963749e+00
  1.6516963e-01
 -4.4977945e-01
  1.4582286e+00
  1.0592569e+00
  8.4966177e-01
  1.3480708e-01
  1.3655534e+00
  1.0668799e-01
 -1.2472341e-01
  7.0116037e-01
  5.9057456e-01
 -8.6235476e-01
  3.4021536e-01
  1.3730687e+00
 -5.0541814e-02
 -1.3155023e-02
 -8.6565429e-01
 -1.9277304e+00
 -2.0581031e-01
 -1.6474912e-02
 -2.8528877e-02
 -1.2515390e-01
  1.2506817e-02
 -2.9067756e-03
  1.5668975e-02
  1.2586196e-02
  2.3459754e+00
 -4.4618839e-01
 -8.3646029e-02
 -3.1691715e-01
  6.5918989e-02
 -1.6153148e+00
 -3.0414471e-03
  7.1100265e-01
  2.0588916e-03
  8.0751315e-02
 -1.2247499e-01
 -4.9400184e-01
  3.8397688e-01
  2.5263625e-01
  2.2968008e-01
  1.2424492e+00
 -4.2706192e-02
  7.1811801e-01
 -2.8489485e-01
  1.2586345e-01
  1.2728670e+00
  4.2251865e-03
  4.5998266e-01
 -5.7556629e-01
 -2.0385490e-01
 -5.6092191e-01
  6.2920675e-02
 -7.6065652e-02
  6.6748567e-02
  1.7448603e+00
 -2.0864315e+00
 -2.9670414e-01
  2.9115839e+00
  4.5277312e-01
  4.6019936e-01
  1.5093907e+00
  8.5150868e-01
  1.1685672e+00
  2.1660389e-01
 -2.6275095e-01
  1.1038650e+00
  6.4651388e-01
  2.0088564e-01
  9.2917579e-01
  2.6669192e-01
 -3.1207308e-01
  9.4682175e-01
 -3.6248532e-01
  2.4060510e-01
  4.0312011e-02
  1.0060104e+00
  9.2413783e-01
  3.5887212e-01
  1.1713592e+00
 -6.2829703e-02
 -2.2408593e-01
 -3.9587918e-01
 -1.9839233e-02
  5.5193353e-01
  2.3103788e-02
  2.1665677e-01
 -7.3458500e-02
 -9.3264185e-02
 -2.1379627e-04
 -5.4637302e-02
 -1.3686849e-02
 -7.2727896e-02
 -1.2086020e-02
  4.9027119e-02
  7.4764110e-02
 -1.1311917e-01
 -1.6988389e-02
  1.3427062e-01
 -3.2259982e-02
  2.1772221e-02
  1.5197307e-01
 -1.5403178e-02
  8.5625108e-03
 -2.2592690e-02
 -1.0262551e-01
 -1.7574498e-02
  5.2724898e-02
 -4.5050748e-02
  3.6858533e-02
 -1.1579726e-01
  2.8160376e-02
 -6.6135913e-02
  8.8457108e-02
  1.0486173e-01
 -7.2597688e-01
  9.7585118e-01
  3.9762467e-01
 -4.1755881e-02
 -6.1933571e-01
 -9.4633299e-01
  8.1352866e-01
  3.9937201e-01
  2.2057290e+00
 -6.7656875e-01
  1.8573564e-01
  1.5524465e+00
  2.1045094e+00
  8.9916348e-01
 -3.8006568e-01
  1.3664986e+00
 -3.7855831e-01
  1.0533643e+00
 -1.7995040e-01
  4.1036612e-01
  9.1402847e-01
 -6.3513058e-01
 -7.5183772e-03
 -3.6606744e-01
  1.2113980e+00
  1.1040456e+00
  5.0249189e-01
 -5.0659686e-02
 -2.2791944e-01
  2.1842258e+00
  6.9156593e-01
  1.5915652e-01
 -1.5709583e-01
  1.9165306e-01
 -1.1898206e-02
  1.4126536e-02
  1.7122521e+00
  9.7598478e-02
 -2.4500430e+00
 -9.5954277e-02
 -8.4197916e-02
  1.4128610e+00
  7.6269096e-01
 -5.8865964e-01
  1.3442457e+00
 -1.9575614e-01
  1.7418832e+00
 -4.9730867e-01
 -1.3863441e+00
 -2.5914484e-01
 -1.4750570e-02
  1.5376387e+00
  4.1428098e-01
  1.9622462e-02
 -3.9923194e-01
 -4.4699814e-03
 -1.2767822e+00
 -5.3509909e-01
 -4.1338120e-02
 -6.3180611e-02
  1.4434654e+00
 -1.0103768e+00
 -6.2019837e-01
 -5.4251938e-03
  6.5995961e-01
  5.2636079e-02
 -1.1482412e+00
 -8.2722825e-01
  2.1207001e+00
  2.1370497e+00
 -2.0068944e-01
 -2.3296974e+00
  5.5812452e-02
  2.2548588e-02
  1.3340951e+00
  4.1711211e-02
 -1.1342508e+00
 -5.3582817e-02
  1.4708533e+00
  4.7293779e-01
 -5.7533467e-01
  1.2510973e-01
  2.3239049e-01
  7.2246176e-01
  1.1403997e+00
 -3.2467979e-01
  2.4419081e+00
 -3.5086574e-03
  6.1845843e-02
 -3.6122301e-01
  1.7991802e+00
 -2.7439437e+00
  1.3153771e+00
 -3.7643242e-01
  1.7586694e+00
 -1.2543337e+00
 -1.2497159e+00
 -7.1738583e-01
 -1.3985127e+00
  4.3256106e+00
  2.5670638e-02
 -8.6637270e-01
 -1.2971156e+00
 -1.4645237e-01
 -9.3123108e-01
  3.8476604e-01
  5.1326696e-02
  1.4820828e-01
  8.8474572e-02
  1.4199915e+00
 -6.2253451e-01
  4.6872997e-01
 -1.3166741e-01
 -1.0801575e+00
 -3.3863896e-04
  8.0686875e-02
  1.2547644e+00
 -8.3250135e-01
  7.5748277e-01
 -1.8430392e+00
 -2.3167416e-01
  1.3075389e+00
  5.2869284e-01
 -1.0015869e+00
 -2.2810474e-01
  4.4441889e-03
 -4.5901540e-01
  1.7941058e+00
  1.0096980e+00
 -1.1967894e+00
 -9.5670372e-02
  1.3104202e+00
  5.4084588e-02
 -7.3598439e-01
  1.2618275e-01
  4.3890983e-02
  1.1823609e+00
 -5.1723506e-02
  4.0780514e-01
  4.7125146e-01
 -3.9306432e-01
  9.8033661e-01
 -4.5018426e-01
 -1.8079743e-01
 -3.5000122e-01
 -1.1075170e-01
  1.2529500e+00
 -1.8568903e-01
 -2.5257537e-01
 -2.2200890e-01
 -8.6686957e-01
 -1.4539754e-01
 -1.1882236e+00
 -1.0054386e+00
  1.2093058e-01
  1.4023031e-01
 -2.1155090e+00
 -4.7050223e-02
 -1.0541689e-02
 -2.5234575e+00
 -1.5667660e+00
  5.3733301e-01
 -3.3375114e-01
 -3.5701996e-01
 -1.5229183e+00
 -1.1616774e+00
  1.3014637e-01
  3.5268933e-01
  1.1363922e+00
 -1.1115847e+00
  3.8766059e-01
 -1.2405318e+00
 -3.6870086e-01
  1.1450962e+00
 -7.9293713e-02
  7.0885189e-02
 -5.1513328e-03
  9.8699611e-01
  1.8471460e-01
  7.9009855e-01
  1.8951684e-01
  2.9931011e-02
  2.8936204e-01
 -1.7673990e-01
  1.2451380e-01
 -4.4375185e-02
  1.2215006e-01
 -4.4450828e-01
  3.7515394e-02
  6.4773035e-01
 -5.1596254e-02
 -3.3061713e-01
  5.6353450e-01
 -1.6111562e-01
 -1.2151203e-01
  3.3155286e-01
  2.0261674e-01
  1.2334415e-01
 -3.2063168e-02
  3.0630851e-01
  7.0975139e-04
  8.6535878e-02
 -1.5742487e-01
 -1.3247631e-01
  9.1088880e-03
  1.8369353e-01
  1.7875403e-02
  6.5539449e-02
 -2.7453195e-02
  6.0132280e-02
  1.6168021e+00
  1.8936986e-02
  7.4946903e-02
 -1.2812866e-01
  9.6939303e-02
 -5.7279836e-02
  2.9434126e-02
  3.6251687e-02
  3.1960890e-02
  1.1522051e+00
  3.9785199e-02
  2.5233386e-02
 -4.0030666e-03
  1.2731212e-01
 -7.7359408e-02
 -7.7242188e-02
  7.3612593e-02
  9.2345968e-02
  6.3322075e-02
 -5.8356225e-03
 -3.4287520e-02
  1.3350319e-02
  6.9669418e-02
 -6.4360842e-02
  1.6544583e-01
 -8.3830826e-02
  2.8578222e-01
 -1.0355681e-01
  1.7608065e-02
  5.3145815e-02
 -3.5673007e-02
 -8.3285756e-02
 -2.5709940e-02
  5.0570786e-01
 -5.5989337e-01
 -4.2676222e-02
 -1.0486243e+00
 -3.5380088e-02
  8.2117504e-01
 -4.7285143e-02
 -2.4556410e-02
 -2.5305349e-01
  3.9143957e-02
 -5.2317150e-02
  3.5331088e-01
 -6.4947191e-03
 -7.4640656e-01
  4.5654172e-01
  2.1887433e-02
 -2.9917995e-02
  1.9694945e-01
 -3.5878980e-01
 -1.6162731e-01
  5.6790061e-02
  4.5881204e-02
  6.4562343e-02
 -1.8966018e+00
 -3.4752466e-02
  5.3734064e-02
 -1.1909884e-01
  1.4649993e+00
  1.2950820e-01
  1.1352998e+00
 -2.0233438e+00
 -2.0905299e+00
 -1.4723140e+00
  4.3000206e-01
  4.3998402e-02
  1.1366824e-01
 -4.2133707e-01
  2.4714376e-01
  4.7790158e-01
 -1.7746327e-02
  6.8278700e-01
  2.9727200e-01
  2.4206409e-01
  1.5649530e+00
  1.1341573e-01
  7.3718971e-01
  2.2628906e+00
 -1.2828167e-01
  2.2057393e+00
  4.6306927e-02
  4.2617318e-01
  4.5333785e-01
  3.4344539e-02
 -1.5283023e+00
 -6.4164293e-01
 -7.6804282e-03
  3.5096115e-01
  4.9676079e-01
 -4.2530760e-01
  1.9091524e-01
 -1.4260337e+00
  1.8326344e+00
  1.8878541e+00
  3.9674225e-01
 -1.8567041e-01
  2.7022703e-02
 -2.0711179e+00
  2.4829377e-01
  2.3571982e+00
 -1.7794882e+00
  1.6752243e+00
 -8.3883739e-01
  5.0421286e-01
  2.0027019e-01
  1.5545858e-01
 -7.5171387e-01
 -5.2050442e-01
  1.5708673e+00
  7.0836872e-01
  2.2665837e+00
 -1.5388779e-01
 -1.8591401e-01
  1.6666692e-02
  1.0421873e-01
 -2.8844470e-01
 -8.0086303e-01
 -8.7070560e-01
  1.5518465e+00
 -1.1307342e+00
 -5.9146357e-01
  4.4816375e-01
  1.4790975e+00
  5.5796283e-01
  5.8637822e-01
 -7.1024740e-01
 -6.4115477e-01
 -1.2818015e-01
 -3.6283001e-01
  1.1046069e+00
 -7.1077651e-01
  6.9809222e-01
 -5.7363987e-01
 -1.6250151e+00
  1.8081269e+00
  1.2560277e+00
 -6.9265068e-02
 -4.0171242e+00
 -1.9497341e+00
  4.1353637e-01
  3.4410339e-02
 -2.9032614e-02
  1.6690689e-01
  8.8502711e-01
 -9.0179473e-01
  2.5608847e+00
  5.6594801e-01
 -5.0612581e-01
  1.7839694e-01
  1.6493006e-01
  1.3239451e-01
 -5.8079082e-01
  3.7202742e-02
  1.7252277e-01
  3.1762207e-01
 -7.0101225e-01
  4.8637959e-01
 -7.8752011e-02
  1.0336488e-03
 -9.8457938e-01
 -2.8506678e-02
  9.2553627e-01
  2.6703706e-02
  9.7728688e-03
 -2.8010249e+00
 -1.1937377e+00
  6.4089060e-02
 -1.2393577e+00
 -3.4724164e-01
 -8.3216101e-01
 -8.4325278e-01
  2.9263977e-02
 -1.2802747e-01
 -2.5647562e-02
 -7.9026186e-01
  7.0307173e-02
  5.0334662e-02
 -9.0173870e-02
 -1.4442416e-01
 -1.1624402e+00
 -6.4527643e-01
  1.6685804e+00
 -1.8231043e+00
 -5.7707763e-01
 -2.2599099e+00
 -2.7065235e-01
  4.1711053e-01
 -3.1943388e-02
 -9.1614503e-01
  3.6899224e-02
 -6.5124789e-03
  1.2786831e+00
  1.0973524e+00
  6.7637897e-01
 -2.1795161e-01
  2.1330720e-01
 -2.0283750e-01
 -1.4979558e+00
 -1.5810311e-01
 -5.1792580e-01
 -6.2128901e-01
 -9.3153864e-02
 -4.2258659e-01
  2.1866104e-03
  3.0848132e-02
  1.2009013e-01
 -2.8764896e-02
 -1.9378347e-02
  1.1702891e-02
  2.5569491e-02
 -5.1579230e-02
 -1.2688006e-01
  1.6844969e-02
  7.6870218e-02
  5.5870814e-03
  7.9520792e-04
  6.2851533e-02
 -1.4312699e-02
  5.1041156e-02
 -3.5884646e-03
 -2.0985882e-01
 -4.9887560e-02
 -2.7087484e-02
 -1.5767176e-01
  2.6110942e-03
  1.9067407e-02
 -5.0833458e-03
  2.4160603e-01
  4.5816806e-01
 -6.2411898e-01
 -8.5478351e-03
 -2.3775306e-03
  7.9217162e-03
  1.7285867e-02
  7.0794731e-02
 -3.9952123e-03
 -7.5783223e-02
 -5.9645198e-02
 -6.4830053e-01
 -3.3446714e-02
  2.5781158e-01
  7.2669633e-02
  1.3405838e+00
 -4.0093483e-03
  1.6441848e-02
 -5.4724282e-01
 -1.0032519e+00
  1.6243289e-01
  7.2829351e-02
  9.1039032e-01
 -2.4893346e-01
  1.2565317e+00
 -3.9163202e-01
 -5.2975100e-01
  7.5961137e-01
  4.9457991e-01
  1.3790578e+00
 -2.8761010e+00
  1.7461337e-01
  4.5457041e-01
  2.5116360e-02
 -1.0556529e-02
 -2.1381674e+00
  8.5785761e-03
 -1.5901999e-01
  7.5258648e-01
 -1.6645068e-02
 -2.0332779e-01
 -1.1765080e-01
  3.9233792e-01
  5.7818943e-01
  2.2858748e-01
  4.1876191e-01
  9.8183006e-03
  3.4144439e-02
 -4.3026648e-02
  2.3219723e-02
 -8.7452680e-02
  1.3433458e-02
 -1.9735537e+00
 -4.0596228e-02
  7.2743662e-02
 -2.9375723e-01
  8.5681802e-01
 -6.3314028e-02
  1.1839114e-01
  7.2421022e-02
 -8.7285146e-02
 -4.0365256e-02
  4.0009391e-02
  1.8895851e-02
 -3.8719825e-02
 -6.5224752e-02
  1.4968096e-01
 -3.4482256e-01
  1.2958614e+00
  3.7139179e-03
  9.7501494e-02
  2.3884309e-02
  1.5396282e-02
 -1.2489622e-01
 -1.0381842e-01
 -4.9912669e-03
 -7.1120203e-01
  3.8521942e-02
 -1.1629303e-02
 -1.6456498e-02
 -1.9300699e-02
 -1.1152796e-01
  1.1021105e+00
 -5.2995682e-03
  8.5821450e-01
 -1.4792467e-02
  2.2131407e-01
 -1.6405424e-01
  3.5850155e-01
  1.4078395e-01
  7.8763103e-01
  1.4073749e-01
  9.1429162e-01
 -7.3577017e-01
 -4.3765463e-02
 -7.4629135e-02
  5.6569550e-02
  3.1466869e-01
 -3.4239447e-01
 -8.0442645e-02
  1.5665510e+00
 -5.4778419e+00
  2.7337387e+00
  2.2783108e+00
  1.1887407e+00
 -4.4574537e+00
  8.1591123e-01
  6.4539470e-02
  1.9268177e+00
 -3.8871205e-01
 -2.2874065e-01
 -2.0003851e-01
  2.7450724e+00
  1.3700835e+00
  6.5423965e-02
  5.5528384e-01
 -1.2914167e-02
  7.4414723e-02
  2.3108950e+00
  1.2866616e+00
 -9.9839830e-01
  1.0012093e+00
  6.3242739e-01
  1.9276908e-01
  5.4389644e-01
 -7.7001053e-01
 -4.6245840e-01
  3.0528203e-01
  2.2023284e-01
 -1.0490718e+00
  1.9486103e+00
  2.8602958e+00
 -6.1427873e-01
 -8.0059248e-01
 -1.0133203e-02
  5.6628816e-02
 -5.7658728e-02
 -1.0479445e+00
  1.0747644e+00
 -3.1788874e-01
 -9.4078034e-02
 -1.2481689e-01
  5.9225911e-01
  3.4177381e-01
  3.4371114e-01
 -1.4983803e-01
 -7.1411625e-02
 -3.6988169e-01
  6.8447137e-01
 -6.3321012e-01
  5.7695236e-02
  7.0167708e-01
  5.1141185e-01
  6.8268441e-02
 -3.3552799e-01
 -4.8328139e-02
  7.7505574e-02
  3.2450866e-03
  3.0556295e-02
 -1.9512028e-01
  9.4048835e-02
  9.7707134e-01
 -4.1722569e-01
 -8.3447784e-01
 -1.3059138e-01
  2.0121942e+00
  3.8262755e-02
  2.1750076e+00
 -3.4761548e-01
  1.4168605e+00
 -1.9106041e+00
  1.4603961e+00
 -8.3677016e-02
 -3.7152000e-02
 -3.0182347e+00
  1.0389774e+00
 -2.2769251e-01
 -7.9582065e-02
 -4.6095824e-01
 -5.6303346e-01
 -3.9187195e+00
  1.4309491e-01
  1.1702039e+00
 -7.9829431e-01
 -4.3322912e-01
  1.0492710e+00
 -2.4771722e-01
 -1.8225914e-01
  4.5141515e-01
  1.2815758e+00
  2.0087676e-01
  2.6974404e-02
 -3.8801037e-02
 -1.3636003e-01
 -2.1024004e-01
 -3.0346340e-02
  8.9542016e-02
 -2.1732377e-01
 -2.5833171e-02
  2.4314279e-02
  5.1304944e-02
 -2.4218405e-02
 -2.1326847e-02
 -6.1920919e-03
 -4.8860397e-02
 -2.8088152e-02
  1.2738963e-02
  5.3716183e-02
  1.6147749e-02
 -6.5141827e-02
  2.8679796e-02
  1.1460461e-01
 -7.1117938e-02
 -8.7656915e-02
  4.7844082e-02
  5.9787426e-03
  3.9266478e-02
  1.4663650e-01
  2.6755387e-01
 -6.4262375e-02
 -1.7352816e-02
  6.6847259e-01
  4.0263447e-01
 -4.3249920e-01
  1.1273675e-01
 -3.1101930e-01
 -1.1569271e+00
  2.1996348e+00
  2.0914648e+00
  7.3207164e-01
  2.2895803e+00
 -9.3549572e-02
  1.3640067e-01
  1.6846141e+00
  6.1653811e-01
 -5.0201107e-02
 -1.3791447e+00
 -2.1138434e+00
  6.5284747e-01
 -8.4118330e-01
  9.5093556e-02
 -2.0401192e+00
  1.1970133e+00
  3.8450792e-01
  7.3895812e-01
 -9.5797491e-01
 -1.7805150e-01
  1.2478641e+00
 -2.4940722e-01
 -1.6318774e+00
  2.0439956e-02
  7.8441828e-01
  1.0213786e+00
  3.7172091e-01
  1.1440067e+00
 -7.9477257e-01
 -2.1886742e+00
  1.6904856e+00
 -2.3158129e-02
  1.3790585e+00
  1.8543160e+00
 -2.4381220e+00
  2.3016217e+00
  2.3071747e+00
 -1.7184619e+00
  2.5271374e-01
  5.4358616e-02
 -1.6418879e+00
  1.0156980e+00
  1.2667068e+00
  1.5943903e+00
 -1.3213295e+00
 -5.4706597e-01
  1.3702467e-01
  1.9736456e+00
 -2.1184731e-01
  6.3219917e-01
  1.5104811e+00
  5.1224762e-01
  1.8888984e+00
 -4.5480311e-02
 -1.9728644e+00
 -1.2623752e-02
 -2.1598984e-01
  3.2761109e-01
  1.2886542e-02
  2.0024583e+00
 -1.9336723e-02
 -2.9860055e-01
 -1.0909736e+00
  9.4772756e-01
  3.4229923e-03
  1.0118481e-01
 -3.5359923e-02
  1.0985859e-01
  9.8330563e-01
 -3.3625016e-01
  3.5881317e-01
 -1.4899949e+00
  3.3635560e-01
  3.8485117e-02
  2.4552476e-02
  1.3054199e-02
 -2.5517108e+00
  1.8349400e+00
 -9.1110724e-01
  4.0459782e-01
  2.8852680e+00
  4.9149271e-02
  7.4861422e-02
 -1.5771401e-01
  1.0542444e+00
  6.8636870e-01
  9.7652435e-01
 -6.1124331e-01
 -2.9723966e-01
 -9.7832924e-01
  2.4453349e+00
  2.6666986e-02
 -9.1374606e-02
 -3.2916927e-01
  8.8186011e-02
  6.5640277e-01
 -3.4429815e-01
 -3.4470347e-01
 -5.6860814e+00
  3.7638447e+00
  1.8585236e-01
  2.6337811e-01
  1.2527933e+00
 -1.8314077e-01
  5.2889806e-01
 -1.5150284e+00
  1.8468621e+00
 -1.5907995e+00
  3.2004261e+00
 -1.6374762e-01
 -1.8696222e-02
 -5.4739171e-01
  9.7996134e-01
  8.0101234e-01
 -1.0353178e+00
  1.5805879e-01
 -8.3162040e-02
  1.4581087e+00
  4.5217503e-02
  3.8842331e-03
  6.6078490e-01
  2.0559348e-02
  2.6370270e+00
 -8.1305635e-01
 -1.0449686e+00
 -5.5893600e-01
 -1.3796231e+00
  7.9039015e-02
  4.5797318e-02
 -1.5580571e-01
 -5.8961910e-01
  6.6803694e-02
 -1.3155568e+00
 -1.4243170e+00
 -1.5725920e+00
 -1.4644111e+00
 -4.2580941e-01
 -1.7046270e-01
  1.0056800e-01
 -1.2179885e+00
 -4.5517108e-01
  4.8578599e-01
  5.1076972e-01
 -3.2927942e+00
 -7.6045748e-03
 -1.7425120e-02
  1.0069515e-01
 -2.0893198e-02
  2.0536083e-01
  5.1931965e-01
  8.7428087e-01
 -4.6407306e-01
  4.5210537e-01
 -2.8954193e-01
  4.6305336e-02
  2.4455640e-01
  1.9494493e-02
 -9.0840900e-01
  1.3540975e+00
 -2.1940263e-02
  2.7026498e-01
 -1.1990918e-01
 -7.4194854e-01
 -6.1236036e-01
 -4.8864074e-04
  2.4350217e-02
 -9.1915017e-01
 -3.0677816e-01
  1.1228043e-01
 -3.8136226e-01
  5.1284152e-01
 -7.7967197e-01
  6.8596917e-01
  2.8622186e-01
  2.8803372e-01
  1.3816184e-01
  1.6801792e+00
 -5.5124158e-01
  1.0342233e+00
 -2.0018543e-01
  2.3680117e+00
  5.9559125e-02
  1.3410076e-02
  5.6032807e-01
 -1.2117322e-01
  2.7858033e-03
 -2.6548259e-02
  1.6147897e+00
  1.2223108e+00
 -9.9816173e-01
 -1.1036202e-01
 -9.6699905e-01
  5.2882213e-02
 -2.8333908e-02
 -4.3464646e-02
  9.0177077e-01
 -1.6018262e+00
  2.6876771e-01
 -1.0449233e-01
 -2.5100373e-02
  6.3597769e-02
  1.6472465e+00
  7.4116826e-01
 -1.8984030e+00
 -5.9055990e-01
  2.8754616e+00
 -2.8335660e+00
 -1.5136347e+00
  1.7001313e-01
 -1.0653602e-01
  3.1006610e-01
 -1.0251194e-01
  6.1610460e-01
 -4.8461697e-01
  3.2868354e+00
  1.1614846e+00
 -1.4339054e+00
 -6.3181347e-01
  4.2226884e-01
  1.5215296e+00
  1.6443208e-02
  1.2053325e-01
  2.8458640e-01
 -1.2792236e+00
  8.5344428e-01
 -2.9806089e+00
  2.1398148e-01
  1.3957216e-01
 -1.2242233e-01
  8.1808740e-01
  5.5729729e-01
  6.0405552e-01
  1.6285622e-01
  3.8660309e-01
 -5.5434006e-01
  1.4285934e-01
 -2.4895034e+00
  1.3849356e+00
  7.5763725e-02
 -8.3106328e-03
  3.4941387e-01
  3.6428240e-01
 -1.8044078e+00
 -1.2173939e+00
  2.3790775e-02
  7.9166466e-01
  1.8346918e+00
 -1.4222894e-02
  7.7492431e-02
  1.4402553e+00
  1.5303495e+00
  1.1347767e+00
  8.3632332e-01
  4.7519767e-01
  1.4208288e+00
  5.4121178e-01
  1.9803658e-01
  4.9428642e-01
 -3.0675302e+00
  2.3091507e+00
  1.8441728e-01
 -5.9188718e-01
 -1.4415230e-01
 -1.6428237e-01
  2.0878479e+00
 -7.6863512e-02
  1.9872394e+00
  1.6327740e+00
  3.2740161e-01
  7.0734876e-01
 -3.7562507e-01
  3.5447809e-01
  4.7611952e-01
 -1.9884945e-01
 -1.3641209e-02
 -3.0346045e-01
  1.1647717e+00
 -3.1222895e-01
  1.7899890e-01
 -2.0570005e-01
  5.9904915e-01
  1.8460372e-01
 -1.0071777e-02
  6.3396730e-02
  1.9961324e+00
  8.2836062e-01
  9.1266029e-02
  6.6696185e-01
  4.3310466e-01
 -1.7885880e-01
 -5.8425945e-01
  1.7079720e-01
 -3.8604745e-01
 -1.5687034e-01
  1.3447758e+00
  7.0124978e-01
 -8.3938462e-01
  6.5162998e-01
  7.1632490e-02
 -2.5189126e-01
 -3.6430475e-01
  2.2576224e-02
  7.7317813e-03
  8.9277732e-01
 -5.9044868e-01
  2.3458639e-01
  1.8589200e+00
 -2.7223182e-01
  4.3039593e-01
  5.7432240e-01
  3.5939027e-02
 -8.8876471e-02
  1.5763019e+00
  1.2510184e+00
  1.0234234e+00
 -2.0074487e-01
 -7.5552657e-02
 -1.0851412e+00
  3.9199322e-01
  2.3112246e-01
 -2.9449192e-01
  1.4421872e+00
 -1.3570997e+00
 -5.1144820e-02
  1.5922049e-01
  5.4918420e-02
 -4.8821222e-02
  6.0174328e-01
 -2.5960445e-01
 -5.6119454e-01
  2.3424588e-01
 -1.7041361e+00
 -1.4691460e+00
  5.0438827e-01
  1.0409011e-01
  6.9802344e-02
  2.0076323e+00
  4.4848582e-01
 -7.1930158e-01
 -3.9161243e+00
 -7.5083214e-01
 -1.6718617e-02
 -1.7266858e+00
 -2.8299266e-01
 -1.0328889e+00
 -1.1497188e-01
 -6.6719592e-01
  2.5699937e-01
  3.0230895e-01
  2.2858627e-02
  1.3193425e+00
 -1.5229163e+00
 -8.3694056e-02
  1.8723309e-01
  9.1272369e-02
 -1.4504787e-01
  4.1267344e-01
 -2.5691059e+00
 -4.4381099e+00
 -4.6104237e-01
  7.0946503e-01
  1.8521650e-01
 -1.6070853e+00
 -7.2006226e-01
 -5.2073449e-01
  1.2972189e-01
  2.7152598e-01
 -2.7467971e+00
 -3.2129700e+00
  7.0570439e-01
 -4.3400592e-01
 -1.5541788e+00
  3.9984081e-02
 -1.3758875e+00
 -6.4792347e-01
 -6.5732591e-02
  9.0592402e-01
  4.9153652e-02
 -1.2069381e+00
  8.0270946e-01
 -2.6856042e-02
 -2.5553787e-01
  7.2982806e-01
 -1.6311874e+00
  1.3961054e+00
  1.2852073e+00
  5.1352739e-01
 -5.0921232e-01
  4.3113638e-02
 -2.0471571e-01
 -1.8217025e+00
 -1.0108576e+00
  4.9881142e-01
  1.7569011e+00
 -7.7377766e-01
  1.4019659e+00
  4.8239681e-01
 -1.4490933e-02
 -8.0878037e-01
  3.4789392e-04
 -1.7762924e-02
  5.4933792e-01
  6.4592749e-01
 -9.2327535e-01
 -8.2253551e-01
  6.3666475e-01
 -2.4293797e+00
  8.1534845e-01
  9.1355163e-01
 -8.0824599e-02
  8.1051998e-03
  6.0652649e-01
  2.9249093e-02
 -1.4184074e-02
 -6.7699176e-01
 -2.5484234e-02
  4.7338631e-02
 -1.2274262e-02
  1.7056602e-01
  4.2485502e-02
  1.6978978e-01
  8.2362485e-01
  4.2948478e-01
  1.5222301e-01
  2.7878562e-02
 -1.2567376e+00
  2.0094447e+00
 -4.5634642e-02
 -1.7813737e-02
 -2.7498219e-02
  8.6032063e-01
 -3.0941173e-02
  6.2546164e-01
 -5.2456802e-01
  9.7564536e-01
  1.8241853e-02
  1.0834346e-03
 -3.2647915e-02
 -4.5279488e-01
 -1.3059258e-01
 -2.0871902e+00
  2.5232646e-01
 -3.1272778e-01
 -9.1866389e-02
 -1.0469149e+00
  2.7001666e-02
  6.8052788e-04
  5.4919481e-01
 -1.5883533e+00
  3.3090186e-01
 -7.7828944e-01
  5.6823045e-01
 -1.0213442e+00
  3.2956240e+00
 -5.1444368e-03
 -9.2238054e-02
 -8.1583699e-03
 -4.4102016e-01
  5.2140588e-01
 -8.7656505e-02
 -4.4788628e+00
  6.7651160e-02
  3.9363151e+00
 -2.0570472e-01
  5.9911448e-01
 -1.0487637e-01
 -5.5012161e-01
  1.9209892e+00
  1.8855816e-01
  6.4209007e-02
 -9.1936834e-02
  1.8171487e+00
 -2.0072731e-01
 -2.4796918e-01
 -9.7368693e-01
  1.7965025e+00
 -2.6960707e+00
 -2.4646981e+00
  6.3580126e-01
 -3.0445856e-01
  1.1629989e+00
 -3.8191475e-02
 -2.7041534e-01
 -6.8517946e-02
  8.8853705e-01
  7.7662510e-01
  1.8534138e+00
 -1.8481185e+00
 -5.5471873e-01
  1.1220012e+00
 -4.8176376e-03
  1.7295460e+00
 -5.8350015e-01
  1.7357510e+00
  1.4087405e+00
  1.7285286e+00
 -2.3885912e-01
 -5.1269859e-01
  2.0697372e+00
 -6.2046510e-01
  8.4761297e-04
  1.9765893e-01
 -7.9724264e-01
  1.5132380e+00
 -1.2141242e-01
  9.3382889e-01
 -5.8292341e-01
 -1.7555437e+00
  4.9815825e-01
 -1.1245273e+00
 -1.4899502e+00
  7.6502450e-02
 -1.9122053e+00
  1.0199810e+00
  3.5183883e-01
 -1.3288333e+00
 -1.3488743e+00
 -6.6731310e-01
  6.9602776e-01
 -2.2861605e+00
 -2.1193295e+00
  6.7854255e-01
 -2.8795773e-01
 -9.7263537e-02
  5.8425814e-01
  1.0350637e+00
 -6.7710683e-02
  2.1101692e+00
 -9.2111593e-01
 -2.0101895e+00
  1.0445598e+00
 -9.0236938e-01
 -1.8485974e-01
 -2.6846904e-02
 -6.8231052e-01
  9.0598337e-02
  1.1787722e-02
 -1.0151588e-01
 -4.8052832e-02
 -2.5846519e+00
  3.3261865e-01
  3.5801541e-02
  1.8268354e-01
  2.2999288e-01
 -7.3029445e-03
  1.3136784e-02
  4.9168703e-01
  4.4622555e-01
  2.4556100e+00
  9.1822785e-01
  2.8638612e-02
  2.4414442e-01
  6.4097303e-01
 -1.1488783e-01
  6.4084464e-01
  1.2022942e+00
  8.7998815e-02
  2.9888496e-01
  1.9274815e+00
  1.3345964e-01
  9.1712773e-02
  8.6049668e-02
  5.1015738e-02
  7.3259628e-01
 -1.1596444e-02
 -3.1204505e+00
 -9.4456488e-01
  2.7900622e+00
 -1.1606966e-01
 -7.7048898e-01
  3.3146498e-01
  2.1037644e-01
  2.0131825e-02
  5.0740051e-01
  2.1014972e-01
 -1.1274337e+00
 -8.9464104e-01
  7.8571779e-01
  7.7566832e-01
 -2.9166886e-01
  3.0442810e-01
  1.7601800e-01
  1.1610359e-02
  2.1613648e+00
  2.8258970e+00
 -4.8863104e-01
  6.9909406e-01
 -5.6128249e-02
  7.0992762e-01
 -1.2177373e-01
  3.7800273e-01
  5.3352737e-01
 -1.6411852e+00
 -3.1019456e+00
 -1.1989347e+00
 -4.3497518e-02
  4.6382926e-02
 -6.0113102e-01
 -2.3933426e-03
  1.1020800e-01
  1.9163594e+00
 -2.6519260e+00
 -3.0913908e+00
  1.0743755e+00
  3.1193006e-01
 -9.1407728e-01
  8.1498986e-03
 -5.2667309e-02
  7.9347706e-01
  5.6126201e-01
 -2.1664007e-01
  2.5215037e-02
 -1.1475726e+00
  5.2903759e-01
  8.8250563e-02
  8.9372671e-01
 -1.2205546e-01
  1.9232827e+00
  1.0934423e+00
  2.6869151e-01
 -1.2684765e-01
 -8.3331227e-01
  3.2980785e-02
 -8.7073892e-01
  2.7365285e-01
  4.2466179e-02
  5.8716040e-02
  2.5179501e+00
  1.1285211e-01
  1.9201323e+00
  3.9062563e-02
 -2.9529729e-01
  2.5722113e+00
  1.6413056e+00
 -3.3260813e-01
  5.0444001e-01
 -1.6389871e-01
  2.5388253e-01
  1.6872303e+00
  6.6657937e-01
 -4.1124451e-01
  1.8832012e+00
 -1.4983090e+00
 -2.3566130e-01
 -8.4512614e-02
 -1.5610350e+00
 -1.4897833e+00
  3.9732656e-01
  1.5350106e+00
  5.1077381e-02
  3.8082562e-02
 -4.3689492e-01
 -1.8149886e-02
  2.1009284e-01
  6.5114379e-01
  1.1187038e+00
 -5.7126798e-02
  4.2395326e-01
 -2.2233481e+00
  5.5101907e-01
 -1.1477225e-01
 -1.2925051e-01
 -7.2321928e-01
 -3.4272015e+00
 -6.0085499e-01
  4.9401441e-01
 -1.4472513e+00
  2.5137239e+00
 -1.0373794e-01
 -1.9053708e+00
  3.0006094e-02
  2.1092241e-01
  7.2192758e-01
  1.1107999e+00
  1.4895023e-01
  4.3266678e-01
  6.7299321e-02
  2.5085959e-01
 -7.6229537e-01
 -2.6617106e-02
  2.3675708e-02
  6.0125011e-01
  2.2952821e+00
 -7.1749222e-01
 -9.4635361e-01
  5.1696122e-01
 -3.7739877e-02
 -1.4819229e-01
 -4.9787927e-01
  1.3058170e-02
 -1.1530800e+00
 -2.1047726e+00
 -8.8755196e-01
  6.5637696e-01
  2.0058548e-01
  4.4049522e-01
 -2.3254485e+00
  1.1426364e-01
 -1.3584848e-01
 -2.3490405e+00
  6.2391436e-01
 -2.6508912e-01
  1.6104558e-01
 -1.4304171e+00
  2.7650887e-01
  5.9680086e-01
 -4.7754988e-01
  3.5436042e-02
  8.0717605e-01
  3.3692905e-01
  5.5075294e-01
 -9.9409622e-01
 -1.7318670e-01
  7.4710943e-02
 -2.9252417e+00
 -1.3876702e-01
  7.7973707e-03
 -1.6322248e+00
  1.7204197e-02
 -1.1826479e-01
  6.1096836e-02
  9.2877313e-02
  1.1585588e+00
 -2.0086606e-01
  3.9700300e-02
  7.3659949e-02
 -1.2295406e+00
  1.6022813e+00
  6.6051579e-01
 -1.6172639e-01
  4.4217143e-02
 -2.8418949e-02
  1.9609527e-01
 -3.5266924e-01
 -7.4864104e-02
 -9.1923380e-01
  2.1018481e+00
  5.0432988e-02
 -2.3173382e+00
  8.5716242e-01
  1.0073915e+00
  7.7959186e-01
  1.6501622e-01
 -3.4811127e-01
 -1.5785658e+00
  3.0684395e+00
  1.3360779e-01
 -2.5934854e+00
  2.3974674e+00
  3.0674100e-02
  4.0283510e-01
 -1.4060372e-01
  3.7792900e-01
 -1.3466597e-01
  7.4201804e-01
  2.5240827e-01
 -8.9761424e-01
  1.0609635e+00
 -1.0595772e+00
  6.0011524e-01
  2.3538117e+00
 -9.5602828e-01
  5.9530163e-01
  2.2341740e+00
 -1.1636423e+00
  1.2438526e+00
  4.4878818e-02
 -2.0277743e-01
 -7.2745037e-01
 -9.5565226e-03
 -2.4011087e-01
  4.4611129e-01
  9.3841672e-01
 -2.6658714e+00
 -2.2418141e+00
 -1.8189732e+00
 -6.8724304e-02
  7.6473862e-02
  1.4013215e+00
  3.2942572e-01
 -5.2058101e-01
 -1.1710974e+00
  3.6829519e+00
  2.2245049e-01
 -2.1942954e+00
  1.3946840e-01
 -1.9491054e+00
  3.3147326e-01
 -2.6921158e+00
 -1.8373758e+00
 -5.3507668e-01
  3.0162301e+00
 -4.8737451e-01
 -6.1159255e-03
 -5.3239858e-01
 -1.5303105e+00
  3.8546998e-02
 -1.3647419e+00
  2.9760370e+00
  1.4582976e+00
 -2.8161159e+00
  3.4722313e-01
 -5.4482019e-01
 -1.1067943e-01
  3.0629287e+00
  1.0598418e-01
 -1.0456232e+00
 -1.9690342e-01
 -3.7728438e-01
 -3.1464503e+00
  1.1662350e+00
  9.0391994e-01
  1.4570200e-02
 -2.3365515e-01
  7.0194656e-01
 -8.7053217e-02
 -6.0772437e-01
 -2.2682691e+00
  1.6141142e-01
 -1.9022455e-02
 -1.4719561e+00
 -6.3336408e-01
 -3.2835670e+00
  2.7449217e-01
 -8.0149692e-01
 -3.2921010e-01
  8.1781167e-01
  1.3931546e+00
 -5.7775396e-01
 -1.1969702e-01
  6.5578043e-01
 -6.6107655e-01
  9.8791486e-01
  9.4458359e-01
 -1.1492023e-01
 -8.7080970e-02
 -9.6427745e-01
 -4.1397205e-01
  1.3212755e-01
 -1.1394311e-01
 -3.8259751e-01
  1.9549891e-02
 -2.5950978e+00
 -1.1186221e-01
 -1.6292592e+00
 -1.5710913e+00
 -4.1069171e-01
 -4.1654688e-01
  3.5928032e-01
 -4.2865425e-01
  7.3850381e-01
 -8.8817263e-01
 -2.2598323e-01
 -2.5387713e-01
 -1.0160933e+00
 -1.2892040e+00
 -2.1863955e-01
  7.6717809e-03
 -1.5080316e+00
  8.1478305e-02
 -3.5625306e-01
 -8.3798558e-02
  1.3273343e+00
  1.0470971e-01
 -1.1157123e+00
 -8.7169141e-02
 -1.2382834e-01
 -1.4546199e+00
 -7.4381822e-01
  5.9210539e-01
  2.9464707e-01
  2.0418863e+00
  7.3358542e-01
 -5.2240694e-01
 -1.1820309e+00
  2.2893013e-01
 -2.5804710e-01
  7.5326240e-01
  2.9893267e-01
  3.6518547e-01
  2.0388953e-02
  2.1956165e-01
 -7.6465917e-01
  7.1038310e-03
  1.1736091e-01
  3.7022272e-01
  1.7287990e-02
 -2.3311056e-02
 -2.6082630e+00
  2.0675567e-01
 -2.7266040e-01
 -1.1918247e+00
 -2.5717175e-01
 -7.3138684e-01
 -4.0192553e-01
  5.1637352e-01
  8.5569662e-01
  6.0818535e-01
  1.5017208e-01
 -9.5955029e-02
  1.4665055e+00
 -1.4927835e+00
 -9.8470435e-02
  1.3668815e+00
 -1.0377192e-01
 -8.7220192e-01
  3.1262627e-01
  1.9504143e+00
  7.2965689e-02
 -9.4079715e-01
  3.3891004e-02
 -1.7202299e-02
  7.5725877e-01
  3.8541001e-01
  7.0946842e-02
  3.3656719e-01
  7.2998405e-01
  1.1788743e+00
  1.3133381e-01
 -6.2368834e-01
 -4.3308657e-01
 -1.8932539e+00
  1.9516018e-01
  1.5351173e+00
  5.2845752e-01
 -1.1264944e+00
  3.0655015e-01
 -6.4004219e-01
 -6.3309646e-01
  3.1357899e-02
 -1.6366405e+00
  7.3357910e-02
 -1.6681494e-02
  2.9711416e+00
 -1.4071772e+00
  2.6751605e-01
 -4.3231770e-01
 -1.1790909e-01
 -1.1369943e-01
  4.8934394e-01
  6.7806388e-03
 -1.0307612e+00
  1.4446067e+00
  5.5036664e-01
  1.0909863e+00
  5.1765561e-02
 -9.0721017e-01
 -1.1112014e-02
 -1.7120675e+00
  1.0309049e+00
 -6.3147336e-01
 -1.0788925e+00
 -1.4997812e-01
  1.4989710e+00
 -8.2327783e-01
 -2.5601685e-01
  7.8382842e-02
  2.5532770e+00
  7.7669576e-02
  7.9831660e-01
 -3.1726422e+00
  1.2563702e+00
 -1.4676778e-01
 -1.6243908e+00
 -1.3414677e+00
  1.9182585e-02
 -2.5884202e-01
  1.0381670e-01
 -3.5645142e-01
  4.6103799e-01
  9.1945857e-01
  5.0084732e-02
 -3.4458476e-01
  9.6380210e-01
  2.2281720e-01
  2.1766311e-01
  3.7642565e-01
 -8.0759950e-02
  3.8317081e-01
 -5.3719573e-02
  2.2883481e-01
  1.2796532e-01
 -1.2902571e+00
  5.4523629e-01
  2.1365735e-01
 -2.7450785e-01
  2.9130176e-01
  8.3191335e-01
  1.9168036e-01
  6.8561012e-01
  5.5306595e-02
  6.8329878e-02
 -8.2321113e-01
 -2.2652389e-01
  1.4701729e-01
  1.1811516e+00
 -1.8688713e+00
 -1.2738911e+00
 -2.7825475e-01
 -7.2921604e-01
  6.4660534e-02
  2.5182525e-02
 -5.0451797e-01
 -5.7097290e-02
  1.0860950e-01
 -2.3814394e+00
 -2.0588702e-01
 -7.1917021e-01
  1.3983396e-01
  9.4559968e-02
 -2.0232659e-02
  6.9412565e-01
  3.2691097e-01
  2.3138916e+00
  1.6301756e-01
 -1.5281150e+00
 -2.7159746e+00
 -6.7621034e-01
  3.9322855e+00
  6.5019652e-02
  2.1197854e-01
 -6.6749685e-02
  3.2111905e+00
 -1.4851105e+00
  1.2346233e-01
 -2.3309615e+00
  2.2120945e-01
  3.9438065e-02
 -4.0994537e-01
 -1.2226299e+00
  1.0123745e+00
  5.0976926e-01
  1.6899555e+00
  3.1719279e+00
  3.1792000e-01
  1.2368412e-01
  1.2292012e+00
 -6.6991970e-03
  3.4387724e+00
 -6.6758710e-01
  3.5641861e-01
  1.3795766e-01
 -2.0946684e+00
  5.7586026e-01
  1.7840042e+00
  1.9281325e+00
 -3.1861335e-02
  8.0395949e-01
  1.0081121e-01
  1.5672330e+00
 -1.1929587e+00
 -1.0203787e+00
 -1.5149000e+00
  5.0402135e-01
 -1.3515972e+00
  5.9419002e-02
 -9.5018607e-01
  1.2026905e-01
  2.5951958e-01
  3.6427003e-01
  1.4816827e+00
 -1.0771335e+00
 -4.0005758e-02
  2.4123361e+00
 -3.2538746e-02
  9.8221207e-01
 -2.4455175e-02
 -5.9400547e-01
 -4.6598274e-01
  5.9493808e-03
  9.8391718e-01
  1.2791350e-01
 -1.4880037e-01
 -4.8342301e-03
 -5.3904033e-01
  7.6622695e-01
  1.0850061e+00
 -2.0500164e-01
  1.7421511e+00
  8.7994200e-01
  7.5562936e-01
  1.0820825e-01
  6.1729543e-02
 -1.2663066e+00
 -1.2608534e+00
  1.9859208e-01
 -6.7301726e-01
 -8.3975720e-01
  8.8093841e-01
 -2.6835722e-01
  6.1765933e-01
  7.3856086e-02
 -5.0451773e-01
  5.6829900e-01
 -1.3160732e-02
 -7.6185012e-01
  9.0326530e-01
 -5.6265775e-02
 -3.5835184e-02
  5.9772432e-01
  4.4413853e-01
  6.9830149e-01
  9.4601941e-01
  3.9685136e-01
  1.7777473e-01
 -9.4374949e-01
 -4.1019920e-01
 -9.2620544e-02
 -3.6518091e-01
  2.7776125e-01
  2.4118663e-01
  1.6821325e-01
  3.3682868e+00
 -3.7471530e-01
  2.4424706e+00
  1.1366351e+00
  2.4953315e+00
 -2.3683254e-02
 -4.3312315e-02
  8.5189623e-01
  1.7285768e-02
 -3.5533819e-02
  2.7321732e-01
 -7.2885507e-01
  1.4815122e+00
  1.6038120e-01
  5.2911676e-02
  5.8320016e-01
 -1.1189030e+00
  7.0316559e-01
  1.0872259e+00
  9.9251807e-01
 -5.4732811e-01
  1.7771709e+00
 -1.0388368e+00
  1.6962868e-01
 -3.1715281e-02
  1.2431949e-02
  3.4010492e-02
  3.4733015e-01
 -9.2223263e-01
  1.4062401e+00
  1.1220778e+00
  1.4750139e-01
 -4.2367350e-02
  1.0510247e+00
 -1.5427479e-02
  8.1817647e-03
  4.2486939e-01
 -1.5921235e+00
  7.6321280e-01
  5.0633979e-01
 -2.2193816e+00
 -1.3477528e-01
  8.4957808e-02
  5.0082237e-01
  1.1701341e+00
  9.7047490e-01
  8.7482435e-01
 -5.2412546e-01
  5.7811755e-01
  1.2727894e+00
 -2.3446082e-01
  4.4416726e-02
  2.4850076e-01
 -4.7611669e-02
  4.5525458e-01
 -1.5435062e-01
 -3.4749201e-01
  4.2498598e-01
  5.4710358e-01
  3.3036703e-01
  2.1034445e-01
  3.4507681e-03
  8.7773043e-01
  1.0159788e+00
 -7.8863925e-01
 -1.0086296e+00
 -3.7863427e-01
 -3.6727864e-01
  5.9838289e-01
 -1.5063021e-01
  1.0515950e+00
 -1.9097430e-01
  8.8010508e-01
 -6.0189146e-01
 -6.1306524e-01
 -5.7770997e-01
 -6.0920858e-01
 -7.6361269e-02
  9.0816224e-01
 -1.0190409e+00
  8.8669717e-01
  9.8005778e-01
 -3.3618048e-01
  9.0036136e-01
 -2.8567460e-01
 -1.9516213e+00
  2.5021341e-01
 -3.6076307e-01
  3.2915220e+00
  1.9539469e+00
  2.6235312e-01
 -1.2891276e-01
  1.3231184e+00
  3.8536236e-01
 -2.1181312e+00
 -1.5878103e+00
  2.3115185e-01
  7.5959766e-01
  8.1627238e-01
  6.0895872e-01
 -3.7860051e-01
  5.8383363e-01
  3.0815074e-01
 -7.0215803e-01
  6.1584282e-01
  5.1130984e-02
  1.3301251e+00
  4.8045269e-01
  8.1289339e-01
 -2.7570203e-01
 -3.4141204e-01
  8.1648670e-02
  3.5413578e-01
  1.6640214e-02
  1.6640214e-02
  1.6640214e-02
  1.6640214e-02
  1.6640214e-02
  4.3687940e-02
  4.3687940e-02
  4.3687940e-02
  4.3687940e-02
  4.3687940e-02
  2.5082333e-02
  2.5082333e-02
  2.5082333e-02
  2.5082333e-02
  2.5082333e-02
  1.2051275e-02
  1.2051275e-02
  1.2051275e-02
  1.2051275e-02
  1.2051275e-02
  6.7577264e-03
  6.7577264e-03
  6.7577264e-03
  6.7577264e-03
  6.7577264e-03
  1.8942138e-02
  1.8942138e-02
  1.8942138e-02
  1.8942138e-02
  1.8942138e-02
